digraph Tree {
node [shape=box, style="filled", color="black"] ;
graph [ranksep=equally, splines=polyline] ;
0 [label="petalwid <= 0.75\ngini = 0.664\nsamples = 90\nvalue = [44, 44, 53]\nclass = virginica", fillcolor="#8139e518"] ;
1 [label="gini = 0.0\nsamples = 27\nvalue = [44, 0, 0]\nclass = setosa", fillcolor="#e58139ff"] ;
0 -> 1 [labeldistance=2.5, labelangle=45, headlabel="True"] ;
2 [label="petalwid <= 1.7\ngini = 0.496\nsamples = 63\nvalue = [0, 44, 53]\nclass = virginica", fillcolor="#8139e52b"] ;
0 -> 2 [labeldistance=2.5, labelangle=-45, headlabel="False"] ;
3 [label="sepalwid <= 2.25\ngini = 0.122\nsamples = 31\nvalue = [0, 43, 3]\nclass = versicolor", fillcolor="#39e581ed"] ;
2 -> 3 ;
4 [label="sepallen <= 6.1\ngini = 0.444\nsamples = 2\nvalue = [0, 2, 1]\nclass = versicolor", fillcolor="#39e5817f"] ;
3 -> 4 ;
5 [label="gini = 0.0\nsamples = 1\nvalue = [0, 0, 1]\nclass = virginica", fillcolor="#8139e5ff"] ;
4 -> 5 ;
6 [label="gini = 0.0\nsamples = 1\nvalue = [0, 2, 0]\nclass = versicolor", fillcolor="#39e581ff"] ;
4 -> 6 ;
7 [label="sepallen <= 6.05\ngini = 0.089\nsamples = 29\nvalue = [0, 41, 2]\nclass = versicolor", fillcolor="#39e581f3"] ;
3 -> 7 ;
8 [label="gini = 0.0\nsamples = 14\nvalue = [0, 22, 0]\nclass = versicolor", fillcolor="#39e581ff"] ;
7 -> 8 ;
9 [label="sepallen <= 6.4\ngini = 0.172\nsamples = 15\nvalue = [0, 19, 2]\nclass = versicolor", fillcolor="#39e581e4"] ;
7 -> 9 ;
10 [label="petallen <= 5.0\ngini = 0.346\nsamples = 7\nvalue = [0, 7, 2]\nclass = versicolor", fillcolor="#39e581b6"] ;
9 -> 10 ;
11 [label="gini = 0.0\nsamples = 5\nvalue = [0, 7, 0]\nclass = versicolor", fillcolor="#39e581ff"] ;
10 -> 11 ;
12 [label="gini = 0.0\nsamples = 2\nvalue = [0, 0, 2]\nclass = virginica", fillcolor="#8139e5ff"] ;
10 -> 12 ;
13 [label="gini = 0.0\nsamples = 8\nvalue = [0, 12, 0]\nclass = versicolor", fillcolor="#39e581ff"] ;
9 -> 13 ;
14 [label="sepallen <= 5.95\ngini = 0.038\nsamples = 32\nvalue = [0, 1, 50]\nclass = virginica", fillcolor="#8139e5fa"] ;
2 -> 14 ;
15 [label="petallen <= 4.85\ngini = 0.278\nsamples = 4\nvalue = [0, 1, 5]\nclass = virginica", fillcolor="#8139e5cc"] ;
14 -> 15 ;
16 [label="gini = 0.0\nsamples = 1\nvalue = [0, 1, 0]\nclass = versicolor", fillcolor="#39e581ff"] ;
15 -> 16 ;
17 [label="gini = 0.0\nsamples = 3\nvalue = [0, 0, 5]\nclass = virginica", fillcolor="#8139e5ff"] ;
15 -> 17 ;
18 [label="gini = 0.0\nsamples = 28\nvalue = [0, 0, 45]\nclass = virginica", fillcolor="#8139e5ff"] ;
14 -> 18 ;
{rank=same ; 0} ;
{rank=same ; 2} ;
{rank=same ; 3; 14} ;
{rank=same ; 4; 7; 15} ;
{rank=same ; 9} ;
{rank=same ; 10} ;
{rank=same ; 1; 5; 6; 8; 11; 12; 13; 16; 17; 18} ;
}