digraph Tree {
node [shape=box, style="filled", color="black"] ;
graph [ranksep=equally, splines=polyline] ;
0 [label="petallen <= 2.5\ngini = 0.664\nsamples = 93\nvalue = [48, 52, 41]\nclass = versicolor", fillcolor="#39e5810b"] ;
1 [label="gini = 0.0\nsamples = 34\nvalue = [48, 0, 0]\nclass = setosa", fillcolor="#e58139ff"] ;
0 -> 1 [labeldistance=2.5, labelangle=45, headlabel="True"] ;
2 [label="sepallen <= 6.65\ngini = 0.493\nsamples = 59\nvalue = [0, 52, 41]\nclass = versicolor", fillcolor="#39e58136"] ;
0 -> 2 [labeldistance=2.5, labelangle=-45, headlabel="False"] ;
3 [label="petalwid <= 1.7\ngini = 0.375\nsamples = 40\nvalue = [0, 48, 16]\nclass = versicolor", fillcolor="#39e581aa"] ;
2 -> 3 ;
4 [label="sepallen <= 5.9\ngini = 0.081\nsamples = 31\nvalue = [0, 45, 2]\nclass = versicolor", fillcolor="#39e581f4"] ;
3 -> 4 ;
5 [label="gini = 0.0\nsamples = 17\nvalue = [0, 24, 0]\nclass = versicolor", fillcolor="#39e581ff"] ;
4 -> 5 ;
6 [label="petallen <= 4.95\ngini = 0.159\nsamples = 14\nvalue = [0, 21, 2]\nclass = versicolor", fillcolor="#39e581e7"] ;
4 -> 6 ;
7 [label="gini = 0.0\nsamples = 12\nvalue = [0, 21, 0]\nclass = versicolor", fillcolor="#39e581ff"] ;
6 -> 7 ;
8 [label="gini = 0.0\nsamples = 2\nvalue = [0, 0, 2]\nclass = virginica", fillcolor="#8139e5ff"] ;
6 -> 8 ;
9 [label="petallen <= 4.85\ngini = 0.291\nsamples = 9\nvalue = [0, 3, 14]\nclass = virginica", fillcolor="#8139e5c8"] ;
3 -> 9 ;
10 [label="gini = 0.0\nsamples = 1\nvalue = [0, 3, 0]\nclass = versicolor", fillcolor="#39e581ff"] ;
9 -> 10 ;
11 [label="gini = 0.0\nsamples = 8\nvalue = [0, 0, 14]\nclass = virginica", fillcolor="#8139e5ff"] ;
9 -> 11 ;
12 [label="petallen <= 5.05\ngini = 0.238\nsamples = 19\nvalue = [0, 4, 25]\nclass = virginica", fillcolor="#8139e5d6"] ;
2 -> 12 ;
13 [label="gini = 0.0\nsamples = 4\nvalue = [0, 4, 0]\nclass = versicolor", fillcolor="#39e581ff"] ;
12 -> 13 ;
14 [label="gini = 0.0\nsamples = 15\nvalue = [0, 0, 25]\nclass = virginica", fillcolor="#8139e5ff"] ;
12 -> 14 ;
{rank=same ; 0} ;
{rank=same ; 2} ;
{rank=same ; 3; 12} ;
{rank=same ; 4; 9} ;
{rank=same ; 6} ;
{rank=same ; 1; 5; 7; 8; 10; 11; 13; 14} ;
}