digraph Tree {
node [shape=box, style="filled", color="black"] ;
graph [ranksep=equally, splines=polyline] ;
0 [label="sepallen <= 5.45\ngini = 0.665\nsamples = 91\nvalue = [50, 43, 48]\nclass = setosa", fillcolor="#e5813905"] ;
1 [label="petalwid <= 0.8\ngini = 0.156\nsamples = 29\nvalue = [43, 4, 0]\nclass = setosa", fillcolor="#e58139e7"] ;
0 -> 1 [labeldistance=2.5, labelangle=45, headlabel="True"] ;
2 [label="gini = 0.0\nsamples = 27\nvalue = [43, 0, 0]\nclass = setosa", fillcolor="#e58139ff"] ;
1 -> 2 ;
3 [label="gini = 0.0\nsamples = 2\nvalue = [0, 4, 0]\nclass = versicolor", fillcolor="#39e581ff"] ;
1 -> 3 ;
4 [label="petallen <= 4.95\ngini = 0.562\nsamples = 62\nvalue = [7, 39, 48]\nclass = virginica", fillcolor="#8139e52a"] ;
0 -> 4 [labeldistance=2.5, labelangle=-45, headlabel="False"] ;
5 [label="petallen <= 2.6\ngini = 0.342\nsamples = 32\nvalue = [7, 39, 3]\nclass = versicolor", fillcolor="#39e581c2"] ;
4 -> 5 ;
6 [label="gini = 0.0\nsamples = 4\nvalue = [7, 0, 0]\nclass = setosa", fillcolor="#e58139ff"] ;
5 -> 6 ;
7 [label="sepalwid <= 2.95\ngini = 0.133\nsamples = 28\nvalue = [0, 39, 3]\nclass = versicolor", fillcolor="#39e581eb"] ;
5 -> 7 ;
8 [label="gini = 0.0\nsamples = 17\nvalue = [0, 27, 0]\nclass = versicolor", fillcolor="#39e581ff"] ;
7 -> 8 ;
9 [label="petalwid <= 1.7\ngini = 0.32\nsamples = 11\nvalue = [0, 12, 3]\nclass = versicolor", fillcolor="#39e581bf"] ;
7 -> 9 ;
10 [label="gini = 0.0\nsamples = 8\nvalue = [0, 11, 0]\nclass = versicolor", fillcolor="#39e581ff"] ;
9 -> 10 ;
11 [label="sepalwid <= 3.1\ngini = 0.375\nsamples = 3\nvalue = [0, 1, 3]\nclass = virginica", fillcolor="#8139e5aa"] ;
9 -> 11 ;
12 [label="gini = 0.0\nsamples = 2\nvalue = [0, 0, 3]\nclass = virginica", fillcolor="#8139e5ff"] ;
11 -> 12 ;
13 [label="gini = 0.0\nsamples = 1\nvalue = [0, 1, 0]\nclass = versicolor", fillcolor="#39e581ff"] ;
11 -> 13 ;
14 [label="gini = 0.0\nsamples = 30\nvalue = [0, 0, 45]\nclass = virginica", fillcolor="#8139e5ff"] ;
4 -> 14 ;
{rank=same ; 0} ;
{rank=same ; 1; 4} ;
{rank=same ; 5} ;
{rank=same ; 7} ;
{rank=same ; 9} ;
{rank=same ; 11} ;
{rank=same ; 2; 3; 6; 8; 10; 12; 13; 14} ;
}