digraph Tree {
node [shape=box, style="filled", color="black"] ;
graph [ranksep=equally, splines=polyline] ;
0 [label="petallen <= 2.6\ngini = 0.664\nsamples = 84\nvalue = [43, 53, 45]\nclass = versicolor", fillcolor="#39e58115"] ;
1 [label="gini = 0.0\nsamples = 27\nvalue = [43, 0, 0]\nclass = setosa", fillcolor="#e58139ff"] ;
0 -> 1 [labeldistance=2.5, labelangle=45, headlabel="True"] ;
2 [label="petallen <= 4.95\ngini = 0.497\nsamples = 57\nvalue = [0, 53, 45]\nclass = versicolor", fillcolor="#39e58126"] ;
0 -> 2 [labeldistance=2.5, labelangle=-45, headlabel="False"] ;
3 [label="petalwid <= 1.6\ngini = 0.071\nsamples = 31\nvalue = [0, 52, 2]\nclass = versicolor", fillcolor="#39e581f5"] ;
2 -> 3 ;
4 [label="gini = 0.0\nsamples = 29\nvalue = [0, 52, 0]\nclass = versicolor", fillcolor="#39e581ff"] ;
3 -> 4 ;
5 [label="gini = 0.0\nsamples = 2\nvalue = [0, 0, 2]\nclass = virginica", fillcolor="#8139e5ff"] ;
3 -> 5 ;
6 [label="sepalwid <= 2.95\ngini = 0.044\nsamples = 26\nvalue = [0, 1, 43]\nclass = virginica", fillcolor="#8139e5f9"] ;
2 -> 6 ;
7 [label="gini = 0.0\nsamples = 10\nvalue = [0, 0, 20]\nclass = virginica", fillcolor="#8139e5ff"] ;
6 -> 7 ;
8 [label="petalwid <= 1.75\ngini = 0.08\nsamples = 16\nvalue = [0, 1, 23]\nclass = virginica", fillcolor="#8139e5f4"] ;
6 -> 8 ;
9 [label="petallen <= 5.4\ngini = 0.375\nsamples = 2\nvalue = [0, 1, 3]\nclass = virginica", fillcolor="#8139e5aa"] ;
8 -> 9 ;
10 [label="gini = 0.0\nsamples = 1\nvalue = [0, 1, 0]\nclass = versicolor", fillcolor="#39e581ff"] ;
9 -> 10 ;
11 [label="gini = 0.0\nsamples = 1\nvalue = [0, 0, 3]\nclass = virginica", fillcolor="#8139e5ff"] ;
9 -> 11 ;
12 [label="gini = 0.0\nsamples = 14\nvalue = [0, 0, 20]\nclass = virginica", fillcolor="#8139e5ff"] ;
8 -> 12 ;
{rank=same ; 0} ;
{rank=same ; 2} ;
{rank=same ; 3; 6} ;
{rank=same ; 8} ;
{rank=same ; 9} ;
{rank=same ; 1; 4; 5; 7; 10; 11; 12} ;
}