digraph Tree {
node [shape=box, style="filled", color="black"] ;
graph [ranksep=equally, splines=polyline] ;
0 [label="sepallen <= 5.45\ngini = 0.648\nsamples = 87\nvalue = [32, 58, 51]\nclass = versicolor", fillcolor="#39e58114"] ;
1 [label="sepalwid <= 2.85\ngini = 0.234\nsamples = 26\nvalue = [32, 5, 0]\nclass = setosa", fillcolor="#e58139d7"] ;
0 -> 1 [labeldistance=2.5, labelangle=45, headlabel="True"] ;
2 [label="gini = 0.0\nsamples = 3\nvalue = [0, 5, 0]\nclass = versicolor", fillcolor="#39e581ff"] ;
1 -> 2 ;
3 [label="gini = 0.0\nsamples = 23\nvalue = [32, 0, 0]\nclass = setosa", fillcolor="#e58139ff"] ;
1 -> 3 ;
4 [label="petallen <= 4.95\ngini = 0.5\nsamples = 61\nvalue = [0, 53, 51]\nclass = versicolor", fillcolor="#39e5810a"] ;
0 -> 4 [labeldistance=2.5, labelangle=-45, headlabel="False"] ;
5 [label="petalwid <= 1.7\ngini = 0.103\nsamples = 33\nvalue = [0, 52, 3]\nclass = versicolor", fillcolor="#39e581f0"] ;
4 -> 5 ;
6 [label="gini = 0.0\nsamples = 29\nvalue = [0, 51, 0]\nclass = versicolor", fillcolor="#39e581ff"] ;
5 -> 6 ;
7 [label="sepallen <= 5.95\ngini = 0.375\nsamples = 4\nvalue = [0, 1, 3]\nclass = virginica", fillcolor="#8139e5aa"] ;
5 -> 7 ;
8 [label="gini = 0.0\nsamples = 1\nvalue = [0, 1, 0]\nclass = versicolor", fillcolor="#39e581ff"] ;
7 -> 8 ;
9 [label="gini = 0.0\nsamples = 3\nvalue = [0, 0, 3]\nclass = virginica", fillcolor="#8139e5ff"] ;
7 -> 9 ;
10 [label="petalwid <= 1.7\ngini = 0.04\nsamples = 28\nvalue = [0, 1, 48]\nclass = virginica", fillcolor="#8139e5fa"] ;
4 -> 10 ;
11 [label="sepalwid <= 2.65\ngini = 0.245\nsamples = 5\nvalue = [0, 1, 6]\nclass = virginica", fillcolor="#8139e5d4"] ;
10 -> 11 ;
12 [label="gini = 0.0\nsamples = 2\nvalue = [0, 0, 3]\nclass = virginica", fillcolor="#8139e5ff"] ;
11 -> 12 ;
13 [label="sepalwid <= 2.75\ngini = 0.375\nsamples = 3\nvalue = [0, 1, 3]\nclass = virginica", fillcolor="#8139e5aa"] ;
11 -> 13 ;
14 [label="gini = 0.0\nsamples = 1\nvalue = [0, 1, 0]\nclass = versicolor", fillcolor="#39e581ff"] ;
13 -> 14 ;
15 [label="gini = 0.0\nsamples = 2\nvalue = [0, 0, 3]\nclass = virginica", fillcolor="#8139e5ff"] ;
13 -> 15 ;
16 [label="gini = 0.0\nsamples = 23\nvalue = [0, 0, 42]\nclass = virginica", fillcolor="#8139e5ff"] ;
10 -> 16 ;
{rank=same ; 0} ;
{rank=same ; 1; 4} ;
{rank=same ; 5; 10} ;
{rank=same ; 7; 11} ;
{rank=same ; 13} ;
{rank=same ; 2; 3; 6; 8; 9; 12; 14; 15; 16} ;
}