digraph Tree {
node [shape=box, style="filled", color="black"] ;
graph [ranksep=equally, splines=polyline] ;
0 [label="petallen <= 2.6\ngini = 0.662\nsamples = 92\nvalue = [43, 55, 43]\nclass = versicolor", fillcolor="#39e5811f"] ;
1 [label="gini = 0.0\nsamples = 30\nvalue = [43, 0, 0]\nclass = setosa", fillcolor="#e58139ff"] ;
0 -> 1 [labeldistance=2.5, labelangle=45, headlabel="True"] ;
2 [label="sepallen <= 6.05\ngini = 0.493\nsamples = 62\nvalue = [0, 55, 43]\nclass = versicolor", fillcolor="#39e58138"] ;
0 -> 2 [labeldistance=2.5, labelangle=-45, headlabel="False"] ;
3 [label="petallen <= 4.75\ngini = 0.161\nsamples = 22\nvalue = [0, 31, 3]\nclass = versicolor", fillcolor="#39e581e6"] ;
2 -> 3 ;
4 [label="petalwid <= 1.65\ngini = 0.062\nsamples = 19\nvalue = [0, 30, 1]\nclass = versicolor", fillcolor="#39e581f6"] ;
3 -> 4 ;
5 [label="gini = 0.0\nsamples = 18\nvalue = [0, 30, 0]\nclass = versicolor", fillcolor="#39e581ff"] ;
4 -> 5 ;
6 [label="gini = 0.0\nsamples = 1\nvalue = [0, 0, 1]\nclass = virginica", fillcolor="#8139e5ff"] ;
4 -> 6 ;
7 [label="petalwid <= 1.75\ngini = 0.444\nsamples = 3\nvalue = [0, 1, 2]\nclass = virginica", fillcolor="#8139e57f"] ;
3 -> 7 ;
8 [label="gini = 0.0\nsamples = 1\nvalue = [0, 1, 0]\nclass = versicolor", fillcolor="#39e581ff"] ;
7 -> 8 ;
9 [label="gini = 0.0\nsamples = 2\nvalue = [0, 0, 2]\nclass = virginica", fillcolor="#8139e5ff"] ;
7 -> 9 ;
10 [label="petalwid <= 1.75\ngini = 0.469\nsamples = 40\nvalue = [0, 24, 40]\nclass = virginica", fillcolor="#8139e566"] ;
2 -> 10 ;
11 [label="petallen <= 5.05\ngini = 0.245\nsamples = 17\nvalue = [0, 24, 4]\nclass = versicolor", fillcolor="#39e581d4"] ;
10 -> 11 ;
12 [label="gini = 0.0\nsamples = 15\nvalue = [0, 24, 0]\nclass = versicolor", fillcolor="#39e581ff"] ;
11 -> 12 ;
13 [label="gini = 0.0\nsamples = 2\nvalue = [0, 0, 4]\nclass = virginica", fillcolor="#8139e5ff"] ;
11 -> 13 ;
14 [label="gini = 0.0\nsamples = 23\nvalue = [0, 0, 36]\nclass = virginica", fillcolor="#8139e5ff"] ;
10 -> 14 ;
{rank=same ; 0} ;
{rank=same ; 2} ;
{rank=same ; 3; 10} ;
{rank=same ; 4; 7; 11} ;
{rank=same ; 1; 5; 6; 8; 9; 12; 13; 14} ;
}