digraph Tree {
node [shape=box, style="filled", color="black"] ;
graph [ranksep=equally, splines=polyline] ;
0 [label="petallen <= 2.6\ngini = 0.652\nsamples = 90\nvalue = [53, 33, 55]\nclass = virginica", fillcolor="#8139e506"] ;
1 [label="gini = 0.0\nsamples = 33\nvalue = [53, 0, 0]\nclass = setosa", fillcolor="#e58139ff"] ;
0 -> 1 [labeldistance=2.5, labelangle=45, headlabel="True"] ;
2 [label="sepallen <= 6.15\ngini = 0.469\nsamples = 57\nvalue = [0, 33, 55]\nclass = virginica", fillcolor="#8139e566"] ;
0 -> 2 [labeldistance=2.5, labelangle=-45, headlabel="False"] ;
3 [label="sepalwid <= 2.25\ngini = 0.42\nsamples = 21\nvalue = [0, 21, 9]\nclass = versicolor", fillcolor="#39e58192"] ;
2 -> 3 ;
4 [label="gini = 0.0\nsamples = 1\nvalue = [0, 0, 2]\nclass = virginica", fillcolor="#8139e5ff"] ;
3 -> 4 ;
5 [label="petalwid <= 1.7\ngini = 0.375\nsamples = 20\nvalue = [0, 21, 7]\nclass = versicolor", fillcolor="#39e581aa"] ;
3 -> 5 ;
6 [label="gini = 0.0\nsamples = 16\nvalue = [0, 21, 0]\nclass = versicolor", fillcolor="#39e581ff"] ;
5 -> 6 ;
7 [label="gini = 0.0\nsamples = 4\nvalue = [0, 0, 7]\nclass = virginica", fillcolor="#8139e5ff"] ;
5 -> 7 ;
8 [label="petalwid <= 1.75\ngini = 0.328\nsamples = 36\nvalue = [0, 12, 46]\nclass = virginica", fillcolor="#8139e5bc"] ;
2 -> 8 ;
9 [label="petallen <= 5.05\ngini = 0.245\nsamples = 10\nvalue = [0, 12, 2]\nclass = versicolor", fillcolor="#39e581d4"] ;
8 -> 9 ;
10 [label="gini = 0.0\nsamples = 8\nvalue = [0, 12, 0]\nclass = versicolor", fillcolor="#39e581ff"] ;
9 -> 10 ;
11 [label="gini = 0.0\nsamples = 2\nvalue = [0, 0, 2]\nclass = virginica", fillcolor="#8139e5ff"] ;
9 -> 11 ;
12 [label="gini = 0.0\nsamples = 26\nvalue = [0, 0, 44]\nclass = virginica", fillcolor="#8139e5ff"] ;
8 -> 12 ;
{rank=same ; 0} ;
{rank=same ; 2} ;
{rank=same ; 3; 8} ;
{rank=same ; 5; 9} ;
{rank=same ; 1; 4; 6; 7; 10; 11; 12} ;
}