digraph Tree {
node [shape=box, style="filled", color="black"] ;
graph [ranksep=equally, splines=polyline] ;
0 [label="petallen <= 2.6\ngini = 0.66\nsamples = 92\nvalue = [53, 38, 50]\nclass = setosa", fillcolor="#e5813908"] ;
1 [label="gini = 0.0\nsamples = 34\nvalue = [53, 0, 0]\nclass = setosa", fillcolor="#e58139ff"] ;
0 -> 1 [labeldistance=2.5, labelangle=45, headlabel="True"] ;
2 [label="petalwid <= 1.65\ngini = 0.491\nsamples = 58\nvalue = [0, 38, 50]\nclass = virginica", fillcolor="#8139e53d"] ;
0 -> 2 [labeldistance=2.5, labelangle=-45, headlabel="False"] ;
3 [label="petallen <= 4.95\ngini = 0.139\nsamples = 27\nvalue = [0, 37, 3]\nclass = versicolor", fillcolor="#39e581ea"] ;
2 -> 3 ;
4 [label="gini = 0.0\nsamples = 25\nvalue = [0, 37, 0]\nclass = versicolor", fillcolor="#39e581ff"] ;
3 -> 4 ;
5 [label="gini = 0.0\nsamples = 2\nvalue = [0, 0, 3]\nclass = virginica", fillcolor="#8139e5ff"] ;
3 -> 5 ;
6 [label="petallen <= 4.85\ngini = 0.041\nsamples = 31\nvalue = [0, 1, 47]\nclass = virginica", fillcolor="#8139e5fa"] ;
2 -> 6 ;
7 [label="sepalwid <= 3.1\ngini = 0.375\nsamples = 4\nvalue = [0, 1, 3]\nclass = virginica", fillcolor="#8139e5aa"] ;
6 -> 7 ;
8 [label="gini = 0.0\nsamples = 3\nvalue = [0, 0, 3]\nclass = virginica", fillcolor="#8139e5ff"] ;
7 -> 8 ;
9 [label="gini = 0.0\nsamples = 1\nvalue = [0, 1, 0]\nclass = versicolor", fillcolor="#39e581ff"] ;
7 -> 9 ;
10 [label="gini = 0.0\nsamples = 27\nvalue = [0, 0, 44]\nclass = virginica", fillcolor="#8139e5ff"] ;
6 -> 10 ;
{rank=same ; 0} ;
{rank=same ; 2} ;
{rank=same ; 3; 6} ;
{rank=same ; 7} ;
{rank=same ; 1; 4; 5; 8; 9; 10} ;
}