digraph Tree {
node [shape=box, style="filled", color="black"] ;
graph [ranksep=equally, splines=polyline] ;
0 [label="petallen <= 2.6\ngini = 0.666\nsamples = 88\nvalue = [45, 48, 48]\nclass = versicolor", fillcolor="#39e58100"] ;
1 [label="gini = 0.0\nsamples = 30\nvalue = [45, 0, 0]\nclass = setosa", fillcolor="#e58139ff"] ;
0 -> 1 [labeldistance=2.5, labelangle=45, headlabel="True"] ;
2 [label="sepallen <= 6.15\ngini = 0.5\nsamples = 58\nvalue = [0, 48, 48]\nclass = versicolor", fillcolor="#39e58100"] ;
0 -> 2 [labeldistance=2.5, labelangle=-45, headlabel="False"] ;
3 [label="sepallen <= 5.55\ngini = 0.308\nsamples = 26\nvalue = [0, 34, 8]\nclass = versicolor", fillcolor="#39e581c3"] ;
2 -> 3 ;
4 [label="gini = 0.0\nsamples = 9\nvalue = [0, 15, 0]\nclass = versicolor", fillcolor="#39e581ff"] ;
3 -> 4 ;
5 [label="petalwid <= 1.7\ngini = 0.417\nsamples = 17\nvalue = [0, 19, 8]\nclass = versicolor", fillcolor="#39e58194"] ;
3 -> 5 ;
6 [label="gini = 0.0\nsamples = 11\nvalue = [0, 19, 0]\nclass = versicolor", fillcolor="#39e581ff"] ;
5 -> 6 ;
7 [label="gini = 0.0\nsamples = 6\nvalue = [0, 0, 8]\nclass = virginica", fillcolor="#8139e5ff"] ;
5 -> 7 ;
8 [label="petallen <= 5.0\ngini = 0.384\nsamples = 32\nvalue = [0, 14, 40]\nclass = virginica", fillcolor="#8139e5a6"] ;
2 -> 8 ;
9 [label="petalwid <= 1.7\ngini = 0.291\nsamples = 12\nvalue = [0, 14, 3]\nclass = versicolor", fillcolor="#39e581c8"] ;
8 -> 9 ;
10 [label="gini = 0.0\nsamples = 11\nvalue = [0, 14, 0]\nclass = versicolor", fillcolor="#39e581ff"] ;
9 -> 10 ;
11 [label="gini = 0.0\nsamples = 1\nvalue = [0, 0, 3]\nclass = virginica", fillcolor="#8139e5ff"] ;
9 -> 11 ;
12 [label="gini = 0.0\nsamples = 20\nvalue = [0, 0, 37]\nclass = virginica", fillcolor="#8139e5ff"] ;
8 -> 12 ;
{rank=same ; 0} ;
{rank=same ; 2} ;
{rank=same ; 3; 8} ;
{rank=same ; 5; 9} ;
{rank=same ; 1; 4; 6; 7; 10; 11; 12} ;
}