digraph Tree {
node [shape=box, style="filled", color="black"] ;
graph [ranksep=equally, splines=polyline] ;
0 [label="petalwid <= 0.7\ngini = 0.659\nsamples = 86\nvalue = [37, 53, 51]\nclass = versicolor", fillcolor="#39e58106"] ;
1 [label="gini = 0.0\nsamples = 23\nvalue = [37, 0, 0]\nclass = setosa", fillcolor="#e58139ff"] ;
0 -> 1 [labeldistance=2.5, labelangle=45, headlabel="True"] ;
2 [label="petallen <= 4.75\ngini = 0.5\nsamples = 63\nvalue = [0, 53, 51]\nclass = versicolor", fillcolor="#39e5810a"] ;
0 -> 2 [labeldistance=2.5, labelangle=-45, headlabel="False"] ;
3 [label="petalwid <= 1.65\ngini = 0.043\nsamples = 27\nvalue = [0, 45, 1]\nclass = versicolor", fillcolor="#39e581f9"] ;
2 -> 3 ;
4 [label="gini = 0.0\nsamples = 26\nvalue = [0, 45, 0]\nclass = versicolor", fillcolor="#39e581ff"] ;
3 -> 4 ;
5 [label="gini = 0.0\nsamples = 1\nvalue = [0, 0, 1]\nclass = virginica", fillcolor="#8139e5ff"] ;
3 -> 5 ;
6 [label="petallen <= 5.05\ngini = 0.238\nsamples = 36\nvalue = [0, 8, 50]\nclass = virginica", fillcolor="#8139e5d6"] ;
2 -> 6 ;
7 [label="petalwid <= 1.75\ngini = 0.472\nsamples = 12\nvalue = [0, 8, 13]\nclass = virginica", fillcolor="#8139e562"] ;
6 -> 7 ;
8 [label="petallen <= 4.95\ngini = 0.346\nsamples = 4\nvalue = [0, 7, 2]\nclass = versicolor", fillcolor="#39e581b6"] ;
7 -> 8 ;
9 [label="gini = 0.0\nsamples = 2\nvalue = [0, 5, 0]\nclass = versicolor", fillcolor="#39e581ff"] ;
8 -> 9 ;
10 [label="sepallen <= 6.35\ngini = 0.5\nsamples = 2\nvalue = [0, 2, 2]\nclass = versicolor", fillcolor="#39e58100"] ;
8 -> 10 ;
11 [label="gini = 0.0\nsamples = 1\nvalue = [0, 0, 2]\nclass = virginica", fillcolor="#8139e5ff"] ;
10 -> 11 ;
12 [label="gini = 0.0\nsamples = 1\nvalue = [0, 2, 0]\nclass = versicolor", fillcolor="#39e581ff"] ;
10 -> 12 ;
13 [label="petallen <= 4.85\ngini = 0.153\nsamples = 8\nvalue = [0, 1, 11]\nclass = virginica", fillcolor="#8139e5e8"] ;
7 -> 13 ;
14 [label="sepalwid <= 3.1\ngini = 0.375\nsamples = 3\nvalue = [0, 1, 3]\nclass = virginica", fillcolor="#8139e5aa"] ;
13 -> 14 ;
15 [label="gini = 0.0\nsamples = 2\nvalue = [0, 0, 3]\nclass = virginica", fillcolor="#8139e5ff"] ;
14 -> 15 ;
16 [label="gini = 0.0\nsamples = 1\nvalue = [0, 1, 0]\nclass = versicolor", fillcolor="#39e581ff"] ;
14 -> 16 ;
17 [label="gini = 0.0\nsamples = 5\nvalue = [0, 0, 8]\nclass = virginica", fillcolor="#8139e5ff"] ;
13 -> 17 ;
18 [label="gini = 0.0\nsamples = 24\nvalue = [0, 0, 37]\nclass = virginica", fillcolor="#8139e5ff"] ;
6 -> 18 ;
{rank=same ; 0} ;
{rank=same ; 2} ;
{rank=same ; 3; 6} ;
{rank=same ; 7} ;
{rank=same ; 8; 13} ;
{rank=same ; 10; 14} ;
{rank=same ; 1; 4; 5; 9; 11; 12; 15; 16; 17; 18} ;
}