digraph Tree {
node [shape=box, style="filled", color="black"] ;
graph [ranksep=equally, splines=polyline] ;
0 [label="petallen <= 2.6\ngini = 0.667\nsamples = 98\nvalue = [47, 46, 48]\nclass = virginica", fillcolor="#8139e503"] ;
1 [label="gini = 0.0\nsamples = 31\nvalue = [47, 0, 0]\nclass = setosa", fillcolor="#e58139ff"] ;
0 -> 1 [labeldistance=2.5, labelangle=45, headlabel="True"] ;
2 [label="petallen <= 4.85\ngini = 0.5\nsamples = 67\nvalue = [0, 46, 48]\nclass = virginica", fillcolor="#8139e50b"] ;
0 -> 2 [labeldistance=2.5, labelangle=-45, headlabel="False"] ;
3 [label="petalwid <= 1.65\ngini = 0.124\nsamples = 32\nvalue = [0, 42, 3]\nclass = versicolor", fillcolor="#39e581ed"] ;
2 -> 3 ;
4 [label="gini = 0.0\nsamples = 30\nvalue = [0, 41, 0]\nclass = versicolor", fillcolor="#39e581ff"] ;
3 -> 4 ;
5 [label="sepalwid <= 2.85\ngini = 0.375\nsamples = 2\nvalue = [0, 1, 3]\nclass = virginica", fillcolor="#8139e5aa"] ;
3 -> 5 ;
6 [label="gini = 0.0\nsamples = 1\nvalue = [0, 0, 3]\nclass = virginica", fillcolor="#8139e5ff"] ;
5 -> 6 ;
7 [label="gini = 0.0\nsamples = 1\nvalue = [0, 1, 0]\nclass = versicolor", fillcolor="#39e581ff"] ;
5 -> 7 ;
8 [label="petallen <= 5.15\ngini = 0.15\nsamples = 35\nvalue = [0, 4, 45]\nclass = virginica", fillcolor="#8139e5e8"] ;
2 -> 8 ;
9 [label="sepalwid <= 2.9\ngini = 0.391\nsamples = 11\nvalue = [0, 4, 11]\nclass = virginica", fillcolor="#8139e5a2"] ;
8 -> 9 ;
10 [label="petallen <= 5.05\ngini = 0.298\nsamples = 8\nvalue = [0, 2, 9]\nclass = virginica", fillcolor="#8139e5c6"] ;
9 -> 10 ;
11 [label="gini = 0.0\nsamples = 5\nvalue = [0, 0, 5]\nclass = virginica", fillcolor="#8139e5ff"] ;
10 -> 11 ;
12 [label="sepallen <= 5.9\ngini = 0.444\nsamples = 3\nvalue = [0, 2, 4]\nclass = virginica", fillcolor="#8139e57f"] ;
10 -> 12 ;
13 [label="gini = 0.0\nsamples = 2\nvalue = [0, 0, 4]\nclass = virginica", fillcolor="#8139e5ff"] ;
12 -> 13 ;
14 [label="gini = 0.0\nsamples = 1\nvalue = [0, 2, 0]\nclass = versicolor", fillcolor="#39e581ff"] ;
12 -> 14 ;
15 [label="petallen <= 5.05\ngini = 0.5\nsamples = 3\nvalue = [0, 2, 2]\nclass = versicolor", fillcolor="#39e58100"] ;
9 -> 15 ;
16 [label="gini = 0.0\nsamples = 1\nvalue = [0, 2, 0]\nclass = versicolor", fillcolor="#39e581ff"] ;
15 -> 16 ;
17 [label="gini = 0.0\nsamples = 2\nvalue = [0, 0, 2]\nclass = virginica", fillcolor="#8139e5ff"] ;
15 -> 17 ;
18 [label="gini = 0.0\nsamples = 24\nvalue = [0, 0, 34]\nclass = virginica", fillcolor="#8139e5ff"] ;
8 -> 18 ;
{rank=same ; 0} ;
{rank=same ; 2} ;
{rank=same ; 3; 8} ;
{rank=same ; 5; 9} ;
{rank=same ; 10; 15} ;
{rank=same ; 12} ;
{rank=same ; 1; 4; 6; 7; 11; 13; 14; 16; 17; 18} ;
}