digraph Tree {
node [shape=box, style="filled", color="black"] ;
graph [ranksep=equally, splines=polyline] ;
0 [label="petallen <= 2.6\ngini = 0.665\nsamples = 93\nvalue = [45, 51, 45]\nclass = versicolor", fillcolor="#39e58110"] ;
1 [label="gini = 0.0\nsamples = 31\nvalue = [45, 0, 0]\nclass = setosa", fillcolor="#e58139ff"] ;
0 -> 1 [labeldistance=2.5, labelangle=45, headlabel="True"] ;
2 [label="petallen <= 4.95\ngini = 0.498\nsamples = 62\nvalue = [0, 51, 45]\nclass = versicolor", fillcolor="#39e5811e"] ;
0 -> 2 [labeldistance=2.5, labelangle=-45, headlabel="False"] ;
3 [label="petallen <= 4.75\ngini = 0.075\nsamples = 30\nvalue = [0, 49, 2]\nclass = versicolor", fillcolor="#39e581f5"] ;
2 -> 3 ;
4 [label="gini = 0.0\nsamples = 26\nvalue = [0, 45, 0]\nclass = versicolor", fillcolor="#39e581ff"] ;
3 -> 4 ;
5 [label="petalwid <= 1.9\ngini = 0.444\nsamples = 4\nvalue = [0, 4, 2]\nclass = versicolor", fillcolor="#39e5817f"] ;
3 -> 5 ;
6 [label="petallen <= 4.85\ngini = 0.32\nsamples = 3\nvalue = [0, 4, 1]\nclass = versicolor", fillcolor="#39e581bf"] ;
5 -> 6 ;
7 [label="sepallen <= 5.95\ngini = 0.444\nsamples = 2\nvalue = [0, 2, 1]\nclass = versicolor", fillcolor="#39e5817f"] ;
6 -> 7 ;
8 [label="gini = 0.0\nsamples = 1\nvalue = [0, 2, 0]\nclass = versicolor", fillcolor="#39e581ff"] ;
7 -> 8 ;
9 [label="gini = 0.0\nsamples = 1\nvalue = [0, 0, 1]\nclass = virginica", fillcolor="#8139e5ff"] ;
7 -> 9 ;
10 [label="gini = 0.0\nsamples = 1\nvalue = [0, 2, 0]\nclass = versicolor", fillcolor="#39e581ff"] ;
6 -> 10 ;
11 [label="gini = 0.0\nsamples = 1\nvalue = [0, 0, 1]\nclass = virginica", fillcolor="#8139e5ff"] ;
5 -> 11 ;
12 [label="petalwid <= 1.75\ngini = 0.085\nsamples = 32\nvalue = [0, 2, 43]\nclass = virginica", fillcolor="#8139e5f3"] ;
2 -> 12 ;
13 [label="petalwid <= 1.55\ngini = 0.346\nsamples = 6\nvalue = [0, 2, 7]\nclass = virginica", fillcolor="#8139e5b6"] ;
12 -> 13 ;
14 [label="gini = 0.0\nsamples = 3\nvalue = [0, 0, 6]\nclass = virginica", fillcolor="#8139e5ff"] ;
13 -> 14 ;
15 [label="sepallen <= 6.95\ngini = 0.444\nsamples = 3\nvalue = [0, 2, 1]\nclass = versicolor", fillcolor="#39e5817f"] ;
13 -> 15 ;
16 [label="gini = 0.0\nsamples = 2\nvalue = [0, 2, 0]\nclass = versicolor", fillcolor="#39e581ff"] ;
15 -> 16 ;
17 [label="gini = 0.0\nsamples = 1\nvalue = [0, 0, 1]\nclass = virginica", fillcolor="#8139e5ff"] ;
15 -> 17 ;
18 [label="gini = 0.0\nsamples = 26\nvalue = [0, 0, 36]\nclass = virginica", fillcolor="#8139e5ff"] ;
12 -> 18 ;
{rank=same ; 0} ;
{rank=same ; 2} ;
{rank=same ; 3; 12} ;
{rank=same ; 5; 13} ;
{rank=same ; 6; 15} ;
{rank=same ; 7} ;
{rank=same ; 1; 4; 8; 9; 10; 11; 14; 16; 17; 18} ;
}