digraph Tree {
node [shape=box, style="filled", color="black"] ;
graph [ranksep=equally, splines=polyline] ;
0 [label="petalwid <= 0.8\ngini = 0.664\nsamples = 88\nvalue = [42, 47, 52]\nclass = virginica", fillcolor="#8139e50e"] ;
1 [label="gini = 0.0\nsamples = 31\nvalue = [42, 0, 0]\nclass = setosa", fillcolor="#e58139ff"] ;
0 -> 1 [labeldistance=2.5, labelangle=45, headlabel="True"] ;
2 [label="petallen <= 4.85\ngini = 0.499\nsamples = 57\nvalue = [0, 47, 52]\nclass = virginica", fillcolor="#8139e519"] ;
0 -> 2 [labeldistance=2.5, labelangle=-45, headlabel="False"] ;
3 [label="sepallen <= 4.95\ngini = 0.085\nsamples = 25\nvalue = [0, 43, 2]\nclass = versicolor", fillcolor="#39e581f3"] ;
2 -> 3 ;
4 [label="gini = 0.0\nsamples = 1\nvalue = [0, 0, 1]\nclass = virginica", fillcolor="#8139e5ff"] ;
3 -> 4 ;
5 [label="sepallen <= 6.15\ngini = 0.044\nsamples = 24\nvalue = [0, 43, 1]\nclass = versicolor", fillcolor="#39e581f9"] ;
3 -> 5 ;
6 [label="gini = 0.0\nsamples = 17\nvalue = [0, 31, 0]\nclass = versicolor", fillcolor="#39e581ff"] ;
5 -> 6 ;
7 [label="petallen <= 4.75\ngini = 0.142\nsamples = 7\nvalue = [0, 12, 1]\nclass = versicolor", fillcolor="#39e581ea"] ;
5 -> 7 ;
8 [label="gini = 0.0\nsamples = 5\nvalue = [0, 10, 0]\nclass = versicolor", fillcolor="#39e581ff"] ;
7 -> 8 ;
9 [label="petalwid <= 1.6\ngini = 0.444\nsamples = 2\nvalue = [0, 2, 1]\nclass = versicolor", fillcolor="#39e5817f"] ;
7 -> 9 ;
10 [label="gini = 0.0\nsamples = 1\nvalue = [0, 2, 0]\nclass = versicolor", fillcolor="#39e581ff"] ;
9 -> 10 ;
11 [label="gini = 0.0\nsamples = 1\nvalue = [0, 0, 1]\nclass = virginica", fillcolor="#8139e5ff"] ;
9 -> 11 ;
12 [label="sepalwid <= 2.55\ngini = 0.137\nsamples = 32\nvalue = [0, 4, 50]\nclass = virginica", fillcolor="#8139e5eb"] ;
2 -> 12 ;
13 [label="petalwid <= 1.65\ngini = 0.375\nsamples = 4\nvalue = [0, 2, 6]\nclass = virginica", fillcolor="#8139e5aa"] ;
12 -> 13 ;
14 [label="sepalwid <= 2.35\ngini = 0.5\nsamples = 2\nvalue = [0, 2, 2]\nclass = versicolor", fillcolor="#39e58100"] ;
13 -> 14 ;
15 [label="gini = 0.0\nsamples = 1\nvalue = [0, 0, 2]\nclass = virginica", fillcolor="#8139e5ff"] ;
14 -> 15 ;
16 [label="gini = 0.0\nsamples = 1\nvalue = [0, 2, 0]\nclass = versicolor", fillcolor="#39e581ff"] ;
14 -> 16 ;
17 [label="gini = 0.0\nsamples = 2\nvalue = [0, 0, 4]\nclass = virginica", fillcolor="#8139e5ff"] ;
13 -> 17 ;
18 [label="sepallen <= 6.6\ngini = 0.083\nsamples = 28\nvalue = [0, 2, 44]\nclass = virginica", fillcolor="#8139e5f3"] ;
12 -> 18 ;
19 [label="gini = 0.0\nsamples = 12\nvalue = [0, 0, 21]\nclass = virginica", fillcolor="#8139e5ff"] ;
18 -> 19 ;
20 [label="petalwid <= 1.75\ngini = 0.147\nsamples = 16\nvalue = [0, 2, 23]\nclass = virginica", fillcolor="#8139e5e9"] ;
18 -> 20 ;
21 [label="sepallen <= 6.95\ngini = 0.444\nsamples = 2\nvalue = [0, 2, 1]\nclass = versicolor", fillcolor="#39e5817f"] ;
20 -> 21 ;
22 [label="gini = 0.0\nsamples = 1\nvalue = [0, 2, 0]\nclass = versicolor", fillcolor="#39e581ff"] ;
21 -> 22 ;
23 [label="gini = 0.0\nsamples = 1\nvalue = [0, 0, 1]\nclass = virginica", fillcolor="#8139e5ff"] ;
21 -> 23 ;
24 [label="gini = 0.0\nsamples = 14\nvalue = [0, 0, 22]\nclass = virginica", fillcolor="#8139e5ff"] ;
20 -> 24 ;
{rank=same ; 0} ;
{rank=same ; 2} ;
{rank=same ; 3; 12} ;
{rank=same ; 5; 13; 18} ;
{rank=same ; 7; 14; 20} ;
{rank=same ; 9; 21} ;
{rank=same ; 1; 4; 6; 8; 10; 11; 15; 16; 17; 19; 22; 23; 24} ;
}