digraph Tree {
node [shape=box, style="filled", color="black"] ;
graph [ranksep=equally, splines=polyline] ;
0 [label="petallen <= 2.6\ngini = 0.665\nsamples = 91\nvalue = [43, 50, 48]\nclass = versicolor", fillcolor="#39e58105"] ;
1 [label="gini = 0.0\nsamples = 29\nvalue = [43, 0, 0]\nclass = setosa", fillcolor="#e58139ff"] ;
0 -> 1 [labeldistance=2.5, labelangle=45, headlabel="True"] ;
2 [label="sepallen <= 6.05\ngini = 0.5\nsamples = 62\nvalue = [0, 50, 48]\nclass = versicolor", fillcolor="#39e5810a"] ;
0 -> 2 [labeldistance=2.5, labelangle=-45, headlabel="False"] ;
3 [label="sepallen <= 4.95\ngini = 0.266\nsamples = 23\nvalue = [0, 32, 6]\nclass = versicolor", fillcolor="#39e581cf"] ;
2 -> 3 ;
4 [label="petallen <= 3.9\ngini = 0.32\nsamples = 2\nvalue = [0, 1, 4]\nclass = virginica", fillcolor="#8139e5bf"] ;
3 -> 4 ;
5 [label="gini = 0.0\nsamples = 1\nvalue = [0, 1, 0]\nclass = versicolor", fillcolor="#39e581ff"] ;
4 -> 5 ;
6 [label="gini = 0.0\nsamples = 1\nvalue = [0, 0, 4]\nclass = virginica", fillcolor="#8139e5ff"] ;
4 -> 6 ;
7 [label="petallen <= 4.65\ngini = 0.114\nsamples = 21\nvalue = [0, 31, 2]\nclass = versicolor", fillcolor="#39e581ef"] ;
3 -> 7 ;
8 [label="gini = 0.0\nsamples = 18\nvalue = [0, 29, 0]\nclass = versicolor", fillcolor="#39e581ff"] ;
7 -> 8 ;
9 [label="sepalwid <= 2.75\ngini = 0.5\nsamples = 3\nvalue = [0, 2, 2]\nclass = versicolor", fillcolor="#39e58100"] ;
7 -> 9 ;
10 [label="gini = 0.0\nsamples = 1\nvalue = [0, 2, 0]\nclass = versicolor", fillcolor="#39e581ff"] ;
9 -> 10 ;
11 [label="gini = 0.0\nsamples = 2\nvalue = [0, 0, 2]\nclass = virginica", fillcolor="#8139e5ff"] ;
9 -> 11 ;
12 [label="petalwid <= 1.75\ngini = 0.42\nsamples = 39\nvalue = [0, 18, 42]\nclass = virginica", fillcolor="#8139e592"] ;
2 -> 12 ;
13 [label="petallen <= 5.05\ngini = 0.34\nsamples = 15\nvalue = [0, 18, 5]\nclass = versicolor", fillcolor="#39e581b8"] ;
12 -> 13 ;
14 [label="gini = 0.0\nsamples = 13\nvalue = [0, 18, 0]\nclass = versicolor", fillcolor="#39e581ff"] ;
13 -> 14 ;
15 [label="gini = 0.0\nsamples = 2\nvalue = [0, 0, 5]\nclass = virginica", fillcolor="#8139e5ff"] ;
13 -> 15 ;
16 [label="gini = 0.0\nsamples = 24\nvalue = [0, 0, 37]\nclass = virginica", fillcolor="#8139e5ff"] ;
12 -> 16 ;
{rank=same ; 0} ;
{rank=same ; 2} ;
{rank=same ; 3; 12} ;
{rank=same ; 4; 7; 13} ;
{rank=same ; 9} ;
{rank=same ; 1; 5; 6; 8; 10; 11; 14; 15; 16} ;
}