digraph Tree {
node [shape=box, style="filled", color="black"] ;
graph [ranksep=equally, splines=polyline] ;
0 [label="sepallen <= 5.45\ngini = 0.666\nsamples = 91\nvalue = [49, 46, 46]\nclass = setosa", fillcolor="#e5813908"] ;
1 [label="petalwid <= 0.75\ngini = 0.27\nsamples = 34\nvalue = [43, 7, 1]\nclass = setosa", fillcolor="#e58139d1"] ;
0 -> 1 [labeldistance=2.5, labelangle=45, headlabel="True"] ;
2 [label="gini = 0.0\nsamples = 29\nvalue = [43, 0, 0]\nclass = setosa", fillcolor="#e58139ff"] ;
1 -> 2 ;
3 [label="petallen <= 4.2\ngini = 0.219\nsamples = 5\nvalue = [0, 7, 1]\nclass = versicolor", fillcolor="#39e581db"] ;
1 -> 3 ;
4 [label="gini = 0.0\nsamples = 3\nvalue = [0, 6, 0]\nclass = versicolor", fillcolor="#39e581ff"] ;
3 -> 4 ;
5 [label="petalwid <= 1.6\ngini = 0.5\nsamples = 2\nvalue = [0, 1, 1]\nclass = versicolor", fillcolor="#39e58100"] ;
3 -> 5 ;
6 [label="gini = 0.0\nsamples = 1\nvalue = [0, 1, 0]\nclass = versicolor", fillcolor="#39e581ff"] ;
5 -> 6 ;
7 [label="gini = 0.0\nsamples = 1\nvalue = [0, 0, 1]\nclass = virginica", fillcolor="#8139e5ff"] ;
5 -> 7 ;
8 [label="petallen <= 5.05\ngini = 0.558\nsamples = 57\nvalue = [6, 39, 45]\nclass = virginica", fillcolor="#8139e51e"] ;
0 -> 8 [labeldistance=2.5, labelangle=-45, headlabel="False"] ;
9 [label="sepalwid <= 3.45\ngini = 0.351\nsamples = 30\nvalue = [6, 38, 4]\nclass = versicolor", fillcolor="#39e581c2"] ;
8 -> 9 ;
10 [label="petalwid <= 1.75\ngini = 0.172\nsamples = 27\nvalue = [0, 38, 4]\nclass = versicolor", fillcolor="#39e581e4"] ;
9 -> 10 ;
11 [label="gini = 0.0\nsamples = 23\nvalue = [0, 37, 0]\nclass = versicolor", fillcolor="#39e581ff"] ;
10 -> 11 ;
12 [label="sepalwid <= 3.1\ngini = 0.32\nsamples = 4\nvalue = [0, 1, 4]\nclass = virginica", fillcolor="#8139e5bf"] ;
10 -> 12 ;
13 [label="gini = 0.0\nsamples = 3\nvalue = [0, 0, 4]\nclass = virginica", fillcolor="#8139e5ff"] ;
12 -> 13 ;
14 [label="gini = 0.0\nsamples = 1\nvalue = [0, 1, 0]\nclass = versicolor", fillcolor="#39e581ff"] ;
12 -> 14 ;
15 [label="gini = 0.0\nsamples = 3\nvalue = [6, 0, 0]\nclass = setosa", fillcolor="#e58139ff"] ;
9 -> 15 ;
16 [label="sepallen <= 6.05\ngini = 0.046\nsamples = 27\nvalue = [0, 1, 41]\nclass = virginica", fillcolor="#8139e5f9"] ;
8 -> 16 ;
17 [label="petalwid <= 1.7\ngini = 0.375\nsamples = 4\nvalue = [0, 1, 3]\nclass = virginica", fillcolor="#8139e5aa"] ;
16 -> 17 ;
18 [label="gini = 0.0\nsamples = 1\nvalue = [0, 1, 0]\nclass = versicolor", fillcolor="#39e581ff"] ;
17 -> 18 ;
19 [label="gini = 0.0\nsamples = 3\nvalue = [0, 0, 3]\nclass = virginica", fillcolor="#8139e5ff"] ;
17 -> 19 ;
20 [label="gini = 0.0\nsamples = 23\nvalue = [0, 0, 38]\nclass = virginica", fillcolor="#8139e5ff"] ;
16 -> 20 ;
{rank=same ; 0} ;
{rank=same ; 1; 8} ;
{rank=same ; 3; 9; 16} ;
{rank=same ; 5; 10; 17} ;
{rank=same ; 12} ;
{rank=same ; 2; 4; 6; 7; 11; 13; 14; 15; 18; 19; 20} ;
}