digraph Tree {
node [shape=box, style="filled", color="black"] ;
graph [ranksep=equally, splines=polyline] ;
0 [label="petallen <= 2.5\ngini = 0.657\nsamples = 88\nvalue = [43, 40, 58]\nclass = virginica", fillcolor="#8139e527"] ;
1 [label="gini = 0.0\nsamples = 28\nvalue = [43, 0, 0]\nclass = setosa", fillcolor="#e58139ff"] ;
0 -> 1 [labeldistance=2.5, labelangle=45, headlabel="True"] ;
2 [label="petalwid <= 1.65\ngini = 0.483\nsamples = 60\nvalue = [0, 40, 58]\nclass = virginica", fillcolor="#8139e54f"] ;
0 -> 2 [labeldistance=2.5, labelangle=-45, headlabel="False"] ;
3 [label="sepalwid <= 2.25\ngini = 0.3\nsamples = 29\nvalue = [0, 40, 9]\nclass = versicolor", fillcolor="#39e581c6"] ;
2 -> 3 ;
4 [label="sepalwid <= 2.1\ngini = 0.48\nsamples = 4\nvalue = [0, 4, 6]\nclass = virginica", fillcolor="#8139e555"] ;
3 -> 4 ;
5 [label="gini = 0.0\nsamples = 1\nvalue = [0, 1, 0]\nclass = versicolor", fillcolor="#39e581ff"] ;
4 -> 5 ;
6 [label="petalwid <= 1.25\ngini = 0.444\nsamples = 3\nvalue = [0, 3, 6]\nclass = virginica", fillcolor="#8139e57f"] ;
4 -> 6 ;
7 [label="gini = 0.0\nsamples = 1\nvalue = [0, 2, 0]\nclass = versicolor", fillcolor="#39e581ff"] ;
6 -> 7 ;
8 [label="petallen <= 4.75\ngini = 0.245\nsamples = 2\nvalue = [0, 1, 6]\nclass = virginica", fillcolor="#8139e5d4"] ;
6 -> 8 ;
9 [label="gini = 0.0\nsamples = 1\nvalue = [0, 1, 0]\nclass = versicolor", fillcolor="#39e581ff"] ;
8 -> 9 ;
10 [label="gini = 0.0\nsamples = 1\nvalue = [0, 0, 6]\nclass = virginica", fillcolor="#8139e5ff"] ;
8 -> 10 ;
11 [label="petallen <= 5.0\ngini = 0.142\nsamples = 25\nvalue = [0, 36, 3]\nclass = versicolor", fillcolor="#39e581ea"] ;
3 -> 11 ;
12 [label="gini = 0.0\nsamples = 22\nvalue = [0, 35, 0]\nclass = versicolor", fillcolor="#39e581ff"] ;
11 -> 12 ;
13 [label="sepallen <= 6.05\ngini = 0.375\nsamples = 3\nvalue = [0, 1, 3]\nclass = virginica", fillcolor="#8139e5aa"] ;
11 -> 13 ;
14 [label="gini = 0.0\nsamples = 1\nvalue = [0, 1, 0]\nclass = versicolor", fillcolor="#39e581ff"] ;
13 -> 14 ;
15 [label="gini = 0.0\nsamples = 2\nvalue = [0, 0, 3]\nclass = virginica", fillcolor="#8139e5ff"] ;
13 -> 15 ;
16 [label="gini = 0.0\nsamples = 31\nvalue = [0, 0, 49]\nclass = virginica", fillcolor="#8139e5ff"] ;
2 -> 16 ;
{rank=same ; 0} ;
{rank=same ; 2} ;
{rank=same ; 3} ;
{rank=same ; 4; 11} ;
{rank=same ; 6; 13} ;
{rank=same ; 8} ;
{rank=same ; 1; 5; 7; 9; 10; 12; 14; 15; 16} ;
}