digraph Tree {
node [shape=box, style="filled", color="black"] ;
graph [ranksep=equally, splines=polyline] ;
0 [label="sepallen <= 5.45\ngini = 0.665\nsamples = 89\nvalue = [51, 45, 45]\nclass = setosa", fillcolor="#e5813910"] ;
1 [label="sepalwid <= 2.85\ngini = 0.165\nsamples = 33\nvalue = [51, 4, 1]\nclass = setosa", fillcolor="#e58139e6"] ;
0 -> 1 [labeldistance=2.5, labelangle=45, headlabel="True"] ;
2 [label="sepallen <= 4.95\ngini = 0.32\nsamples = 4\nvalue = [0, 4, 1]\nclass = versicolor", fillcolor="#39e581bf"] ;
1 -> 2 ;
3 [label="gini = 0.0\nsamples = 1\nvalue = [0, 0, 1]\nclass = virginica", fillcolor="#8139e5ff"] ;
2 -> 3 ;
4 [label="gini = 0.0\nsamples = 3\nvalue = [0, 4, 0]\nclass = versicolor", fillcolor="#39e581ff"] ;
2 -> 4 ;
5 [label="gini = 0.0\nsamples = 29\nvalue = [51, 0, 0]\nclass = setosa", fillcolor="#e58139ff"] ;
1 -> 5 ;
6 [label="petallen <= 4.75\ngini = 0.499\nsamples = 56\nvalue = [0, 41, 44]\nclass = virginica", fillcolor="#8139e511"] ;
0 -> 6 [labeldistance=2.5, labelangle=-45, headlabel="False"] ;
7 [label="gini = 0.0\nsamples = 22\nvalue = [0, 36, 0]\nclass = versicolor", fillcolor="#39e581ff"] ;
6 -> 7 ;
8 [label="sepalwid <= 2.75\ngini = 0.183\nsamples = 34\nvalue = [0, 5, 44]\nclass = virginica", fillcolor="#8139e5e2"] ;
6 -> 8 ;
9 [label="petallen <= 4.95\ngini = 0.375\nsamples = 9\nvalue = [0, 3, 9]\nclass = virginica", fillcolor="#8139e5aa"] ;
8 -> 9 ;
10 [label="gini = 0.0\nsamples = 1\nvalue = [0, 1, 0]\nclass = versicolor", fillcolor="#39e581ff"] ;
9 -> 10 ;
11 [label="petalwid <= 1.7\ngini = 0.298\nsamples = 8\nvalue = [0, 2, 9]\nclass = virginica", fillcolor="#8139e5c6"] ;
9 -> 11 ;
12 [label="sepalwid <= 2.65\ngini = 0.444\nsamples = 3\nvalue = [0, 2, 4]\nclass = virginica", fillcolor="#8139e57f"] ;
11 -> 12 ;
13 [label="gini = 0.0\nsamples = 2\nvalue = [0, 0, 4]\nclass = virginica", fillcolor="#8139e5ff"] ;
12 -> 13 ;
14 [label="gini = 0.0\nsamples = 1\nvalue = [0, 2, 0]\nclass = versicolor", fillcolor="#39e581ff"] ;
12 -> 14 ;
15 [label="gini = 0.0\nsamples = 5\nvalue = [0, 0, 5]\nclass = virginica", fillcolor="#8139e5ff"] ;
11 -> 15 ;
16 [label="petallen <= 5.0\ngini = 0.102\nsamples = 25\nvalue = [0, 2, 35]\nclass = virginica", fillcolor="#8139e5f0"] ;
8 -> 16 ;
17 [label="sepalwid <= 3.05\ngini = 0.32\nsamples = 6\nvalue = [0, 2, 8]\nclass = virginica", fillcolor="#8139e5bf"] ;
16 -> 17 ;
18 [label="gini = 0.0\nsamples = 4\nvalue = [0, 0, 8]\nclass = virginica", fillcolor="#8139e5ff"] ;
17 -> 18 ;
19 [label="gini = 0.0\nsamples = 2\nvalue = [0, 2, 0]\nclass = versicolor", fillcolor="#39e581ff"] ;
17 -> 19 ;
20 [label="gini = 0.0\nsamples = 19\nvalue = [0, 0, 27]\nclass = virginica", fillcolor="#8139e5ff"] ;
16 -> 20 ;
{rank=same ; 0} ;
{rank=same ; 1; 6} ;
{rank=same ; 2; 8} ;
{rank=same ; 9; 16} ;
{rank=same ; 11; 17} ;
{rank=same ; 12} ;
{rank=same ; 3; 4; 5; 7; 10; 13; 14; 15; 18; 19; 20} ;
}