digraph Tree {
node [shape=box, style="filled", color="black"] ;
graph [ranksep=equally, splines=polyline] ;
0 [label="petalwid <= 1.75\ngini = 0.658\nsamples = 86\nvalue = [41, 42, 58]\nclass = virginica", fillcolor="#8139e529"] ;
1 [label="sepallen <= 5.15\ngini = 0.543\nsamples = 58\nvalue = [41, 42, 4]\nclass = versicolor", fillcolor="#39e58106"] ;
0 -> 1 [labeldistance=2.5, labelangle=45, headlabel="True"] ;
2 [label="petalwid <= 0.7\ngini = 0.188\nsamples = 24\nvalue = [34, 4, 0]\nclass = setosa", fillcolor="#e58139e1"] ;
1 -> 2 ;
3 [label="gini = 0.0\nsamples = 21\nvalue = [34, 0, 0]\nclass = setosa", fillcolor="#e58139ff"] ;
2 -> 3 ;
4 [label="gini = 0.0\nsamples = 3\nvalue = [0, 4, 0]\nclass = versicolor", fillcolor="#39e581ff"] ;
2 -> 4 ;
5 [label="sepalwid <= 3.35\ngini = 0.372\nsamples = 34\nvalue = [7, 38, 4]\nclass = versicolor", fillcolor="#39e581bc"] ;
1 -> 5 ;
6 [label="sepallen <= 5.95\ngini = 0.172\nsamples = 28\nvalue = [0, 38, 4]\nclass = versicolor", fillcolor="#39e581e4"] ;
5 -> 6 ;
7 [label="gini = 0.0\nsamples = 9\nvalue = [0, 16, 0]\nclass = versicolor", fillcolor="#39e581ff"] ;
6 -> 7 ;
8 [label="petallen <= 4.95\ngini = 0.26\nsamples = 19\nvalue = [0, 22, 4]\nclass = versicolor", fillcolor="#39e581d1"] ;
6 -> 8 ;
9 [label="gini = 0.0\nsamples = 14\nvalue = [0, 18, 0]\nclass = versicolor", fillcolor="#39e581ff"] ;
8 -> 9 ;
10 [label="petalwid <= 1.55\ngini = 0.5\nsamples = 5\nvalue = [0, 4, 4]\nclass = versicolor", fillcolor="#39e58100"] ;
8 -> 10 ;
11 [label="gini = 0.0\nsamples = 3\nvalue = [0, 0, 4]\nclass = virginica", fillcolor="#8139e5ff"] ;
10 -> 11 ;
12 [label="gini = 0.0\nsamples = 2\nvalue = [0, 4, 0]\nclass = versicolor", fillcolor="#39e581ff"] ;
10 -> 12 ;
13 [label="gini = 0.0\nsamples = 6\nvalue = [7, 0, 0]\nclass = setosa", fillcolor="#e58139ff"] ;
5 -> 13 ;
14 [label="gini = 0.0\nsamples = 28\nvalue = [0, 0, 54]\nclass = virginica", fillcolor="#8139e5ff"] ;
0 -> 14 [labeldistance=2.5, labelangle=-45, headlabel="False"] ;
{rank=same ; 0} ;
{rank=same ; 1} ;
{rank=same ; 2; 5} ;
{rank=same ; 6} ;
{rank=same ; 8} ;
{rank=same ; 10} ;
{rank=same ; 3; 4; 7; 9; 11; 12; 13; 14} ;
}