digraph Tree {
node [shape=box, style="filled", color="black"] ;
graph [ranksep=equally, splines=polyline] ;
0 [label="petalwid <= 0.7\ngini = 0.662\nsamples = 91\nvalue = [50, 39, 52]\nclass = virginica", fillcolor="#8139e506"] ;
1 [label="gini = 0.0\nsamples = 32\nvalue = [50, 0, 0]\nclass = setosa", fillcolor="#e58139ff"] ;
0 -> 1 [labeldistance=2.5, labelangle=45, headlabel="True"] ;
2 [label="petalwid <= 1.75\ngini = 0.49\nsamples = 59\nvalue = [0, 39, 52]\nclass = virginica", fillcolor="#8139e540"] ;
0 -> 2 [labeldistance=2.5, labelangle=-45, headlabel="False"] ;
3 [label="petallen <= 5.05\ngini = 0.172\nsamples = 30\nvalue = [0, 38, 4]\nclass = versicolor", fillcolor="#39e581e4"] ;
2 -> 3 ;
4 [label="gini = 0.0\nsamples = 26\nvalue = [0, 37, 0]\nclass = versicolor", fillcolor="#39e581ff"] ;
3 -> 4 ;
5 [label="petallen <= 5.35\ngini = 0.32\nsamples = 4\nvalue = [0, 1, 4]\nclass = virginica", fillcolor="#8139e5bf"] ;
3 -> 5 ;
6 [label="petalwid <= 1.55\ngini = 0.5\nsamples = 2\nvalue = [0, 1, 1]\nclass = versicolor", fillcolor="#39e58100"] ;
5 -> 6 ;
7 [label="gini = 0.0\nsamples = 1\nvalue = [0, 0, 1]\nclass = virginica", fillcolor="#8139e5ff"] ;
6 -> 7 ;
8 [label="gini = 0.0\nsamples = 1\nvalue = [0, 1, 0]\nclass = versicolor", fillcolor="#39e581ff"] ;
6 -> 8 ;
9 [label="gini = 0.0\nsamples = 2\nvalue = [0, 0, 3]\nclass = virginica", fillcolor="#8139e5ff"] ;
5 -> 9 ;
10 [label="sepalwid <= 3.15\ngini = 0.04\nsamples = 29\nvalue = [0, 1, 48]\nclass = virginica", fillcolor="#8139e5fa"] ;
2 -> 10 ;
11 [label="gini = 0.0\nsamples = 20\nvalue = [0, 0, 36]\nclass = virginica", fillcolor="#8139e5ff"] ;
10 -> 11 ;
12 [label="sepallen <= 6.05\ngini = 0.142\nsamples = 9\nvalue = [0, 1, 12]\nclass = virginica", fillcolor="#8139e5ea"] ;
10 -> 12 ;
13 [label="gini = 0.0\nsamples = 1\nvalue = [0, 1, 0]\nclass = versicolor", fillcolor="#39e581ff"] ;
12 -> 13 ;
14 [label="gini = 0.0\nsamples = 8\nvalue = [0, 0, 12]\nclass = virginica", fillcolor="#8139e5ff"] ;
12 -> 14 ;
{rank=same ; 0} ;
{rank=same ; 2} ;
{rank=same ; 3; 10} ;
{rank=same ; 5; 12} ;
{rank=same ; 6} ;
{rank=same ; 1; 4; 7; 8; 9; 11; 13; 14} ;
}