digraph Tree {
node [shape=box, style="filled", color="black"] ;
graph [ranksep=equally, splines=polyline] ;
0 [label="sex <= 0.5\ngini = 0.475\nsamples = 650\nvalue = [620, 393]\nclass = 0", fillcolor="#e581395d"] ;
1 [label="embarked <= 0.5\ngini = 0.324\nsamples = 411\nvalue = [522, 133]\nclass = 0", fillcolor="#e58139be"] ;
0 -> 1 [labeldistance=2.5, labelangle=45, headlabel="True"] ;
2 [label="age <= 60.5\ngini = 0.444\nsamples = 71\nvalue = [76, 38]\nclass = 0", fillcolor="#e581397f"] ;
1 -> 2 ;
3 [label="age <= 42.0\ngini = 0.456\nsamples = 68\nvalue = [70, 38]\nclass = 0", fillcolor="#e5813975"] ;
2 -> 3 ;
4 [label="pclass <= 1.5\ngini = 0.414\nsamples = 55\nvalue = [63, 26]\nclass = 0", fillcolor="#e5813996"] ;
3 -> 4 ;
5 [label="gini = 0.482\nsamples = 25\nvalue = [25, 17]\nclass = 0", fillcolor="#e5813952"] ;
4 -> 5 ;
6 [label="gini = 0.31\nsamples = 30\nvalue = [38, 9]\nclass = 0", fillcolor="#e58139c3"] ;
4 -> 6 ;
7 [label="fare <= 92.812\ngini = 0.465\nsamples = 13\nvalue = [7, 12]\nclass = 1", fillcolor="#399de56a"] ;
3 -> 7 ;
8 [label="gini = 0.391\nsamples = 10\nvalue = [4, 11]\nclass = 1", fillcolor="#399de5a2"] ;
7 -> 8 ;
9 [label="gini = 0.375\nsamples = 3\nvalue = [3, 1]\nclass = 0", fillcolor="#e58139aa"] ;
7 -> 9 ;
10 [label="gini = 0.0\nsamples = 3\nvalue = [6, 0]\nclass = 0", fillcolor="#e58139ff"] ;
2 -> 10 ;
11 [label="parch <= 0.5\ngini = 0.29\nsamples = 340\nvalue = [446, 95]\nclass = 0", fillcolor="#e58139c9"] ;
1 -> 11 ;
12 [label="fare <= 26.144\ngini = 0.266\nsamples = 284\nvalue = [389, 73]\nclass = 0", fillcolor="#e58139cf"] ;
11 -> 12 ;
13 [label="age <= 32.25\ngini = 0.239\nsamples = 234\nvalue = [329, 53]\nclass = 0", fillcolor="#e58139d6"] ;
12 -> 13 ;
14 [label="gini = 0.274\nsamples = 161\nvalue = [225, 44]\nclass = 0", fillcolor="#e58139cd"] ;
13 -> 14 ;
15 [label="gini = 0.147\nsamples = 73\nvalue = [104, 9]\nclass = 0", fillcolor="#e58139e9"] ;
13 -> 15 ;
16 [label="pclass <= 1.5\ngini = 0.375\nsamples = 50\nvalue = [60, 20]\nclass = 0", fillcolor="#e58139aa"] ;
12 -> 16 ;
17 [label="gini = 0.441\nsamples = 38\nvalue = [39, 19]\nclass = 0", fillcolor="#e5813983"] ;
16 -> 17 ;
18 [label="gini = 0.087\nsamples = 12\nvalue = [21, 1]\nclass = 0", fillcolor="#e58139f3"] ;
16 -> 18 ;
19 [label="fare <= 26.125\ngini = 0.402\nsamples = 56\nvalue = [57, 22]\nclass = 0", fillcolor="#e581399d"] ;
11 -> 19 ;
20 [label="fare <= 15.2\ngini = 0.496\nsamples = 24\nvalue = [15, 18]\nclass = 1", fillcolor="#399de52a"] ;
19 -> 20 ;
21 [label="gini = 0.463\nsamples = 9\nvalue = [7, 4]\nclass = 0", fillcolor="#e581396d"] ;
20 -> 21 ;
22 [label="gini = 0.463\nsamples = 15\nvalue = [8, 14]\nclass = 1", fillcolor="#399de56d"] ;
20 -> 22 ;
23 [label="parch <= 2.5\ngini = 0.159\nsamples = 32\nvalue = [42, 4]\nclass = 0", fillcolor="#e58139e7"] ;
19 -> 23 ;
24 [label="gini = 0.202\nsamples = 26\nvalue = [31, 4]\nclass = 0", fillcolor="#e58139de"] ;
23 -> 24 ;
25 [label="gini = 0.0\nsamples = 6\nvalue = [11, 0]\nclass = 0", fillcolor="#e58139ff"] ;
23 -> 25 ;
26 [label="pclass <= 2.5\ngini = 0.398\nsamples = 239\nvalue = [98, 260]\nclass = 1", fillcolor="#399de59f"] ;
0 -> 26 [labeldistance=2.5, labelangle=-45, headlabel="False"] ;
27 [label="pclass <= 1.5\ngini = 0.091\nsamples = 141\nvalue = [10, 200]\nclass = 1", fillcolor="#399de5f2"] ;
26 -> 27 ;
28 [label="age <= 61.5\ngini = 0.066\nsamples = 80\nvalue = [4, 113]\nclass = 1", fillcolor="#399de5f6"] ;
27 -> 28 ;
29 [label="embarked <= 0.5\ngini = 0.052\nsamples = 76\nvalue = [3, 109]\nclass = 1", fillcolor="#399de5f8"] ;
28 -> 29 ;
30 [label="gini = 0.088\nsamples = 42\nvalue = [3, 62]\nclass = 1", fillcolor="#399de5f3"] ;
29 -> 30 ;
31 [label="gini = 0.0\nsamples = 34\nvalue = [0, 47]\nclass = 1", fillcolor="#399de5ff"] ;
29 -> 31 ;
32 [label="age <= 63.5\ngini = 0.32\nsamples = 4\nvalue = [1, 4]\nclass = 1", fillcolor="#399de5bf"] ;
28 -> 32 ;
33 [label="gini = 0.0\nsamples = 1\nvalue = [1, 0]\nclass = 0", fillcolor="#e58139ff"] ;
32 -> 33 ;
34 [label="gini = 0.0\nsamples = 3\nvalue = [0, 4]\nclass = 1", fillcolor="#399de5ff"] ;
32 -> 34 ;
35 [label="age <= 56.0\ngini = 0.121\nsamples = 61\nvalue = [6, 87]\nclass = 1", fillcolor="#399de5ed"] ;
27 -> 35 ;
36 [label="fare <= 26.125\ngini = 0.103\nsamples = 60\nvalue = [5, 87]\nclass = 1", fillcolor="#399de5f0"] ;
35 -> 36 ;
37 [label="gini = 0.148\nsamples = 42\nvalue = [5, 57]\nclass = 1", fillcolor="#399de5e9"] ;
36 -> 37 ;
38 [label="gini = 0.0\nsamples = 18\nvalue = [0, 30]\nclass = 1", fillcolor="#399de5ff"] ;
36 -> 38 ;
39 [label="gini = 0.0\nsamples = 1\nvalue = [1, 0]\nclass = 0", fillcolor="#e58139ff"] ;
35 -> 39 ;
40 [label="fare <= 23.087\ngini = 0.482\nsamples = 98\nvalue = [88, 60]\nclass = 0", fillcolor="#e5813951"] ;
26 -> 40 ;
41 [label="embarked <= 0.5\ngini = 0.5\nsamples = 82\nvalue = [62, 60]\nclass = 0", fillcolor="#e5813908"] ;
40 -> 41 ;
42 [label="parch <= 1.5\ngini = 0.444\nsamples = 15\nvalue = [6, 12]\nclass = 1", fillcolor="#399de57f"] ;
41 -> 42 ;
43 [label="gini = 0.48\nsamples = 12\nvalue = [6, 9]\nclass = 1", fillcolor="#399de555"] ;
42 -> 43 ;
44 [label="gini = 0.0\nsamples = 3\nvalue = [0, 3]\nclass = 1", fillcolor="#399de5ff"] ;
42 -> 44 ;
45 [label="age <= 36.5\ngini = 0.497\nsamples = 67\nvalue = [56, 48]\nclass = 0", fillcolor="#e5813924"] ;
41 -> 45 ;
46 [label="gini = 0.5\nsamples = 58\nvalue = [47, 45]\nclass = 0", fillcolor="#e581390b"] ;
45 -> 46 ;
47 [label="gini = 0.375\nsamples = 9\nvalue = [9, 3]\nclass = 0", fillcolor="#e58139aa"] ;
45 -> 47 ;
48 [label="gini = 0.0\nsamples = 16\nvalue = [26, 0]\nclass = 0", fillcolor="#e58139ff"] ;
40 -> 48 ;
{rank=same ; 0} ;
{rank=same ; 1; 26} ;
{rank=same ; 2; 11; 27; 40} ;
{rank=same ; 3; 12; 19; 28; 35; 41} ;
{rank=same ; 4; 7; 13; 16; 20; 23; 29; 32; 36; 42; 45} ;
{rank=same ; 5; 6; 8; 9; 10; 14; 15; 17; 18; 21; 22; 24; 25; 30; 31; 33; 34; 37; 38; 39; 43; 44; 46; 47; 48} ;
}