digraph Tree {
node [shape=box, style="filled", color="black"] ;
graph [ranksep=equally, splines=polyline] ;
0 [label="sex <= 0.5\ngini = 0.487\nsamples = 631\nvalue = [587, 426]\nclass = 0", fillcolor="#e5813946"] ;
1 [label="age <= 13.5\ngini = 0.355\nsamples = 400\nvalue = [498, 149]\nclass = 0", fillcolor="#e58139b3"] ;
0 -> 1 [labeldistance=2.5, labelangle=45, headlabel="True"] ;
2 [label="fare <= 19.5\ngini = 0.435\nsamples = 33\nvalue = [15, 32]\nclass = 1", fillcolor="#399de587"] ;
1 -> 2 ;
3 [label="parch <= 1.5\ngini = 0.198\nsamples = 14\nvalue = [2, 16]\nclass = 1", fillcolor="#399de5df"] ;
2 -> 3 ;
4 [label="parch <= 0.5\ngini = 0.111\nsamples = 13\nvalue = [1, 16]\nclass = 1", fillcolor="#399de5ef"] ;
3 -> 4 ;
5 [label="gini = 0.0\nsamples = 1\nvalue = [0, 1]\nclass = 1", fillcolor="#399de5ff"] ;
4 -> 5 ;
6 [label="gini = 0.117\nsamples = 12\nvalue = [1, 15]\nclass = 1", fillcolor="#399de5ee"] ;
4 -> 6 ;
7 [label="gini = 0.0\nsamples = 1\nvalue = [1, 0]\nclass = 0", fillcolor="#e58139ff"] ;
3 -> 7 ;
8 [label="sibsp <= 2.5\ngini = 0.495\nsamples = 19\nvalue = [13, 16]\nclass = 1", fillcolor="#399de530"] ;
2 -> 8 ;
9 [label="sibsp <= 0.5\ngini = 0.117\nsamples = 9\nvalue = [1, 15]\nclass = 1", fillcolor="#399de5ee"] ;
8 -> 9 ;
10 [label="gini = 0.278\nsamples = 4\nvalue = [1, 5]\nclass = 1", fillcolor="#399de5cc"] ;
9 -> 10 ;
11 [label="gini = 0.0\nsamples = 5\nvalue = [0, 10]\nclass = 1", fillcolor="#399de5ff"] ;
9 -> 11 ;
12 [label="fare <= 30.256\ngini = 0.142\nsamples = 10\nvalue = [12, 1]\nclass = 0", fillcolor="#e58139ea"] ;
8 -> 12 ;
13 [label="gini = 0.0\nsamples = 6\nvalue = [8, 0]\nclass = 0", fillcolor="#e58139ff"] ;
12 -> 13 ;
14 [label="gini = 0.32\nsamples = 4\nvalue = [4, 1]\nclass = 0", fillcolor="#e58139bf"] ;
12 -> 14 ;
15 [label="embarked <= 0.5\ngini = 0.314\nsamples = 367\nvalue = [483, 117]\nclass = 0", fillcolor="#e58139c1"] ;
1 -> 15 ;
16 [label="pclass <= 1.5\ngini = 0.471\nsamples = 68\nvalue = [64, 39]\nclass = 0", fillcolor="#e5813964"] ;
15 -> 16 ;
17 [label="fare <= 57.421\ngini = 0.494\nsamples = 34\nvalue = [31, 25]\nclass = 0", fillcolor="#e5813931"] ;
16 -> 17 ;
18 [label="gini = 0.48\nsamples = 12\nvalue = [8, 12]\nclass = 1", fillcolor="#399de555"] ;
17 -> 18 ;
19 [label="gini = 0.461\nsamples = 22\nvalue = [23, 13]\nclass = 0", fillcolor="#e581396f"] ;
17 -> 19 ;
20 [label="age <= 29.5\ngini = 0.418\nsamples = 34\nvalue = [33, 14]\nclass = 0", fillcolor="#e5813993"] ;
16 -> 20 ;
21 [label="gini = 0.456\nsamples = 25\nvalue = [24, 13]\nclass = 0", fillcolor="#e5813975"] ;
20 -> 21 ;
22 [label="gini = 0.18\nsamples = 9\nvalue = [9, 1]\nclass = 0", fillcolor="#e58139e3"] ;
20 -> 22 ;
23 [label="parch <= 0.5\ngini = 0.265\nsamples = 299\nvalue = [419, 78]\nclass = 0", fillcolor="#e58139d0"] ;
15 -> 23 ;
24 [label="fare <= 26.144\ngini = 0.276\nsamples = 269\nvalue = [378, 75]\nclass = 0", fillcolor="#e58139cc"] ;
23 -> 24 ;
25 [label="gini = 0.223\nsamples = 221\nvalue = [320, 47]\nclass = 0", fillcolor="#e58139da"] ;
24 -> 25 ;
26 [label="gini = 0.439\nsamples = 48\nvalue = [58, 28]\nclass = 0", fillcolor="#e5813984"] ;
24 -> 26 ;
27 [label="pclass <= 1.5\ngini = 0.127\nsamples = 30\nvalue = [41, 3]\nclass = 0", fillcolor="#e58139ec"] ;
23 -> 27 ;
28 [label="gini = 0.245\nsamples = 8\nvalue = [12, 2]\nclass = 0", fillcolor="#e58139d4"] ;
27 -> 28 ;
29 [label="gini = 0.064\nsamples = 22\nvalue = [29, 1]\nclass = 0", fillcolor="#e58139f6"] ;
27 -> 29 ;
30 [label="sibsp <= 3.5\ngini = 0.368\nsamples = 231\nvalue = [89, 277]\nclass = 1", fillcolor="#399de5ad"] ;
0 -> 30 [labeldistance=2.5, labelangle=-45, headlabel="False"] ;
31 [label="fare <= 21.55\ngini = 0.358\nsamples = 227\nvalue = [84, 276]\nclass = 1", fillcolor="#399de5b1"] ;
30 -> 31 ;
32 [label="age <= 21.5\ngini = 0.485\nsamples = 105\nvalue = [69, 98]\nclass = 1", fillcolor="#399de54b"] ;
31 -> 32 ;
33 [label="pclass <= 2.5\ngini = 0.5\nsamples = 39\nvalue = [35, 35]\nclass = 0", fillcolor="#e5813900"] ;
32 -> 33 ;
34 [label="gini = 0.0\nsamples = 4\nvalue = [0, 8]\nclass = 1", fillcolor="#399de5ff"] ;
33 -> 34 ;
35 [label="gini = 0.492\nsamples = 35\nvalue = [35, 27]\nclass = 0", fillcolor="#e581393a"] ;
33 -> 35 ;
36 [label="embarked <= 0.5\ngini = 0.455\nsamples = 66\nvalue = [34, 63]\nclass = 1", fillcolor="#399de575"] ;
32 -> 36 ;
37 [label="gini = 0.397\nsamples = 7\nvalue = [3, 8]\nclass = 1", fillcolor="#399de59f"] ;
36 -> 37 ;
38 [label="gini = 0.461\nsamples = 59\nvalue = [31, 55]\nclass = 1", fillcolor="#399de56f"] ;
36 -> 38 ;
39 [label="age <= 59.0\ngini = 0.143\nsamples = 122\nvalue = [15, 178]\nclass = 1", fillcolor="#399de5ea"] ;
31 -> 39 ;
40 [label="pclass <= 2.5\ngini = 0.112\nsamples = 117\nvalue = [11, 173]\nclass = 1", fillcolor="#399de5ef"] ;
39 -> 40 ;
41 [label="gini = 0.055\nsamples = 110\nvalue = [5, 171]\nclass = 1", fillcolor="#399de5f8"] ;
40 -> 41 ;
42 [label="gini = 0.375\nsamples = 7\nvalue = [6, 2]\nclass = 0", fillcolor="#e58139aa"] ;
40 -> 42 ;
43 [label="fare <= 152.469\ngini = 0.494\nsamples = 5\nvalue = [4, 5]\nclass = 1", fillcolor="#399de533"] ;
39 -> 43 ;
44 [label="gini = 0.278\nsamples = 4\nvalue = [1, 5]\nclass = 1", fillcolor="#399de5cc"] ;
43 -> 44 ;
45 [label="gini = 0.0\nsamples = 1\nvalue = [3, 0]\nclass = 0", fillcolor="#e58139ff"] ;
43 -> 45 ;
46 [label="sibsp <= 4.5\ngini = 0.278\nsamples = 4\nvalue = [5, 1]\nclass = 0", fillcolor="#e58139cc"] ;
30 -> 46 ;
47 [label="age <= 14.0\ngini = 0.375\nsamples = 3\nvalue = [3, 1]\nclass = 0", fillcolor="#e58139aa"] ;
46 -> 47 ;
48 [label="gini = 0.0\nsamples = 2\nvalue = [3, 0]\nclass = 0", fillcolor="#e58139ff"] ;
47 -> 48 ;
49 [label="gini = 0.0\nsamples = 1\nvalue = [0, 1]\nclass = 1", fillcolor="#399de5ff"] ;
47 -> 49 ;
50 [label="gini = 0.0\nsamples = 1\nvalue = [2, 0]\nclass = 0", fillcolor="#e58139ff"] ;
46 -> 50 ;
{rank=same ; 0} ;
{rank=same ; 1; 30} ;
{rank=same ; 2; 15; 31; 46} ;
{rank=same ; 3; 8; 16; 23; 32; 39; 47} ;
{rank=same ; 4; 9; 12; 17; 20; 24; 27; 33; 36; 40; 43} ;
{rank=same ; 5; 6; 7; 10; 11; 13; 14; 18; 19; 21; 22; 25; 26; 28; 29; 34; 35; 37; 38; 41; 42; 44; 45; 48; 49; 50} ;
}