digraph Tree {
node [shape=box, style="filled", color="black"] ;
graph [ranksep=equally, splines=polyline] ;
0 [label="pclass <= 2.5\ngini = 0.479\nsamples = 637\nvalue = [611, 402]\nclass = 0", fillcolor="#e5813957"] ;
1 [label="embarked <= 0.5\ngini = 0.495\nsamples = 336\nvalue = [237, 291]\nclass = 1", fillcolor="#399de52f"] ;
0 -> 1 [labeldistance=2.5, labelangle=45, headlabel="True"] ;
2 [label="parch <= 2.5\ngini = 0.413\nsamples = 103\nvalue = [47, 114]\nclass = 1", fillcolor="#399de596"] ;
1 -> 2 ;
3 [label="age <= 35.5\ngini = 0.41\nsamples = 102\nvalue = [46, 114]\nclass = 1", fillcolor="#399de598"] ;
2 -> 3 ;
4 [label="sex <= 0.5\ngini = 0.305\nsamples = 53\nvalue = [15, 65]\nclass = 1", fillcolor="#399de5c4"] ;
3 -> 4 ;
5 [label="gini = 0.493\nsamples = 24\nvalue = [15, 19]\nclass = 1", fillcolor="#399de536"] ;
4 -> 5 ;
6 [label="gini = 0.0\nsamples = 29\nvalue = [0, 46]\nclass = 1", fillcolor="#399de5ff"] ;
4 -> 6 ;
7 [label="fare <= 75.246\ngini = 0.475\nsamples = 49\nvalue = [31, 49]\nclass = 1", fillcolor="#399de55e"] ;
3 -> 7 ;
8 [label="gini = 0.467\nsamples = 21\nvalue = [22, 13]\nclass = 0", fillcolor="#e5813968"] ;
7 -> 8 ;
9 [label="gini = 0.32\nsamples = 28\nvalue = [9, 36]\nclass = 1", fillcolor="#399de5bf"] ;
7 -> 9 ;
10 [label="gini = 0.0\nsamples = 1\nvalue = [1, 0]\nclass = 0", fillcolor="#e58139ff"] ;
2 -> 10 ;
11 [label="sex <= 0.5\ngini = 0.499\nsamples = 233\nvalue = [190, 177]\nclass = 0", fillcolor="#e5813911"] ;
1 -> 11 ;
12 [label="sibsp <= 0.5\ngini = 0.332\nsamples = 140\nvalue = [177, 47]\nclass = 0", fillcolor="#e58139bb"] ;
11 -> 12 ;
13 [label="fare <= 26.144\ngini = 0.296\nsamples = 96\nvalue = [127, 28]\nclass = 0", fillcolor="#e58139c7"] ;
12 -> 13 ;
14 [label="gini = 0.177\nsamples = 63\nvalue = [92, 10]\nclass = 0", fillcolor="#e58139e3"] ;
13 -> 14 ;
15 [label="gini = 0.449\nsamples = 33\nvalue = [35, 18]\nclass = 0", fillcolor="#e581397c"] ;
13 -> 15 ;
16 [label="pclass <= 1.5\ngini = 0.399\nsamples = 44\nvalue = [50, 19]\nclass = 0", fillcolor="#e581399e"] ;
12 -> 16 ;
17 [label="gini = 0.287\nsamples = 16\nvalue = [19, 4]\nclass = 0", fillcolor="#e58139c9"] ;
16 -> 17 ;
18 [label="gini = 0.44\nsamples = 28\nvalue = [31, 15]\nclass = 0", fillcolor="#e5813984"] ;
16 -> 18 ;
19 [label="embarked <= 1.5\ngini = 0.165\nsamples = 93\nvalue = [13, 130]\nclass = 1", fillcolor="#399de5e6"] ;
11 -> 19 ;
20 [label="gini = 0.0\nsamples = 3\nvalue = [0, 3]\nclass = 1", fillcolor="#399de5ff"] ;
19 -> 20 ;
21 [label="fare <= 26.125\ngini = 0.168\nsamples = 90\nvalue = [13, 127]\nclass = 1", fillcolor="#399de5e5"] ;
19 -> 21 ;
22 [label="gini = 0.301\nsamples = 40\nvalue = [12, 53]\nclass = 1", fillcolor="#399de5c5"] ;
21 -> 22 ;
23 [label="gini = 0.026\nsamples = 50\nvalue = [1, 74]\nclass = 1", fillcolor="#399de5fc"] ;
21 -> 23 ;
24 [label="fare <= 51.698\ngini = 0.353\nsamples = 301\nvalue = [374, 111]\nclass = 0", fillcolor="#e58139b3"] ;
0 -> 24 [labeldistance=2.5, labelangle=-45, headlabel="False"] ;
25 [label="age <= 1.5\ngini = 0.346\nsamples = 299\nvalue = [374, 107]\nclass = 0", fillcolor="#e58139b6"] ;
24 -> 25 ;
26 [label="sex <= 0.5\ngini = 0.401\nsamples = 11\nvalue = [5, 13]\nclass = 1", fillcolor="#399de59d"] ;
25 -> 26 ;
27 [label="fare <= 11.562\ngini = 0.494\nsamples = 7\nvalue = [5, 4]\nclass = 0", fillcolor="#e5813933"] ;
26 -> 27 ;
28 [label="gini = 0.0\nsamples = 2\nvalue = [0, 2]\nclass = 1", fillcolor="#399de5ff"] ;
27 -> 28 ;
29 [label="gini = 0.408\nsamples = 5\nvalue = [5, 2]\nclass = 0", fillcolor="#e5813999"] ;
27 -> 29 ;
30 [label="gini = 0.0\nsamples = 4\nvalue = [0, 9]\nclass = 1", fillcolor="#399de5ff"] ;
26 -> 30 ;
31 [label="fare <= 22.275\ngini = 0.324\nsamples = 288\nvalue = [369, 94]\nclass = 0", fillcolor="#e58139be"] ;
25 -> 31 ;
32 [label="age <= 15.5\ngini = 0.348\nsamples = 254\nvalue = [312, 90]\nclass = 0", fillcolor="#e58139b5"] ;
31 -> 32 ;
33 [label="gini = 0.495\nsamples = 20\nvalue = [14, 17]\nclass = 1", fillcolor="#399de52d"] ;
32 -> 33 ;
34 [label="gini = 0.316\nsamples = 234\nvalue = [298, 73]\nclass = 0", fillcolor="#e58139c1"] ;
32 -> 34 ;
35 [label="embarked <= 1.5\ngini = 0.123\nsamples = 34\nvalue = [57, 4]\nclass = 0", fillcolor="#e58139ed"] ;
31 -> 35 ;
36 [label="gini = 0.0\nsamples = 4\nvalue = [6, 0]\nclass = 0", fillcolor="#e58139ff"] ;
35 -> 36 ;
37 [label="gini = 0.135\nsamples = 30\nvalue = [51, 4]\nclass = 0", fillcolor="#e58139eb"] ;
35 -> 37 ;
38 [label="gini = 0.0\nsamples = 2\nvalue = [0, 4]\nclass = 1", fillcolor="#399de5ff"] ;
24 -> 38 ;
{rank=same ; 0} ;
{rank=same ; 1; 24} ;
{rank=same ; 2; 11; 25} ;
{rank=same ; 3; 12; 19; 26; 31} ;
{rank=same ; 4; 7; 13; 16; 21; 27; 32; 35} ;
{rank=same ; 5; 6; 8; 9; 10; 14; 15; 17; 18; 20; 22; 23; 28; 29; 30; 33; 34; 36; 37; 38} ;
}