digraph Tree {
node [shape=box, style="filled", color="black"] ;
graph [ranksep=equally, splines=polyline] ;
0 [label="sex <= 0.5\ngini = 0.475\nsamples = 633\nvalue = [619, 394]\nclass = 0", fillcolor="#e581395d"] ;
1 [label="parch <= 0.5\ngini = 0.305\nsamples = 404\nvalue = [528, 122]\nclass = 0", fillcolor="#e58139c4"] ;
0 -> 1 [labeldistance=2.5, labelangle=45, headlabel="True"] ;
2 [label="age <= 24.5\ngini = 0.27\nsamples = 325\nvalue = [444, 85]\nclass = 0", fillcolor="#e58139ce"] ;
1 -> 2 ;
3 [label="fare <= 7.798\ngini = 0.133\nsamples = 104\nvalue = [155, 12]\nclass = 0", fillcolor="#e58139eb"] ;
2 -> 3 ;
4 [label="embarked <= 0.5\ngini = 0.295\nsamples = 26\nvalue = [32, 7]\nclass = 0", fillcolor="#e58139c7"] ;
3 -> 4 ;
5 [label="gini = 0.375\nsamples = 6\nvalue = [6, 2]\nclass = 0", fillcolor="#e58139aa"] ;
4 -> 5 ;
6 [label="gini = 0.271\nsamples = 20\nvalue = [26, 5]\nclass = 0", fillcolor="#e58139ce"] ;
4 -> 6 ;
7 [label="pclass <= 1.5\ngini = 0.075\nsamples = 78\nvalue = [123, 5]\nclass = 0", fillcolor="#e58139f5"] ;
3 -> 7 ;
8 [label="gini = 0.133\nsamples = 8\nvalue = [13, 1]\nclass = 0", fillcolor="#e58139eb"] ;
7 -> 8 ;
9 [label="gini = 0.068\nsamples = 70\nvalue = [110, 4]\nclass = 0", fillcolor="#e58139f6"] ;
7 -> 9 ;
10 [label="embarked <= 0.5\ngini = 0.322\nsamples = 221\nvalue = [289, 73]\nclass = 0", fillcolor="#e58139bf"] ;
2 -> 10 ;
11 [label="fare <= 7.227\ngini = 0.487\nsamples = 43\nvalue = [36, 26]\nclass = 0", fillcolor="#e5813947"] ;
10 -> 11 ;
12 [label="gini = 0.0\nsamples = 5\nvalue = [8, 0]\nclass = 0", fillcolor="#e58139ff"] ;
11 -> 12 ;
13 [label="gini = 0.499\nsamples = 38\nvalue = [28, 26]\nclass = 0", fillcolor="#e5813912"] ;
11 -> 13 ;
14 [label="sibsp <= 1.5\ngini = 0.264\nsamples = 178\nvalue = [253, 47]\nclass = 0", fillcolor="#e58139d0"] ;
10 -> 14 ;
15 [label="gini = 0.26\nsamples = 174\nvalue = [248, 45]\nclass = 0", fillcolor="#e58139d1"] ;
14 -> 15 ;
16 [label="gini = 0.408\nsamples = 4\nvalue = [5, 2]\nclass = 0", fillcolor="#e5813999"] ;
14 -> 16 ;
17 [label="parch <= 2.5\ngini = 0.425\nsamples = 79\nvalue = [84, 37]\nclass = 0", fillcolor="#e581398f"] ;
1 -> 17 ;
18 [label="fare <= 19.481\ngini = 0.432\nsamples = 76\nvalue = [80, 37]\nclass = 0", fillcolor="#e5813989"] ;
17 -> 18 ;
19 [label="parch <= 1.5\ngini = 0.499\nsamples = 21\nvalue = [14, 15]\nclass = 1", fillcolor="#399de511"] ;
18 -> 19 ;
20 [label="gini = 0.48\nsamples = 18\nvalue = [10, 15]\nclass = 1", fillcolor="#399de555"] ;
19 -> 20 ;
21 [label="gini = 0.0\nsamples = 3\nvalue = [4, 0]\nclass = 0", fillcolor="#e58139ff"] ;
19 -> 21 ;
22 [label="sibsp <= 2.5\ngini = 0.375\nsamples = 55\nvalue = [66, 22]\nclass = 0", fillcolor="#e58139aa"] ;
18 -> 22 ;
23 [label="gini = 0.437\nsamples = 42\nvalue = [44, 21]\nclass = 0", fillcolor="#e5813985"] ;
22 -> 23 ;
24 [label="gini = 0.083\nsamples = 13\nvalue = [22, 1]\nclass = 0", fillcolor="#e58139f3"] ;
22 -> 24 ;
25 [label="gini = 0.0\nsamples = 3\nvalue = [4, 0]\nclass = 0", fillcolor="#e58139ff"] ;
17 -> 25 ;
26 [label="sibsp <= 2.5\ngini = 0.376\nsamples = 229\nvalue = [91, 272]\nclass = 1", fillcolor="#399de5aa"] ;
0 -> 26 [labeldistance=2.5, labelangle=-45, headlabel="False"] ;
27 [label="embarked <= 0.5\ngini = 0.363\nsamples = 219\nvalue = [84, 268]\nclass = 1", fillcolor="#399de5af"] ;
26 -> 27 ;
28 [label="sibsp <= 0.5\ngini = 0.209\nsamples = 58\nvalue = [11, 82]\nclass = 1", fillcolor="#399de5dd"] ;
27 -> 28 ;
29 [label="parch <= 1.5\ngini = 0.32\nsamples = 29\nvalue = [10, 40]\nclass = 1", fillcolor="#399de5bf"] ;
28 -> 29 ;
30 [label="gini = 0.335\nsamples = 27\nvalue = [10, 37]\nclass = 1", fillcolor="#399de5ba"] ;
29 -> 30 ;
31 [label="gini = 0.0\nsamples = 2\nvalue = [0, 3]\nclass = 1", fillcolor="#399de5ff"] ;
29 -> 31 ;
32 [label="pclass <= 2.5\ngini = 0.045\nsamples = 29\nvalue = [1, 42]\nclass = 1", fillcolor="#399de5f9"] ;
28 -> 32 ;
33 [label="gini = 0.0\nsamples = 22\nvalue = [0, 34]\nclass = 1", fillcolor="#399de5ff"] ;
32 -> 33 ;
34 [label="gini = 0.198\nsamples = 7\nvalue = [1, 8]\nclass = 1", fillcolor="#399de5df"] ;
32 -> 34 ;
35 [label="parch <= 5.5\ngini = 0.405\nsamples = 161\nvalue = [73, 186]\nclass = 1", fillcolor="#399de59b"] ;
27 -> 35 ;
36 [label="embarked <= 1.5\ngini = 0.402\nsamples = 160\nvalue = [72, 186]\nclass = 1", fillcolor="#399de59c"] ;
35 -> 36 ;
37 [label="gini = 0.498\nsamples = 11\nvalue = [8, 9]\nclass = 1", fillcolor="#399de51c"] ;
36 -> 37 ;
38 [label="gini = 0.39\nsamples = 149\nvalue = [64, 177]\nclass = 1", fillcolor="#399de5a3"] ;
36 -> 38 ;
39 [label="gini = 0.0\nsamples = 1\nvalue = [1, 0]\nclass = 0", fillcolor="#e58139ff"] ;
35 -> 39 ;
40 [label="pclass <= 2.5\ngini = 0.463\nsamples = 10\nvalue = [7, 4]\nclass = 0", fillcolor="#e581396d"] ;
26 -> 40 ;
41 [label="gini = 0.0\nsamples = 3\nvalue = [0, 3]\nclass = 1", fillcolor="#399de5ff"] ;
40 -> 41 ;
42 [label="sibsp <= 3.5\ngini = 0.219\nsamples = 7\nvalue = [7, 1]\nclass = 0", fillcolor="#e58139db"] ;
40 -> 42 ;
43 [label="gini = 0.0\nsamples = 2\nvalue = [3, 0]\nclass = 0", fillcolor="#e58139ff"] ;
42 -> 43 ;
44 [label="sibsp <= 4.5\ngini = 0.32\nsamples = 5\nvalue = [4, 1]\nclass = 0", fillcolor="#e58139bf"] ;
42 -> 44 ;
45 [label="gini = 0.375\nsamples = 4\nvalue = [3, 1]\nclass = 0", fillcolor="#e58139aa"] ;
44 -> 45 ;
46 [label="gini = 0.0\nsamples = 1\nvalue = [1, 0]\nclass = 0", fillcolor="#e58139ff"] ;
44 -> 46 ;
{rank=same ; 0} ;
{rank=same ; 1; 26} ;
{rank=same ; 2; 17; 27; 40} ;
{rank=same ; 3; 10; 18; 28; 35; 42} ;
{rank=same ; 4; 7; 11; 14; 19; 22; 29; 32; 36; 44} ;
{rank=same ; 5; 6; 8; 9; 12; 13; 15; 16; 20; 21; 23; 24; 25; 30; 31; 33; 34; 37; 38; 39; 41; 43; 45; 46} ;
}