digraph Tree {
node [shape=box, style="filled", color="black"] ;
graph [ranksep=equally, splines=polyline] ;
0 [label="parch <= 0.5\ngini = 0.478\nsamples = 639\nvalue = [612, 401]\nclass = 0", fillcolor="#e5813958"] ;
1 [label="fare <= 50.987\ngini = 0.45\nsamples = 471\nvalue = [495, 257]\nclass = 0", fillcolor="#e581397b"] ;
0 -> 1 [labeldistance=2.5, labelangle=45, headlabel="True"] ;
2 [label="pclass <= 1.5\ngini = 0.403\nsamples = 397\nvalue = [456, 177]\nclass = 0", fillcolor="#e581399c"] ;
1 -> 2 ;
3 [label="fare <= 37.0\ngini = 0.484\nsamples = 56\nvalue = [63, 44]\nclass = 0", fillcolor="#e581394d"] ;
2 -> 3 ;
4 [label="embarked <= 1.0\ngini = 0.499\nsamples = 46\nvalue = [46, 42]\nclass = 0", fillcolor="#e5813916"] ;
3 -> 4 ;
5 [label="gini = 0.482\nsamples = 15\nvalue = [13, 19]\nclass = 1", fillcolor="#399de551"] ;
4 -> 5 ;
6 [label="gini = 0.484\nsamples = 31\nvalue = [33, 23]\nclass = 0", fillcolor="#e581394d"] ;
4 -> 6 ;
7 [label="embarked <= 1.0\ngini = 0.188\nsamples = 10\nvalue = [17, 2]\nclass = 0", fillcolor="#e58139e1"] ;
3 -> 7 ;
8 [label="gini = 0.48\nsamples = 4\nvalue = [3, 2]\nclass = 0", fillcolor="#e5813955"] ;
7 -> 8 ;
9 [label="gini = 0.0\nsamples = 6\nvalue = [14, 0]\nclass = 0", fillcolor="#e58139ff"] ;
7 -> 9 ;
10 [label="sex <= 0.5\ngini = 0.378\nsamples = 341\nvalue = [393, 133]\nclass = 0", fillcolor="#e58139a9"] ;
2 -> 10 ;
11 [label="fare <= 11.371\ngini = 0.246\nsamples = 250\nvalue = [339, 57]\nclass = 0", fillcolor="#e58139d4"] ;
10 -> 11 ;
12 [label="gini = 0.303\nsamples = 170\nvalue = [219, 50]\nclass = 0", fillcolor="#e58139c5"] ;
11 -> 12 ;
13 [label="gini = 0.104\nsamples = 80\nvalue = [120, 7]\nclass = 0", fillcolor="#e58139f0"] ;
11 -> 13 ;
14 [label="age <= 53.5\ngini = 0.486\nsamples = 91\nvalue = [54, 76]\nclass = 1", fillcolor="#399de54a"] ;
10 -> 14 ;
15 [label="gini = 0.479\nsamples = 89\nvalue = [50, 76]\nclass = 1", fillcolor="#399de557"] ;
14 -> 15 ;
16 [label="gini = 0.0\nsamples = 2\nvalue = [4, 0]\nclass = 0", fillcolor="#e58139ff"] ;
14 -> 16 ;
17 [label="pclass <= 1.5\ngini = 0.441\nsamples = 74\nvalue = [39, 80]\nclass = 1", fillcolor="#399de583"] ;
1 -> 17 ;
18 [label="age <= 35.5\ngini = 0.407\nsamples = 66\nvalue = [31, 78]\nclass = 1", fillcolor="#399de59a"] ;
17 -> 18 ;
19 [label="fare <= 67.95\ngini = 0.234\nsamples = 35\nvalue = [8, 51]\nclass = 1", fillcolor="#399de5d7"] ;
18 -> 19 ;
20 [label="gini = 0.388\nsamples = 10\nvalue = [5, 14]\nclass = 1", fillcolor="#399de5a4"] ;
19 -> 20 ;
21 [label="gini = 0.139\nsamples = 25\nvalue = [3, 37]\nclass = 1", fillcolor="#399de5ea"] ;
19 -> 21 ;
22 [label="sex <= 0.5\ngini = 0.497\nsamples = 31\nvalue = [23, 27]\nclass = 1", fillcolor="#399de526"] ;
18 -> 22 ;
23 [label="gini = 0.42\nsamples = 17\nvalue = [21, 9]\nclass = 0", fillcolor="#e5813992"] ;
22 -> 23 ;
24 [label="gini = 0.18\nsamples = 14\nvalue = [2, 18]\nclass = 1", fillcolor="#399de5e3"] ;
22 -> 24 ;
25 [label="sibsp <= 1.0\ngini = 0.32\nsamples = 8\nvalue = [8, 2]\nclass = 0", fillcolor="#e58139bf"] ;
17 -> 25 ;
26 [label="fare <= 64.998\ngini = 0.375\nsamples = 6\nvalue = [6, 2]\nclass = 0", fillcolor="#e58139aa"] ;
25 -> 26 ;
27 [label="gini = 0.48\nsamples = 3\nvalue = [3, 2]\nclass = 0", fillcolor="#e5813955"] ;
26 -> 27 ;
28 [label="gini = 0.0\nsamples = 3\nvalue = [3, 0]\nclass = 0", fillcolor="#e58139ff"] ;
26 -> 28 ;
29 [label="gini = 0.0\nsamples = 2\nvalue = [2, 0]\nclass = 0", fillcolor="#e58139ff"] ;
25 -> 29 ;
30 [label="pclass <= 2.5\ngini = 0.495\nsamples = 168\nvalue = [117, 144]\nclass = 1", fillcolor="#399de530"] ;
0 -> 30 [labeldistance=2.5, labelangle=-45, headlabel="False"] ;
31 [label="sibsp <= 2.5\ngini = 0.316\nsamples = 78\nvalue = [22, 90]\nclass = 1", fillcolor="#399de5c1"] ;
30 -> 31 ;
32 [label="parch <= 3.5\ngini = 0.302\nsamples = 75\nvalue = [20, 88]\nclass = 1", fillcolor="#399de5c5"] ;
31 -> 32 ;
33 [label="sex <= 0.5\ngini = 0.292\nsamples = 74\nvalue = [19, 88]\nclass = 1", fillcolor="#399de5c8"] ;
32 -> 33 ;
34 [label="gini = 0.5\nsamples = 26\nvalue = [17, 18]\nclass = 1", fillcolor="#399de50e"] ;
33 -> 34 ;
35 [label="gini = 0.054\nsamples = 48\nvalue = [2, 70]\nclass = 1", fillcolor="#399de5f8"] ;
33 -> 35 ;
36 [label="gini = 0.0\nsamples = 1\nvalue = [1, 0]\nclass = 0", fillcolor="#e58139ff"] ;
32 -> 36 ;
37 [label="sex <= 0.5\ngini = 0.5\nsamples = 3\nvalue = [2, 2]\nclass = 0", fillcolor="#e5813900"] ;
31 -> 37 ;
38 [label="gini = 0.0\nsamples = 1\nvalue = [2, 0]\nclass = 0", fillcolor="#e58139ff"] ;
37 -> 38 ;
39 [label="gini = 0.0\nsamples = 2\nvalue = [0, 2]\nclass = 1", fillcolor="#399de5ff"] ;
37 -> 39 ;
40 [label="sex <= 0.5\ngini = 0.462\nsamples = 90\nvalue = [95, 54]\nclass = 0", fillcolor="#e581396e"] ;
30 -> 40 ;
41 [label="sibsp <= 1.5\ngini = 0.299\nsamples = 47\nvalue = [67, 15]\nclass = 0", fillcolor="#e58139c6"] ;
40 -> 41 ;
42 [label="fare <= 16.0\ngini = 0.444\nsamples = 25\nvalue = [28, 14]\nclass = 0", fillcolor="#e581397f"] ;
41 -> 42 ;
43 [label="gini = 0.49\nsamples = 14\nvalue = [9, 12]\nclass = 1", fillcolor="#399de540"] ;
42 -> 43 ;
44 [label="gini = 0.172\nsamples = 11\nvalue = [19, 2]\nclass = 0", fillcolor="#e58139e4"] ;
42 -> 44 ;
45 [label="fare <= 32.881\ngini = 0.049\nsamples = 22\nvalue = [39, 1]\nclass = 0", fillcolor="#e58139f8"] ;
41 -> 45 ;
46 [label="gini = 0.1\nsamples = 11\nvalue = [18, 1]\nclass = 0", fillcolor="#e58139f1"] ;
45 -> 46 ;
47 [label="gini = 0.0\nsamples = 11\nvalue = [21, 0]\nclass = 0", fillcolor="#e58139ff"] ;
45 -> 47 ;
48 [label="sibsp <= 2.5\ngini = 0.487\nsamples = 43\nvalue = [28, 39]\nclass = 1", fillcolor="#399de548"] ;
40 -> 48 ;
49 [label="parch <= 4.0\ngini = 0.462\nsamples = 35\nvalue = [21, 37]\nclass = 1", fillcolor="#399de56e"] ;
48 -> 49 ;
50 [label="gini = 0.456\nsamples = 34\nvalue = [20, 37]\nclass = 1", fillcolor="#399de575"] ;
49 -> 50 ;
51 [label="gini = 0.0\nsamples = 1\nvalue = [1, 0]\nclass = 0", fillcolor="#e58139ff"] ;
49 -> 51 ;
52 [label="age <= 16.5\ngini = 0.346\nsamples = 8\nvalue = [7, 2]\nclass = 0", fillcolor="#e58139b6"] ;
48 -> 52 ;
53 [label="gini = 0.219\nsamples = 7\nvalue = [7, 1]\nclass = 0", fillcolor="#e58139db"] ;
52 -> 53 ;
54 [label="gini = 0.0\nsamples = 1\nvalue = [0, 1]\nclass = 1", fillcolor="#399de5ff"] ;
52 -> 54 ;
{rank=same ; 0} ;
{rank=same ; 1; 30} ;
{rank=same ; 2; 17; 31; 40} ;
{rank=same ; 3; 10; 18; 25; 32; 37; 41; 48} ;
{rank=same ; 4; 7; 11; 14; 19; 22; 26; 33; 42; 45; 49; 52} ;
{rank=same ; 5; 6; 8; 9; 12; 13; 15; 16; 20; 21; 23; 24; 27; 28; 29; 34; 35; 36; 38; 39; 43; 44; 46; 47; 50; 51; 53; 54} ;
}