digraph Tree {
node [shape=box, style="filled", color="black"] ;
graph [ranksep=equally, splines=polyline] ;
0 [label="pclass <= 2.5\ngini = 0.479\nsamples = 622\nvalue = [610, 403]\nclass = 0", fillcolor="#e5813957"] ;
1 [label="sex <= 0.5\ngini = 0.499\nsamples = 329\nvalue = [253, 281]\nclass = 1", fillcolor="#399de519"] ;
0 -> 1 [labeldistance=2.5, labelangle=45, headlabel="True"] ;
2 [label="age <= 13.5\ngini = 0.35\nsamples = 188\nvalue = [239, 70]\nclass = 0", fillcolor="#e58139b4"] ;
1 -> 2 ;
3 [label="gini = 0.0\nsamples = 6\nvalue = [0, 13]\nclass = 1", fillcolor="#399de5ff"] ;
2 -> 3 ;
4 [label="pclass <= 1.5\ngini = 0.311\nsamples = 182\nvalue = [239, 57]\nclass = 0", fillcolor="#e58139c2"] ;
2 -> 4 ;
5 [label="age <= 53.5\ngini = 0.429\nsamples = 86\nvalue = [97, 44]\nclass = 0", fillcolor="#e581398b"] ;
4 -> 5 ;
6 [label="gini = 0.485\nsamples = 65\nvalue = [61, 43]\nclass = 0", fillcolor="#e581394b"] ;
5 -> 6 ;
7 [label="gini = 0.053\nsamples = 21\nvalue = [36, 1]\nclass = 0", fillcolor="#e58139f8"] ;
5 -> 7 ;
8 [label="embarked <= 0.5\ngini = 0.154\nsamples = 96\nvalue = [142, 13]\nclass = 0", fillcolor="#e58139e8"] ;
4 -> 8 ;
9 [label="gini = 0.408\nsamples = 9\nvalue = [10, 4]\nclass = 0", fillcolor="#e5813999"] ;
8 -> 9 ;
10 [label="gini = 0.12\nsamples = 87\nvalue = [132, 9]\nclass = 0", fillcolor="#e58139ee"] ;
8 -> 10 ;
11 [label="fare <= 13.25\ngini = 0.117\nsamples = 141\nvalue = [14, 211]\nclass = 1", fillcolor="#399de5ee"] ;
1 -> 11 ;
12 [label="embarked <= 1.5\ngini = 0.375\nsamples = 16\nvalue = [6, 18]\nclass = 1", fillcolor="#399de5aa"] ;
11 -> 12 ;
13 [label="gini = 0.0\nsamples = 2\nvalue = [0, 4]\nclass = 1", fillcolor="#399de5ff"] ;
12 -> 13 ;
14 [label="sibsp <= 0.5\ngini = 0.42\nsamples = 14\nvalue = [6, 14]\nclass = 1", fillcolor="#399de592"] ;
12 -> 14 ;
15 [label="gini = 0.346\nsamples = 13\nvalue = [4, 14]\nclass = 1", fillcolor="#399de5b6"] ;
14 -> 15 ;
16 [label="gini = 0.0\nsamples = 1\nvalue = [2, 0]\nclass = 0", fillcolor="#e58139ff"] ;
14 -> 16 ;
17 [label="age <= 61.5\ngini = 0.076\nsamples = 125\nvalue = [8, 193]\nclass = 1", fillcolor="#399de5f4"] ;
11 -> 17 ;
18 [label="sibsp <= 1.5\ngini = 0.069\nsamples = 122\nvalue = [7, 189]\nclass = 1", fillcolor="#399de5f6"] ;
17 -> 18 ;
19 [label="gini = 0.074\nsamples = 113\nvalue = [7, 176]\nclass = 1", fillcolor="#399de5f5"] ;
18 -> 19 ;
20 [label="gini = 0.0\nsamples = 9\nvalue = [0, 13]\nclass = 1", fillcolor="#399de5ff"] ;
18 -> 20 ;
21 [label="parch <= 0.5\ngini = 0.32\nsamples = 3\nvalue = [1, 4]\nclass = 1", fillcolor="#399de5bf"] ;
17 -> 21 ;
22 [label="gini = 0.375\nsamples = 2\nvalue = [1, 3]\nclass = 1", fillcolor="#399de5aa"] ;
21 -> 22 ;
23 [label="gini = 0.0\nsamples = 1\nvalue = [0, 1]\nclass = 1", fillcolor="#399de5ff"] ;
21 -> 23 ;
24 [label="age <= 9.5\ngini = 0.38\nsamples = 293\nvalue = [357, 122]\nclass = 0", fillcolor="#e58139a8"] ;
0 -> 24 [labeldistance=2.5, labelangle=-45, headlabel="False"] ;
25 [label="fare <= 20.825\ngini = 0.5\nsamples = 33\nvalue = [30, 30]\nclass = 0", fillcolor="#e5813900"] ;
24 -> 25 ;
26 [label="sibsp <= 1.5\ngini = 0.405\nsamples = 20\nvalue = [11, 28]\nclass = 1", fillcolor="#399de59b"] ;
25 -> 26 ;
27 [label="fare <= 15.494\ngini = 0.451\nsamples = 18\nvalue = [11, 21]\nclass = 1", fillcolor="#399de579"] ;
26 -> 27 ;
28 [label="gini = 0.499\nsamples = 12\nvalue = [9, 10]\nclass = 1", fillcolor="#399de519"] ;
27 -> 28 ;
29 [label="gini = 0.26\nsamples = 6\nvalue = [2, 11]\nclass = 1", fillcolor="#399de5d1"] ;
27 -> 29 ;
30 [label="gini = 0.0\nsamples = 2\nvalue = [0, 7]\nclass = 1", fillcolor="#399de5ff"] ;
26 -> 30 ;
31 [label="parch <= 1.5\ngini = 0.172\nsamples = 13\nvalue = [19, 2]\nclass = 0", fillcolor="#e58139e4"] ;
25 -> 31 ;
32 [label="gini = 0.0\nsamples = 2\nvalue = [6, 0]\nclass = 0", fillcolor="#e58139ff"] ;
31 -> 32 ;
33 [label="age <= 4.5\ngini = 0.231\nsamples = 11\nvalue = [13, 2]\nclass = 0", fillcolor="#e58139d8"] ;
31 -> 33 ;
34 [label="gini = 0.346\nsamples = 7\nvalue = [7, 2]\nclass = 0", fillcolor="#e58139b6"] ;
33 -> 34 ;
35 [label="gini = 0.0\nsamples = 4\nvalue = [6, 0]\nclass = 0", fillcolor="#e58139ff"] ;
33 -> 35 ;
36 [label="sex <= 0.5\ngini = 0.343\nsamples = 260\nvalue = [327, 92]\nclass = 0", fillcolor="#e58139b7"] ;
24 -> 36 ;
37 [label="parch <= 1.5\ngini = 0.235\nsamples = 192\nvalue = [267, 42]\nclass = 0", fillcolor="#e58139d7"] ;
36 -> 37 ;
38 [label="embarked <= 1.5\ngini = 0.251\nsamples = 181\nvalue = [243, 42]\nclass = 0", fillcolor="#e58139d3"] ;
37 -> 38 ;
39 [label="gini = 0.375\nsamples = 29\nvalue = [33, 11]\nclass = 0", fillcolor="#e58139aa"] ;
38 -> 39 ;
40 [label="gini = 0.224\nsamples = 152\nvalue = [210, 31]\nclass = 0", fillcolor="#e58139d9"] ;
38 -> 40 ;
41 [label="gini = 0.0\nsamples = 11\nvalue = [24, 0]\nclass = 0", fillcolor="#e58139ff"] ;
37 -> 41 ;
42 [label="age <= 38.5\ngini = 0.496\nsamples = 68\nvalue = [60, 50]\nclass = 0", fillcolor="#e581392a"] ;
36 -> 42 ;
43 [label="fare <= 32.881\ngini = 0.5\nsamples = 61\nvalue = [49, 49]\nclass = 0", fillcolor="#e5813900"] ;
42 -> 43 ;
44 [label="gini = 0.496\nsamples = 57\nvalue = [41, 49]\nclass = 1", fillcolor="#399de52a"] ;
43 -> 44 ;
45 [label="gini = 0.0\nsamples = 4\nvalue = [8, 0]\nclass = 0", fillcolor="#e58139ff"] ;
43 -> 45 ;
46 [label="parch <= 1.0\ngini = 0.153\nsamples = 7\nvalue = [11, 1]\nclass = 0", fillcolor="#e58139e8"] ;
42 -> 46 ;
47 [label="gini = 0.0\nsamples = 1\nvalue = [0, 1]\nclass = 1", fillcolor="#399de5ff"] ;
46 -> 47 ;
48 [label="gini = 0.0\nsamples = 6\nvalue = [11, 0]\nclass = 0", fillcolor="#e58139ff"] ;
46 -> 48 ;
{rank=same ; 0} ;
{rank=same ; 1; 24} ;
{rank=same ; 2; 11; 25; 36} ;
{rank=same ; 4; 12; 17; 26; 31; 37; 42} ;
{rank=same ; 5; 8; 14; 18; 21; 27; 33; 38; 43; 46} ;
{rank=same ; 3; 6; 7; 9; 10; 13; 15; 16; 19; 20; 22; 23; 28; 29; 30; 32; 34; 35; 39; 40; 41; 44; 45; 47; 48} ;
}