digraph Tree {
node [shape=box, style="filled", color="black"] ;
graph [ranksep=equally, splines=polyline] ;
0 [label="embarked <= 0.5\ngini = 0.487\nsamples = 639\nvalue = [589, 424]\nclass = 0", fillcolor="#e5813947"] ;
1 [label="fare <= 30.285\ngini = 0.449\nsamples = 123\nvalue = [64, 124]\nclass = 1", fillcolor="#399de57b"] ;
0 -> 1 [labeldistance=2.5, labelangle=45, headlabel="True"] ;
2 [label="sex <= 0.5\ngini = 0.499\nsamples = 58\nvalue = [43, 46]\nclass = 1", fillcolor="#399de511"] ;
1 -> 2 ;
3 [label="fare <= 29.1\ngini = 0.455\nsamples = 38\nvalue = [39, 21]\nclass = 0", fillcolor="#e5813976"] ;
2 -> 3 ;
4 [label="pclass <= 1.5\ngini = 0.478\nsamples = 34\nvalue = [32, 21]\nclass = 0", fillcolor="#e5813958"] ;
3 -> 4 ;
5 [label="gini = 0.49\nsamples = 4\nvalue = [3, 4]\nclass = 1", fillcolor="#399de540"] ;
4 -> 5 ;
6 [label="gini = 0.466\nsamples = 30\nvalue = [29, 17]\nclass = 0", fillcolor="#e581396a"] ;
4 -> 6 ;
7 [label="gini = 0.0\nsamples = 4\nvalue = [7, 0]\nclass = 0", fillcolor="#e58139ff"] ;
3 -> 7 ;
8 [label="sibsp <= 1.5\ngini = 0.238\nsamples = 20\nvalue = [4, 25]\nclass = 1", fillcolor="#399de5d6"] ;
2 -> 8 ;
9 [label="fare <= 14.156\ngini = 0.245\nsamples = 19\nvalue = [4, 24]\nclass = 1", fillcolor="#399de5d4"] ;
8 -> 9 ;
10 [label="gini = 0.0\nsamples = 7\nvalue = [0, 14]\nclass = 1", fillcolor="#399de5ff"] ;
9 -> 10 ;
11 [label="gini = 0.408\nsamples = 12\nvalue = [4, 10]\nclass = 1", fillcolor="#399de599"] ;
9 -> 11 ;
12 [label="gini = 0.0\nsamples = 1\nvalue = [0, 1]\nclass = 1", fillcolor="#399de5ff"] ;
8 -> 12 ;
13 [label="parch <= 0.5\ngini = 0.334\nsamples = 65\nvalue = [21, 78]\nclass = 1", fillcolor="#399de5ba"] ;
1 -> 13 ;
14 [label="sex <= 0.5\ngini = 0.395\nsamples = 40\nvalue = [16, 43]\nclass = 1", fillcolor="#399de5a0"] ;
13 -> 14 ;
15 [label="sibsp <= 0.5\ngini = 0.497\nsamples = 19\nvalue = [15, 13]\nclass = 0", fillcolor="#e5813922"] ;
14 -> 15 ;
16 [label="gini = 0.459\nsamples = 10\nvalue = [9, 5]\nclass = 0", fillcolor="#e5813971"] ;
15 -> 16 ;
17 [label="gini = 0.49\nsamples = 9\nvalue = [6, 8]\nclass = 1", fillcolor="#399de540"] ;
15 -> 17 ;
18 [label="age <= 35.5\ngini = 0.062\nsamples = 21\nvalue = [1, 30]\nclass = 1", fillcolor="#399de5f6"] ;
14 -> 18 ;
19 [label="gini = 0.0\nsamples = 9\nvalue = [0, 16]\nclass = 1", fillcolor="#399de5ff"] ;
18 -> 19 ;
20 [label="gini = 0.124\nsamples = 12\nvalue = [1, 14]\nclass = 1", fillcolor="#399de5ed"] ;
18 -> 20 ;
21 [label="age <= 59.5\ngini = 0.219\nsamples = 25\nvalue = [5, 35]\nclass = 1", fillcolor="#399de5db"] ;
13 -> 21 ;
22 [label="fare <= 173.0\ngini = 0.184\nsamples = 24\nvalue = [4, 35]\nclass = 1", fillcolor="#399de5e2"] ;
21 -> 22 ;
23 [label="gini = 0.0\nsamples = 13\nvalue = [0, 22]\nclass = 1", fillcolor="#399de5ff"] ;
22 -> 23 ;
24 [label="gini = 0.36\nsamples = 11\nvalue = [4, 13]\nclass = 1", fillcolor="#399de5b1"] ;
22 -> 24 ;
25 [label="gini = 0.0\nsamples = 1\nvalue = [1, 0]\nclass = 0", fillcolor="#e58139ff"] ;
21 -> 25 ;
26 [label="pclass <= 2.5\ngini = 0.463\nsamples = 516\nvalue = [525, 300]\nclass = 0", fillcolor="#e581396d"] ;
0 -> 26 [labeldistance=2.5, labelangle=-45, headlabel="False"] ;
27 [label="sex <= 0.5\ngini = 0.5\nsamples = 234\nvalue = [194, 190]\nclass = 0", fillcolor="#e5813905"] ;
26 -> 27 ;
28 [label="age <= 13.5\ngini = 0.309\nsamples = 137\nvalue = [178, 42]\nclass = 0", fillcolor="#e58139c3"] ;
27 -> 28 ;
29 [label="gini = 0.0\nsamples = 5\nvalue = [0, 6]\nclass = 1", fillcolor="#399de5ff"] ;
28 -> 29 ;
30 [label="pclass <= 1.5\ngini = 0.28\nsamples = 132\nvalue = [178, 36]\nclass = 0", fillcolor="#e58139cb"] ;
28 -> 30 ;
31 [label="gini = 0.427\nsamples = 55\nvalue = [67, 30]\nclass = 0", fillcolor="#e581398d"] ;
30 -> 31 ;
32 [label="gini = 0.097\nsamples = 77\nvalue = [111, 6]\nclass = 0", fillcolor="#e58139f1"] ;
30 -> 32 ;
33 [label="fare <= 26.125\ngini = 0.176\nsamples = 97\nvalue = [16, 148]\nclass = 1", fillcolor="#399de5e3"] ;
27 -> 33 ;
34 [label="fare <= 12.825\ngini = 0.317\nsamples = 40\nvalue = [14, 57]\nclass = 1", fillcolor="#399de5c0"] ;
33 -> 34 ;
35 [label="gini = 0.133\nsamples = 7\nvalue = [1, 13]\nclass = 1", fillcolor="#399de5eb"] ;
34 -> 35 ;
36 [label="gini = 0.352\nsamples = 33\nvalue = [13, 44]\nclass = 1", fillcolor="#399de5b4"] ;
34 -> 36 ;
37 [label="pclass <= 1.5\ngini = 0.042\nsamples = 57\nvalue = [2, 91]\nclass = 1", fillcolor="#399de5f9"] ;
33 -> 37 ;
38 [label="gini = 0.058\nsamples = 40\nvalue = [2, 65]\nclass = 1", fillcolor="#399de5f7"] ;
37 -> 38 ;
39 [label="gini = 0.0\nsamples = 17\nvalue = [0, 26]\nclass = 1", fillcolor="#399de5ff"] ;
37 -> 39 ;
40 [label="parch <= 1.5\ngini = 0.374\nsamples = 282\nvalue = [331, 110]\nclass = 0", fillcolor="#e58139aa"] ;
26 -> 40 ;
41 [label="parch <= 0.5\ngini = 0.397\nsamples = 243\nvalue = [274, 103]\nclass = 0", fillcolor="#e581399f"] ;
40 -> 41 ;
42 [label="fare <= 40.323\ngini = 0.383\nsamples = 207\nvalue = [236, 82]\nclass = 0", fillcolor="#e58139a6"] ;
41 -> 42 ;
43 [label="gini = 0.377\nsamples = 204\nvalue = [234, 79]\nclass = 0", fillcolor="#e58139a9"] ;
42 -> 43 ;
44 [label="gini = 0.48\nsamples = 3\nvalue = [2, 3]\nclass = 1", fillcolor="#399de555"] ;
42 -> 44 ;
45 [label="embarked <= 1.5\ngini = 0.458\nsamples = 36\nvalue = [38, 21]\nclass = 0", fillcolor="#e5813972"] ;
41 -> 45 ;
46 [label="gini = 0.0\nsamples = 3\nvalue = [6, 0]\nclass = 0", fillcolor="#e58139ff"] ;
45 -> 46 ;
47 [label="gini = 0.478\nsamples = 33\nvalue = [32, 21]\nclass = 0", fillcolor="#e5813958"] ;
45 -> 47 ;
48 [label="parch <= 5.5\ngini = 0.195\nsamples = 39\nvalue = [57, 7]\nclass = 0", fillcolor="#e58139e0"] ;
40 -> 48 ;
49 [label="sibsp <= 1.5\ngini = 0.203\nsamples = 38\nvalue = [54, 7]\nclass = 0", fillcolor="#e58139de"] ;
48 -> 49 ;
50 [label="gini = 0.33\nsamples = 19\nvalue = [19, 5]\nclass = 0", fillcolor="#e58139bc"] ;
49 -> 50 ;
51 [label="gini = 0.102\nsamples = 19\nvalue = [35, 2]\nclass = 0", fillcolor="#e58139f0"] ;
49 -> 51 ;
52 [label="gini = 0.0\nsamples = 1\nvalue = [3, 0]\nclass = 0", fillcolor="#e58139ff"] ;
48 -> 52 ;
{rank=same ; 0} ;
{rank=same ; 1; 26} ;
{rank=same ; 2; 13; 27; 40} ;
{rank=same ; 3; 8; 14; 21; 28; 33; 41; 48} ;
{rank=same ; 4; 9; 15; 18; 22; 30; 34; 37; 42; 45; 49} ;
{rank=same ; 5; 6; 7; 10; 11; 12; 16; 17; 19; 20; 23; 24; 25; 29; 31; 32; 35; 36; 38; 39; 43; 44; 46; 47; 50; 51; 52} ;
}