digraph Tree {
node [shape=box, style="filled", color="black"] ;
graph [ranksep=equally, splines=polyline] ;
0 [label="pclass <= 1.5\ngini = 0.472\nsamples = 651\nvalue = [627, 386]\nclass = 0", fillcolor="#e5813962"] ;
1 [label="sex <= 0.5\ngini = 0.459\nsamples = 166\nvalue = [93, 167]\nclass = 1", fillcolor="#399de571"] ;
0 -> 1 [labeldistance=2.5, labelangle=45, headlabel="True"] ;
2 [label="parch <= 1.5\ngini = 0.457\nsamples = 89\nvalue = [86, 47]\nclass = 0", fillcolor="#e5813974"] ;
1 -> 2 ;
3 [label="age <= 53.5\ngini = 0.443\nsamples = 85\nvalue = [85, 42]\nclass = 0", fillcolor="#e5813981"] ;
2 -> 3 ;
4 [label="sibsp <= 0.5\ngini = 0.473\nsamples = 70\nvalue = [61, 38]\nclass = 0", fillcolor="#e5813960"] ;
3 -> 4 ;
5 [label="gini = 0.421\nsamples = 46\nvalue = [44, 19]\nclass = 0", fillcolor="#e5813991"] ;
4 -> 5 ;
6 [label="gini = 0.498\nsamples = 24\nvalue = [17, 19]\nclass = 1", fillcolor="#399de51b"] ;
4 -> 6 ;
7 [label="sibsp <= 0.5\ngini = 0.245\nsamples = 15\nvalue = [24, 4]\nclass = 0", fillcolor="#e58139d4"] ;
3 -> 7 ;
8 [label="gini = 0.208\nsamples = 8\nvalue = [15, 2]\nclass = 0", fillcolor="#e58139dd"] ;
7 -> 8 ;
9 [label="gini = 0.298\nsamples = 7\nvalue = [9, 2]\nclass = 0", fillcolor="#e58139c6"] ;
7 -> 9 ;
10 [label="age <= 37.5\ngini = 0.278\nsamples = 4\nvalue = [1, 5]\nclass = 1", fillcolor="#399de5cc"] ;
2 -> 10 ;
11 [label="gini = 0.0\nsamples = 3\nvalue = [0, 5]\nclass = 1", fillcolor="#399de5ff"] ;
10 -> 11 ;
12 [label="gini = 0.0\nsamples = 1\nvalue = [1, 0]\nclass = 0", fillcolor="#e58139ff"] ;
10 -> 12 ;
13 [label="age <= 61.5\ngini = 0.104\nsamples = 77\nvalue = [7, 120]\nclass = 1", fillcolor="#399de5f0"] ;
1 -> 13 ;
14 [label="sibsp <= 0.5\ngini = 0.079\nsamples = 74\nvalue = [5, 116]\nclass = 1", fillcolor="#399de5f4"] ;
13 -> 14 ;
15 [label="embarked <= 1.0\ngini = 0.142\nsamples = 37\nvalue = [5, 60]\nclass = 1", fillcolor="#399de5ea"] ;
14 -> 15 ;
16 [label="gini = 0.257\nsamples = 22\nvalue = [5, 28]\nclass = 1", fillcolor="#399de5d1"] ;
15 -> 16 ;
17 [label="gini = 0.0\nsamples = 15\nvalue = [0, 32]\nclass = 1", fillcolor="#399de5ff"] ;
15 -> 17 ;
18 [label="gini = 0.0\nsamples = 37\nvalue = [0, 56]\nclass = 1", fillcolor="#399de5ff"] ;
14 -> 18 ;
19 [label="fare <= 152.469\ngini = 0.444\nsamples = 3\nvalue = [2, 4]\nclass = 1", fillcolor="#399de57f"] ;
13 -> 19 ;
20 [label="gini = 0.0\nsamples = 2\nvalue = [0, 4]\nclass = 1", fillcolor="#399de5ff"] ;
19 -> 20 ;
21 [label="gini = 0.0\nsamples = 1\nvalue = [2, 0]\nclass = 0", fillcolor="#e58139ff"] ;
19 -> 21 ;
22 [label="parch <= 0.5\ngini = 0.413\nsamples = 485\nvalue = [534, 219]\nclass = 0", fillcolor="#e5813996"] ;
0 -> 22 [labeldistance=2.5, labelangle=-45, headlabel="False"] ;
23 [label="embarked <= 0.5\ngini = 0.337\nsamples = 361\nvalue = [447, 122]\nclass = 0", fillcolor="#e58139b9"] ;
22 -> 23 ;
24 [label="age <= 39.0\ngini = 0.42\nsamples = 36\nvalue = [42, 18]\nclass = 0", fillcolor="#e5813992"] ;
23 -> 24 ;
25 [label="pclass <= 2.5\ngini = 0.44\nsamples = 33\nvalue = [37, 18]\nclass = 0", fillcolor="#e5813983"] ;
24 -> 25 ;
26 [label="gini = 0.499\nsamples = 12\nvalue = [11, 10]\nclass = 0", fillcolor="#e5813917"] ;
25 -> 26 ;
27 [label="gini = 0.36\nsamples = 21\nvalue = [26, 8]\nclass = 0", fillcolor="#e58139b1"] ;
25 -> 27 ;
28 [label="gini = 0.0\nsamples = 3\nvalue = [5, 0]\nclass = 0", fillcolor="#e58139ff"] ;
24 -> 28 ;
29 [label="embarked <= 1.5\ngini = 0.325\nsamples = 325\nvalue = [405, 104]\nclass = 0", fillcolor="#e58139be"] ;
23 -> 29 ;
30 [label="fare <= 7.825\ngini = 0.18\nsamples = 24\nvalue = [36, 4]\nclass = 0", fillcolor="#e58139e3"] ;
29 -> 30 ;
31 [label="gini = 0.252\nsamples = 18\nvalue = [23, 4]\nclass = 0", fillcolor="#e58139d3"] ;
30 -> 31 ;
32 [label="gini = 0.0\nsamples = 6\nvalue = [13, 0]\nclass = 0", fillcolor="#e58139ff"] ;
30 -> 32 ;
33 [label="sex <= 0.5\ngini = 0.336\nsamples = 301\nvalue = [369, 100]\nclass = 0", fillcolor="#e58139ba"] ;
29 -> 33 ;
34 [label="gini = 0.199\nsamples = 234\nvalue = [325, 41]\nclass = 0", fillcolor="#e58139df"] ;
33 -> 34 ;
35 [label="gini = 0.489\nsamples = 67\nvalue = [44, 59]\nclass = 1", fillcolor="#399de541"] ;
33 -> 35 ;
36 [label="fare <= 27.825\ngini = 0.499\nsamples = 124\nvalue = [87, 97]\nclass = 1", fillcolor="#399de51a"] ;
22 -> 36 ;
37 [label="fare <= 15.621\ngini = 0.458\nsamples = 77\nvalue = [42, 76]\nclass = 1", fillcolor="#399de572"] ;
36 -> 37 ;
38 [label="pclass <= 2.5\ngini = 0.499\nsamples = 33\nvalue = [26, 29]\nclass = 1", fillcolor="#399de51a"] ;
37 -> 38 ;
39 [label="gini = 0.0\nsamples = 2\nvalue = [0, 4]\nclass = 1", fillcolor="#399de5ff"] ;
38 -> 39 ;
40 [label="gini = 0.5\nsamples = 31\nvalue = [26, 25]\nclass = 0", fillcolor="#e581390a"] ;
38 -> 40 ;
41 [label="fare <= 19.735\ngini = 0.379\nsamples = 44\nvalue = [16, 47]\nclass = 1", fillcolor="#399de5a8"] ;
37 -> 41 ;
42 [label="gini = 0.0\nsamples = 12\nvalue = [0, 15]\nclass = 1", fillcolor="#399de5ff"] ;
41 -> 42 ;
43 [label="gini = 0.444\nsamples = 32\nvalue = [16, 32]\nclass = 1", fillcolor="#399de57f"] ;
41 -> 43 ;
44 [label="parch <= 1.5\ngini = 0.434\nsamples = 47\nvalue = [45, 21]\nclass = 0", fillcolor="#e5813988"] ;
36 -> 44 ;
45 [label="pclass <= 2.5\ngini = 0.5\nsamples = 13\nvalue = [9, 9]\nclass = 0", fillcolor="#e5813900"] ;
44 -> 45 ;
46 [label="gini = 0.375\nsamples = 10\nvalue = [3, 9]\nclass = 1", fillcolor="#399de5aa"] ;
45 -> 46 ;
47 [label="gini = 0.0\nsamples = 3\nvalue = [6, 0]\nclass = 0", fillcolor="#e58139ff"] ;
45 -> 47 ;
48 [label="embarked <= 0.5\ngini = 0.375\nsamples = 34\nvalue = [36, 12]\nclass = 0", fillcolor="#e58139aa"] ;
44 -> 48 ;
49 [label="gini = 0.444\nsamples = 3\nvalue = [1, 2]\nclass = 1", fillcolor="#399de57f"] ;
48 -> 49 ;
50 [label="gini = 0.346\nsamples = 31\nvalue = [35, 10]\nclass = 0", fillcolor="#e58139b6"] ;
48 -> 50 ;
{rank=same ; 0} ;
{rank=same ; 1; 22} ;
{rank=same ; 2; 13; 23; 36} ;
{rank=same ; 3; 10; 14; 19; 24; 29; 37; 44} ;
{rank=same ; 4; 7; 15; 25; 30; 33; 38; 41; 45; 48} ;
{rank=same ; 5; 6; 8; 9; 11; 12; 16; 17; 18; 20; 21; 26; 27; 28; 31; 32; 34; 35; 39; 40; 42; 43; 46; 47; 49; 50} ;
}