digraph Tree {
node [shape=box, style="filled", color="black"] ;
graph [ranksep=equally, splines=polyline] ;
0 [label="sex <= 0.5\ngini = 0.488\nsamples = 626\nvalue = [584, 429]\nclass = 0", fillcolor="#e5813944"] ;
1 [label="embarked <= 0.5\ngini = 0.37\nsamples = 391\nvalue = [483, 157]\nclass = 0", fillcolor="#e58139ac"] ;
0 -> 1 [labeldistance=2.5, labelangle=45, headlabel="True"] ;
2 [label="fare <= 7.562\ngini = 0.479\nsamples = 76\nvalue = [76, 50]\nclass = 0", fillcolor="#e5813957"] ;
1 -> 2 ;
3 [label="parch <= 0.5\ngini = 0.219\nsamples = 13\nvalue = [21, 3]\nclass = 0", fillcolor="#e58139db"] ;
2 -> 3 ;
4 [label="age <= 26.75\ngini = 0.227\nsamples = 12\nvalue = [20, 3]\nclass = 0", fillcolor="#e58139d9"] ;
3 -> 4 ;
5 [label="gini = 0.355\nsamples = 7\nvalue = [10, 3]\nclass = 0", fillcolor="#e58139b3"] ;
4 -> 5 ;
6 [label="gini = 0.0\nsamples = 5\nvalue = [10, 0]\nclass = 0", fillcolor="#e58139ff"] ;
4 -> 6 ;
7 [label="gini = 0.0\nsamples = 1\nvalue = [1, 0]\nclass = 0", fillcolor="#e58139ff"] ;
3 -> 7 ;
8 [label="fare <= 254.948\ngini = 0.497\nsamples = 63\nvalue = [55, 47]\nclass = 0", fillcolor="#e5813925"] ;
2 -> 8 ;
9 [label="age <= 21.0\ngini = 0.491\nsamples = 60\nvalue = [55, 42]\nclass = 0", fillcolor="#e581393c"] ;
8 -> 9 ;
10 [label="gini = 0.26\nsamples = 9\nvalue = [2, 11]\nclass = 1", fillcolor="#399de5d1"] ;
9 -> 10 ;
11 [label="gini = 0.466\nsamples = 51\nvalue = [53, 31]\nclass = 0", fillcolor="#e581396a"] ;
9 -> 11 ;
12 [label="gini = 0.0\nsamples = 3\nvalue = [0, 5]\nclass = 1", fillcolor="#399de5ff"] ;
8 -> 12 ;
13 [label="pclass <= 1.5\ngini = 0.33\nsamples = 315\nvalue = [407, 107]\nclass = 0", fillcolor="#e58139bc"] ;
1 -> 13 ;
14 [label="parch <= 3.0\ngini = 0.459\nsamples = 48\nvalue = [47, 26]\nclass = 0", fillcolor="#e5813972"] ;
13 -> 14 ;
15 [label="embarked <= 1.5\ngini = 0.461\nsamples = 47\nvalue = [46, 26]\nclass = 0", fillcolor="#e581396f"] ;
14 -> 15 ;
16 [label="gini = 0.0\nsamples = 1\nvalue = [2, 0]\nclass = 0", fillcolor="#e58139ff"] ;
15 -> 16 ;
17 [label="gini = 0.467\nsamples = 46\nvalue = [44, 26]\nclass = 0", fillcolor="#e5813968"] ;
15 -> 17 ;
18 [label="gini = 0.0\nsamples = 1\nvalue = [1, 0]\nclass = 0", fillcolor="#e58139ff"] ;
14 -> 18 ;
19 [label="sibsp <= 1.5\ngini = 0.3\nsamples = 267\nvalue = [360, 81]\nclass = 0", fillcolor="#e58139c6"] ;
13 -> 19 ;
20 [label="age <= 15.0\ngini = 0.314\nsamples = 242\nvalue = [322, 78]\nclass = 0", fillcolor="#e58139c1"] ;
19 -> 20 ;
21 [label="gini = 0.351\nsamples = 12\nvalue = [5, 17]\nclass = 1", fillcolor="#399de5b4"] ;
20 -> 21 ;
22 [label="gini = 0.271\nsamples = 230\nvalue = [317, 61]\nclass = 0", fillcolor="#e58139ce"] ;
20 -> 22 ;
23 [label="age <= 3.5\ngini = 0.136\nsamples = 25\nvalue = [38, 3]\nclass = 0", fillcolor="#e58139eb"] ;
19 -> 23 ;
24 [label="gini = 0.408\nsamples = 4\nvalue = [5, 2]\nclass = 0", fillcolor="#e5813999"] ;
23 -> 24 ;
25 [label="gini = 0.057\nsamples = 21\nvalue = [33, 1]\nclass = 0", fillcolor="#e58139f7"] ;
23 -> 25 ;
26 [label="embarked <= 0.5\ngini = 0.395\nsamples = 235\nvalue = [101, 272]\nclass = 1", fillcolor="#399de5a0"] ;
0 -> 26 [labeldistance=2.5, labelangle=-45, headlabel="False"] ;
27 [label="fare <= 14.85\ngini = 0.101\nsamples = 59\nvalue = [5, 89]\nclass = 1", fillcolor="#399de5f1"] ;
26 -> 27 ;
28 [label="fare <= 14.156\ngini = 0.375\nsamples = 10\nvalue = [4, 12]\nclass = 1", fillcolor="#399de5aa"] ;
27 -> 28 ;
29 [label="gini = 0.0\nsamples = 8\nvalue = [0, 12]\nclass = 1", fillcolor="#399de5ff"] ;
28 -> 29 ;
30 [label="gini = 0.0\nsamples = 2\nvalue = [4, 0]\nclass = 0", fillcolor="#e58139ff"] ;
28 -> 30 ;
31 [label="pclass <= 1.5\ngini = 0.025\nsamples = 49\nvalue = [1, 77]\nclass = 1", fillcolor="#399de5fc"] ;
27 -> 31 ;
32 [label="parch <= 0.5\ngini = 0.03\nsamples = 42\nvalue = [1, 65]\nclass = 1", fillcolor="#399de5fb"] ;
31 -> 32 ;
33 [label="gini = 0.05\nsamples = 27\nvalue = [1, 38]\nclass = 1", fillcolor="#399de5f8"] ;
32 -> 33 ;
34 [label="gini = 0.0\nsamples = 15\nvalue = [0, 27]\nclass = 1", fillcolor="#399de5ff"] ;
32 -> 34 ;
35 [label="gini = 0.0\nsamples = 7\nvalue = [0, 12]\nclass = 1", fillcolor="#399de5ff"] ;
31 -> 35 ;
36 [label="pclass <= 2.5\ngini = 0.451\nsamples = 176\nvalue = [96, 183]\nclass = 1", fillcolor="#399de579"] ;
26 -> 36 ;
37 [label="pclass <= 1.5\ngini = 0.121\nsamples = 91\nvalue = [9, 130]\nclass = 1", fillcolor="#399de5ed"] ;
36 -> 37 ;
38 [label="gini = 0.0\nsamples = 38\nvalue = [0, 65]\nclass = 1", fillcolor="#399de5ff"] ;
37 -> 38 ;
39 [label="parch <= 0.5\ngini = 0.214\nsamples = 53\nvalue = [9, 65]\nclass = 1", fillcolor="#399de5dc"] ;
37 -> 39 ;
40 [label="gini = 0.303\nsamples = 32\nvalue = [8, 35]\nclass = 1", fillcolor="#399de5c5"] ;
39 -> 40 ;
41 [label="gini = 0.062\nsamples = 21\nvalue = [1, 30]\nclass = 1", fillcolor="#399de5f6"] ;
39 -> 41 ;
42 [label="sibsp <= 0.5\ngini = 0.471\nsamples = 85\nvalue = [87, 53]\nclass = 0", fillcolor="#e5813964"] ;
36 -> 42 ;
43 [label="age <= 27.5\ngini = 0.497\nsamples = 44\nvalue = [39, 33]\nclass = 0", fillcolor="#e5813927"] ;
42 -> 43 ;
44 [label="gini = 0.483\nsamples = 30\nvalue = [20, 29]\nclass = 1", fillcolor="#399de54f"] ;
43 -> 44 ;
45 [label="gini = 0.287\nsamples = 14\nvalue = [19, 4]\nclass = 0", fillcolor="#e58139c9"] ;
43 -> 45 ;
46 [label="sibsp <= 4.5\ngini = 0.415\nsamples = 41\nvalue = [48, 20]\nclass = 0", fillcolor="#e5813995"] ;
42 -> 46 ;
47 [label="gini = 0.422\nsamples = 39\nvalue = [46, 20]\nclass = 0", fillcolor="#e5813990"] ;
46 -> 47 ;
48 [label="gini = 0.0\nsamples = 2\nvalue = [2, 0]\nclass = 0", fillcolor="#e58139ff"] ;
46 -> 48 ;
{rank=same ; 0} ;
{rank=same ; 1; 26} ;
{rank=same ; 2; 13; 27; 36} ;
{rank=same ; 3; 8; 14; 19; 28; 31; 37; 42} ;
{rank=same ; 4; 9; 15; 20; 23; 32; 39; 43; 46} ;
{rank=same ; 5; 6; 7; 10; 11; 12; 16; 17; 18; 21; 22; 24; 25; 29; 30; 33; 34; 35; 38; 40; 41; 44; 45; 47; 48} ;
}