digraph Tree {
node [shape=box, style="filled", color="black"] ;
graph [ranksep=equally, splines=polyline] ;
0 [label="fare <= 75.99\ngini = 0.473\nsamples = 645\nvalue = [625, 388]\nclass = 0", fillcolor="#e5813961"] ;
1 [label="parch <= 0.5\ngini = 0.443\nsamples = 568\nvalue = [597, 295]\nclass = 0", fillcolor="#e5813981"] ;
0 -> 1 [labeldistance=2.5, labelangle=45, headlabel="True"] ;
2 [label="sex <= 0.5\ngini = 0.409\nsamples = 434\nvalue = [490, 197]\nclass = 0", fillcolor="#e5813998"] ;
1 -> 2 ;
3 [label="sibsp <= 1.5\ngini = 0.25\nsamples = 321\nvalue = [436, 75]\nclass = 0", fillcolor="#e58139d3"] ;
2 -> 3 ;
4 [label="age <= 15.0\ngini = 0.256\nsamples = 313\nvalue = [422, 75]\nclass = 0", fillcolor="#e58139d2"] ;
3 -> 4 ;
5 [label="gini = 0.408\nsamples = 4\nvalue = [2, 5]\nclass = 1", fillcolor="#399de599"] ;
4 -> 5 ;
6 [label="gini = 0.245\nsamples = 309\nvalue = [420, 70]\nclass = 0", fillcolor="#e58139d4"] ;
4 -> 6 ;
7 [label="gini = 0.0\nsamples = 8\nvalue = [14, 0]\nclass = 0", fillcolor="#e58139ff"] ;
3 -> 7 ;
8 [label="embarked <= 0.5\ngini = 0.425\nsamples = 113\nvalue = [54, 122]\nclass = 1", fillcolor="#399de58e"] ;
2 -> 8 ;
9 [label="age <= 35.5\ngini = 0.224\nsamples = 23\nvalue = [5, 34]\nclass = 1", fillcolor="#399de5da"] ;
8 -> 9 ;
10 [label="gini = 0.142\nsamples = 16\nvalue = [2, 24]\nclass = 1", fillcolor="#399de5ea"] ;
9 -> 10 ;
11 [label="gini = 0.355\nsamples = 7\nvalue = [3, 10]\nclass = 1", fillcolor="#399de5b3"] ;
9 -> 11 ;
12 [label="embarked <= 1.5\ngini = 0.459\nsamples = 90\nvalue = [49, 88]\nclass = 1", fillcolor="#399de571"] ;
8 -> 12 ;
13 [label="gini = 0.391\nsamples = 11\nvalue = [11, 4]\nclass = 0", fillcolor="#e58139a2"] ;
12 -> 13 ;
14 [label="gini = 0.429\nsamples = 79\nvalue = [38, 84]\nclass = 1", fillcolor="#399de58c"] ;
12 -> 14 ;
15 [label="fare <= 27.825\ngini = 0.499\nsamples = 134\nvalue = [107, 98]\nclass = 0", fillcolor="#e5813915"] ;
1 -> 15 ;
16 [label="pclass <= 2.5\ngini = 0.485\nsamples = 75\nvalue = [45, 64]\nclass = 1", fillcolor="#399de54c"] ;
15 -> 16 ;
17 [label="age <= 25.5\ngini = 0.375\nsamples = 28\nvalue = [10, 30]\nclass = 1", fillcolor="#399de5aa"] ;
16 -> 17 ;
18 [label="gini = 0.172\nsamples = 16\nvalue = [2, 19]\nclass = 1", fillcolor="#399de5e4"] ;
17 -> 18 ;
19 [label="gini = 0.488\nsamples = 12\nvalue = [8, 11]\nclass = 1", fillcolor="#399de546"] ;
17 -> 19 ;
20 [label="fare <= 14.873\ngini = 0.5\nsamples = 47\nvalue = [35, 34]\nclass = 0", fillcolor="#e5813907"] ;
16 -> 20 ;
21 [label="gini = 0.459\nsamples = 22\nvalue = [18, 10]\nclass = 0", fillcolor="#e5813971"] ;
20 -> 21 ;
22 [label="gini = 0.485\nsamples = 25\nvalue = [17, 24]\nclass = 1", fillcolor="#399de54a"] ;
20 -> 22 ;
23 [label="sibsp <= 2.5\ngini = 0.457\nsamples = 59\nvalue = [62, 34]\nclass = 0", fillcolor="#e5813973"] ;
15 -> 23 ;
24 [label="pclass <= 2.5\ngini = 0.498\nsamples = 39\nvalue = [29, 33]\nclass = 1", fillcolor="#399de51f"] ;
23 -> 24 ;
25 [label="gini = 0.44\nsamples = 30\nvalue = [16, 33]\nclass = 1", fillcolor="#399de583"] ;
24 -> 25 ;
26 [label="gini = 0.0\nsamples = 9\nvalue = [13, 0]\nclass = 0", fillcolor="#e58139ff"] ;
24 -> 26 ;
27 [label="age <= 3.5\ngini = 0.057\nsamples = 20\nvalue = [33, 1]\nclass = 0", fillcolor="#e58139f7"] ;
23 -> 27 ;
28 [label="gini = 0.219\nsamples = 6\nvalue = [7, 1]\nclass = 0", fillcolor="#e58139db"] ;
27 -> 28 ;
29 [label="gini = 0.0\nsamples = 14\nvalue = [26, 0]\nclass = 0", fillcolor="#e58139ff"] ;
27 -> 29 ;
30 [label="sex <= 0.5\ngini = 0.356\nsamples = 77\nvalue = [28, 93]\nclass = 1", fillcolor="#399de5b2"] ;
0 -> 30 [labeldistance=2.5, labelangle=-45, headlabel="False"] ;
31 [label="embarked <= 0.5\ngini = 0.487\nsamples = 29\nvalue = [25, 18]\nclass = 0", fillcolor="#e5813947"] ;
30 -> 31 ;
32 [label="sibsp <= 0.5\ngini = 0.497\nsamples = 16\nvalue = [11, 13]\nclass = 1", fillcolor="#399de527"] ;
31 -> 32 ;
33 [label="gini = 0.0\nsamples = 5\nvalue = [0, 7]\nclass = 1", fillcolor="#399de5ff"] ;
32 -> 33 ;
34 [label="age <= 48.5\ngini = 0.457\nsamples = 11\nvalue = [11, 6]\nclass = 0", fillcolor="#e5813974"] ;
32 -> 34 ;
35 [label="gini = 0.494\nsamples = 6\nvalue = [4, 5]\nclass = 1", fillcolor="#399de533"] ;
34 -> 35 ;
36 [label="gini = 0.219\nsamples = 5\nvalue = [7, 1]\nclass = 0", fillcolor="#e58139db"] ;
34 -> 36 ;
37 [label="fare <= 142.433\ngini = 0.388\nsamples = 13\nvalue = [14, 5]\nclass = 0", fillcolor="#e58139a4"] ;
31 -> 37 ;
38 [label="parch <= 1.5\ngini = 0.473\nsamples = 9\nvalue = [8, 5]\nclass = 0", fillcolor="#e5813960"] ;
37 -> 38 ;
39 [label="gini = 0.198\nsamples = 6\nvalue = [8, 1]\nclass = 0", fillcolor="#e58139df"] ;
38 -> 39 ;
40 [label="gini = 0.0\nsamples = 3\nvalue = [0, 4]\nclass = 1", fillcolor="#399de5ff"] ;
38 -> 40 ;
41 [label="gini = 0.0\nsamples = 4\nvalue = [6, 0]\nclass = 0", fillcolor="#e58139ff"] ;
37 -> 41 ;
42 [label="fare <= 216.64\ngini = 0.074\nsamples = 48\nvalue = [3, 75]\nclass = 1", fillcolor="#399de5f5"] ;
30 -> 42 ;
43 [label="gini = 0.0\nsamples = 35\nvalue = [0, 57]\nclass = 1", fillcolor="#399de5ff"] ;
42 -> 43 ;
44 [label="fare <= 224.652\ngini = 0.245\nsamples = 13\nvalue = [3, 18]\nclass = 1", fillcolor="#399de5d4"] ;
42 -> 44 ;
45 [label="sibsp <= 0.5\ngini = 0.48\nsamples = 2\nvalue = [3, 2]\nclass = 0", fillcolor="#e5813955"] ;
44 -> 45 ;
46 [label="gini = 0.0\nsamples = 1\nvalue = [0, 2]\nclass = 1", fillcolor="#399de5ff"] ;
45 -> 46 ;
47 [label="gini = 0.0\nsamples = 1\nvalue = [3, 0]\nclass = 0", fillcolor="#e58139ff"] ;
45 -> 47 ;
48 [label="gini = 0.0\nsamples = 11\nvalue = [0, 16]\nclass = 1", fillcolor="#399de5ff"] ;
44 -> 48 ;
{rank=same ; 0} ;
{rank=same ; 1; 30} ;
{rank=same ; 2; 15; 31; 42} ;
{rank=same ; 3; 8; 16; 23; 32; 37; 44} ;
{rank=same ; 4; 9; 12; 17; 20; 24; 27; 34; 38; 45} ;
{rank=same ; 5; 6; 7; 10; 11; 13; 14; 18; 19; 21; 22; 25; 26; 28; 29; 33; 35; 36; 39; 40; 41; 43; 46; 47; 48} ;
}