digraph Tree {
node [shape=box, style="filled", color="black"] ;
graph [ranksep=equally, splines=polyline] ;
0 [label="fare <= 48.3\ngini = 0.487\nsamples = 651\nvalue = [587, 426]\nclass = 0", fillcolor="#e5813946"] ;
1 [label="fare <= 15.646\ngini = 0.438\nsamples = 514\nvalue = [529, 253]\nclass = 0", fillcolor="#e5813985"] ;
0 -> 1 [labeldistance=2.5, labelangle=45, headlabel="True"] ;
2 [label="pclass <= 2.5\ngini = 0.397\nsamples = 326\nvalue = [363, 136]\nclass = 0", fillcolor="#e581399f"] ;
1 -> 2 ;
3 [label="age <= 17.5\ngini = 0.438\nsamples = 78\nvalue = [75, 36]\nclass = 0", fillcolor="#e5813985"] ;
2 -> 3 ;
4 [label="gini = 0.0\nsamples = 1\nvalue = [0, 2]\nclass = 1", fillcolor="#399de5ff"] ;
3 -> 4 ;
5 [label="pclass <= 1.5\ngini = 0.429\nsamples = 77\nvalue = [75, 34]\nclass = 0", fillcolor="#e581398b"] ;
3 -> 5 ;
6 [label="gini = 0.0\nsamples = 2\nvalue = [2, 0]\nclass = 0", fillcolor="#e58139ff"] ;
5 -> 6 ;
7 [label="gini = 0.434\nsamples = 75\nvalue = [73, 34]\nclass = 0", fillcolor="#e5813988"] ;
5 -> 7 ;
8 [label="age <= 32.25\ngini = 0.383\nsamples = 248\nvalue = [288, 100]\nclass = 0", fillcolor="#e58139a6"] ;
2 -> 8 ;
9 [label="sex <= 0.5\ngini = 0.436\nsamples = 182\nvalue = [193, 91]\nclass = 0", fillcolor="#e5813987"] ;
8 -> 9 ;
10 [label="gini = 0.348\nsamples = 123\nvalue = [145, 42]\nclass = 0", fillcolor="#e58139b5"] ;
9 -> 10 ;
11 [label="gini = 0.5\nsamples = 59\nvalue = [48, 49]\nclass = 1", fillcolor="#399de505"] ;
9 -> 11 ;
12 [label="age <= 38.5\ngini = 0.158\nsamples = 66\nvalue = [95, 9]\nclass = 0", fillcolor="#e58139e7"] ;
8 -> 12 ;
13 [label="gini = 0.0\nsamples = 31\nvalue = [50, 0]\nclass = 0", fillcolor="#e58139ff"] ;
12 -> 13 ;
14 [label="gini = 0.278\nsamples = 35\nvalue = [45, 9]\nclass = 0", fillcolor="#e58139cc"] ;
12 -> 14 ;
15 [label="sibsp <= 2.5\ngini = 0.485\nsamples = 188\nvalue = [166, 117]\nclass = 0", fillcolor="#e581394b"] ;
1 -> 15 ;
16 [label="age <= 15.5\ngini = 0.497\nsamples = 166\nvalue = [133, 114]\nclass = 0", fillcolor="#e5813924"] ;
15 -> 16 ;
17 [label="pclass <= 2.5\ngini = 0.087\nsamples = 26\nvalue = [2, 42]\nclass = 1", fillcolor="#399de5f3"] ;
16 -> 17 ;
18 [label="gini = 0.0\nsamples = 16\nvalue = [0, 27]\nclass = 1", fillcolor="#399de5ff"] ;
17 -> 18 ;
19 [label="gini = 0.208\nsamples = 10\nvalue = [2, 15]\nclass = 1", fillcolor="#399de5dd"] ;
17 -> 19 ;
20 [label="fare <= 15.925\ngini = 0.458\nsamples = 140\nvalue = [131, 72]\nclass = 0", fillcolor="#e5813973"] ;
16 -> 20 ;
21 [label="gini = 0.0\nsamples = 2\nvalue = [0, 3]\nclass = 1", fillcolor="#399de5ff"] ;
20 -> 21 ;
22 [label="gini = 0.452\nsamples = 138\nvalue = [131, 69]\nclass = 0", fillcolor="#e5813979"] ;
20 -> 22 ;
23 [label="age <= 23.0\ngini = 0.153\nsamples = 22\nvalue = [33, 3]\nclass = 0", fillcolor="#e58139e8"] ;
15 -> 23 ;
24 [label="gini = 0.0\nsamples = 19\nvalue = [32, 0]\nclass = 0", fillcolor="#e58139ff"] ;
23 -> 24 ;
25 [label="sex <= 0.5\ngini = 0.375\nsamples = 3\nvalue = [1, 3]\nclass = 1", fillcolor="#399de5aa"] ;
23 -> 25 ;
26 [label="gini = 0.0\nsamples = 1\nvalue = [1, 0]\nclass = 0", fillcolor="#e58139ff"] ;
25 -> 26 ;
27 [label="gini = 0.0\nsamples = 2\nvalue = [0, 3]\nclass = 1", fillcolor="#399de5ff"] ;
25 -> 27 ;
28 [label="sex <= 0.5\ngini = 0.376\nsamples = 137\nvalue = [58, 173]\nclass = 1", fillcolor="#399de5aa"] ;
0 -> 28 [labeldistance=2.5, labelangle=-45, headlabel="False"] ;
29 [label="age <= 13.5\ngini = 0.48\nsamples = 55\nvalue = [54, 36]\nclass = 0", fillcolor="#e5813955"] ;
28 -> 29 ;
30 [label="gini = 0.0\nsamples = 3\nvalue = [0, 6]\nclass = 1", fillcolor="#399de5ff"] ;
29 -> 30 ;
31 [label="pclass <= 2.5\ngini = 0.459\nsamples = 52\nvalue = [54, 30]\nclass = 0", fillcolor="#e5813971"] ;
29 -> 31 ;
32 [label="age <= 54.5\ngini = 0.444\nsamples = 48\nvalue = [52, 26]\nclass = 0", fillcolor="#e581397f"] ;
31 -> 32 ;
33 [label="gini = 0.47\nsamples = 41\nvalue = [43, 26]\nclass = 0", fillcolor="#e5813965"] ;
32 -> 33 ;
34 [label="gini = 0.0\nsamples = 7\nvalue = [9, 0]\nclass = 0", fillcolor="#e58139ff"] ;
32 -> 34 ;
35 [label="sibsp <= 4.0\ngini = 0.444\nsamples = 4\nvalue = [2, 4]\nclass = 1", fillcolor="#399de57f"] ;
31 -> 35 ;
36 [label="gini = 0.32\nsamples = 3\nvalue = [1, 4]\nclass = 1", fillcolor="#399de5bf"] ;
35 -> 36 ;
37 [label="gini = 0.0\nsamples = 1\nvalue = [1, 0]\nclass = 0", fillcolor="#e58139ff"] ;
35 -> 37 ;
38 [label="age <= 61.5\ngini = 0.055\nsamples = 82\nvalue = [4, 137]\nclass = 1", fillcolor="#399de5f8"] ;
28 -> 38 ;
39 [label="gini = 0.0\nsamples = 79\nvalue = [0, 134]\nclass = 1", fillcolor="#399de5ff"] ;
38 -> 39 ;
40 [label="fare <= 152.469\ngini = 0.49\nsamples = 3\nvalue = [4, 3]\nclass = 0", fillcolor="#e5813940"] ;
38 -> 40 ;
41 [label="gini = 0.0\nsamples = 2\nvalue = [0, 3]\nclass = 1", fillcolor="#399de5ff"] ;
40 -> 41 ;
42 [label="gini = 0.0\nsamples = 1\nvalue = [4, 0]\nclass = 0", fillcolor="#e58139ff"] ;
40 -> 42 ;
{rank=same ; 0} ;
{rank=same ; 1; 28} ;
{rank=same ; 2; 15; 29; 38} ;
{rank=same ; 3; 8; 16; 23; 31; 40} ;
{rank=same ; 5; 9; 12; 17; 20; 25; 32; 35} ;
{rank=same ; 4; 6; 7; 10; 11; 13; 14; 18; 19; 21; 22; 24; 26; 27; 30; 33; 34; 36; 37; 39; 41; 42} ;
}