digraph Tree {
node [shape=box, style="filled", color="black"] ;
graph [ranksep=equally, splines=polyline] ;
0 [label="sibsp <= 3.5\ngini = 0.478\nsamples = 635\nvalue = [613, 400]\nclass = 0", fillcolor="#e5813959"] ;
1 [label="embarked <= 0.5\ngini = 0.483\nsamples = 618\nvalue = [577, 398]\nclass = 0", fillcolor="#e581394f"] ;
0 -> 1 [labeldistance=2.5, labelangle=45, headlabel="True"] ;
2 [label="fare <= 7.562\ngini = 0.432\nsamples = 132\nvalue = [70, 152]\nclass = 1", fillcolor="#399de58a"] ;
1 -> 2 ;
3 [label="sex <= 0.5\ngini = 0.452\nsamples = 17\nvalue = [19, 10]\nclass = 0", fillcolor="#e5813979"] ;
2 -> 3 ;
4 [label="sibsp <= 0.5\ngini = 0.287\nsamples = 14\nvalue = [19, 4]\nclass = 0", fillcolor="#e58139c9"] ;
3 -> 4 ;
5 [label="gini = 0.332\nsamples = 12\nvalue = [15, 4]\nclass = 0", fillcolor="#e58139bb"] ;
4 -> 5 ;
6 [label="gini = 0.0\nsamples = 2\nvalue = [4, 0]\nclass = 0", fillcolor="#e58139ff"] ;
4 -> 6 ;
7 [label="gini = 0.0\nsamples = 3\nvalue = [0, 6]\nclass = 1", fillcolor="#399de5ff"] ;
3 -> 7 ;
8 [label="fare <= 14.158\ngini = 0.389\nsamples = 115\nvalue = [51, 142]\nclass = 1", fillcolor="#399de5a3"] ;
2 -> 8 ;
9 [label="pclass <= 2.5\ngini = 0.147\nsamples = 14\nvalue = [2, 23]\nclass = 1", fillcolor="#399de5e9"] ;
8 -> 9 ;
10 [label="gini = 0.0\nsamples = 6\nvalue = [0, 11]\nclass = 1", fillcolor="#399de5ff"] ;
9 -> 10 ;
11 [label="gini = 0.245\nsamples = 8\nvalue = [2, 12]\nclass = 1", fillcolor="#399de5d4"] ;
9 -> 11 ;
12 [label="age <= 56.5\ngini = 0.413\nsamples = 101\nvalue = [49, 119]\nclass = 1", fillcolor="#399de596"] ;
8 -> 12 ;
13 [label="gini = 0.373\nsamples = 92\nvalue = [37, 112]\nclass = 1", fillcolor="#399de5ab"] ;
12 -> 13 ;
14 [label="gini = 0.465\nsamples = 9\nvalue = [12, 7]\nclass = 0", fillcolor="#e581396a"] ;
12 -> 14 ;
15 [label="fare <= 52.277\ngini = 0.44\nsamples = 486\nvalue = [507, 246]\nclass = 0", fillcolor="#e5813983"] ;
1 -> 15 ;
16 [label="pclass <= 2.5\ngini = 0.402\nsamples = 427\nvalue = [476, 184]\nclass = 0", fillcolor="#e581399c"] ;
15 -> 16 ;
17 [label="sibsp <= 1.5\ngini = 0.459\nsamples = 186\nvalue = [184, 102]\nclass = 0", fillcolor="#e5813972"] ;
16 -> 17 ;
18 [label="gini = 0.451\nsamples = 178\nvalue = [182, 95]\nclass = 0", fillcolor="#e581397a"] ;
17 -> 18 ;
19 [label="gini = 0.346\nsamples = 8\nvalue = [2, 7]\nclass = 1", fillcolor="#399de5b6"] ;
17 -> 19 ;
20 [label="age <= 62.0\ngini = 0.342\nsamples = 241\nvalue = [292, 82]\nclass = 0", fillcolor="#e58139b7"] ;
16 -> 20 ;
21 [label="gini = 0.333\nsamples = 239\nvalue = [291, 78]\nclass = 0", fillcolor="#e58139bb"] ;
20 -> 21 ;
22 [label="gini = 0.32\nsamples = 2\nvalue = [1, 4]\nclass = 1", fillcolor="#399de5bf"] ;
20 -> 22 ;
23 [label="sex <= 0.5\ngini = 0.444\nsamples = 59\nvalue = [31, 62]\nclass = 1", fillcolor="#399de57f"] ;
15 -> 23 ;
24 [label="parch <= 1.5\ngini = 0.422\nsamples = 27\nvalue = [30, 13]\nclass = 0", fillcolor="#e5813991"] ;
23 -> 24 ;
25 [label="gini = 0.346\nsamples = 23\nvalue = [28, 8]\nclass = 0", fillcolor="#e58139b6"] ;
24 -> 25 ;
26 [label="gini = 0.408\nsamples = 4\nvalue = [2, 5]\nclass = 1", fillcolor="#399de599"] ;
24 -> 26 ;
27 [label="age <= 61.5\ngini = 0.039\nsamples = 32\nvalue = [1, 49]\nclass = 1", fillcolor="#399de5fa"] ;
23 -> 27 ;
28 [label="gini = 0.0\nsamples = 30\nvalue = [0, 48]\nclass = 1", fillcolor="#399de5ff"] ;
27 -> 28 ;
29 [label="gini = 0.5\nsamples = 2\nvalue = [1, 1]\nclass = 0", fillcolor="#e5813900"] ;
27 -> 29 ;
30 [label="age <= 16.5\ngini = 0.1\nsamples = 17\nvalue = [36, 2]\nclass = 0", fillcolor="#e58139f1"] ;
0 -> 30 [labeldistance=2.5, labelangle=-45, headlabel="False"] ;
31 [label="age <= 3.5\ngini = 0.057\nsamples = 15\nvalue = [33, 1]\nclass = 0", fillcolor="#e58139f7"] ;
30 -> 31 ;
32 [label="parch <= 1.5\ngini = 0.245\nsamples = 5\nvalue = [6, 1]\nclass = 0", fillcolor="#e58139d4"] ;
31 -> 32 ;
33 [label="gini = 0.0\nsamples = 3\nvalue = [5, 0]\nclass = 0", fillcolor="#e58139ff"] ;
32 -> 33 ;
34 [label="fare <= 39.144\ngini = 0.5\nsamples = 2\nvalue = [1, 1]\nclass = 0", fillcolor="#e5813900"] ;
32 -> 34 ;
35 [label="gini = 0.0\nsamples = 1\nvalue = [0, 1]\nclass = 1", fillcolor="#399de5ff"] ;
34 -> 35 ;
36 [label="gini = 0.0\nsamples = 1\nvalue = [1, 0]\nclass = 0", fillcolor="#e58139ff"] ;
34 -> 36 ;
37 [label="gini = 0.0\nsamples = 10\nvalue = [27, 0]\nclass = 0", fillcolor="#e58139ff"] ;
31 -> 37 ;
38 [label="fare <= 7.85\ngini = 0.375\nsamples = 2\nvalue = [3, 1]\nclass = 0", fillcolor="#e58139aa"] ;
30 -> 38 ;
39 [label="gini = 0.0\nsamples = 1\nvalue = [3, 0]\nclass = 0", fillcolor="#e58139ff"] ;
38 -> 39 ;
40 [label="gini = 0.0\nsamples = 1\nvalue = [0, 1]\nclass = 1", fillcolor="#399de5ff"] ;
38 -> 40 ;
{rank=same ; 0} ;
{rank=same ; 1; 30} ;
{rank=same ; 2; 15; 31; 38} ;
{rank=same ; 3; 8; 16; 23; 32} ;
{rank=same ; 4; 9; 12; 17; 20; 24; 27; 34} ;
{rank=same ; 5; 6; 7; 10; 11; 13; 14; 18; 19; 21; 22; 25; 26; 28; 29; 33; 35; 36; 37; 39; 40} ;
}