digraph Tree {
node [shape=box, style="filled", color="black"] ;
graph [ranksep=equally, splines=polyline] ;
0 [label="pclass <= 2.5\ngini = 0.487\nsamples = 641\nvalue = [587, 426]\nclass = 0", fillcolor="#e5813946"] ;
1 [label="parch <= 0.5\ngini = 0.494\nsamples = 339\nvalue = [243, 302]\nclass = 1", fillcolor="#399de532"] ;
0 -> 1 [labeldistance=2.5, labelangle=45, headlabel="True"] ;
2 [label="sex <= 0.5\ngini = 0.498\nsamples = 243\nvalue = [211, 184]\nclass = 0", fillcolor="#e5813921"] ;
1 -> 2 ;
3 [label="pclass <= 1.5\ngini = 0.33\nsamples = 157\nvalue = [201, 53]\nclass = 0", fillcolor="#e58139bc"] ;
2 -> 3 ;
4 [label="embarked <= 1.0\ngini = 0.441\nsamples = 75\nvalue = [82, 40]\nclass = 0", fillcolor="#e5813983"] ;
3 -> 4 ;
5 [label="gini = 0.492\nsamples = 27\nvalue = [27, 21]\nclass = 0", fillcolor="#e5813939"] ;
4 -> 5 ;
6 [label="gini = 0.382\nsamples = 48\nvalue = [55, 19]\nclass = 0", fillcolor="#e58139a7"] ;
4 -> 6 ;
7 [label="fare <= 13.929\ngini = 0.178\nsamples = 82\nvalue = [119, 13]\nclass = 0", fillcolor="#e58139e3"] ;
3 -> 7 ;
8 [label="gini = 0.245\nsamples = 52\nvalue = [72, 12]\nclass = 0", fillcolor="#e58139d4"] ;
7 -> 8 ;
9 [label="gini = 0.041\nsamples = 30\nvalue = [47, 1]\nclass = 0", fillcolor="#e58139fa"] ;
7 -> 9 ;
10 [label="embarked <= 1.5\ngini = 0.132\nsamples = 86\nvalue = [10, 131]\nclass = 1", fillcolor="#399de5ec"] ;
2 -> 10 ;
11 [label="age <= 49.5\ngini = 0.034\nsamples = 36\nvalue = [1, 56]\nclass = 1", fillcolor="#399de5fa"] ;
10 -> 11 ;
12 [label="gini = 0.0\nsamples = 28\nvalue = [0, 47]\nclass = 1", fillcolor="#399de5ff"] ;
11 -> 12 ;
13 [label="gini = 0.18\nsamples = 8\nvalue = [1, 9]\nclass = 1", fillcolor="#399de5e3"] ;
11 -> 13 ;
14 [label="age <= 56.0\ngini = 0.191\nsamples = 50\nvalue = [9, 75]\nclass = 1", fillcolor="#399de5e0"] ;
10 -> 14 ;
15 [label="gini = 0.12\nsamples = 46\nvalue = [5, 73]\nclass = 1", fillcolor="#399de5ee"] ;
14 -> 15 ;
16 [label="gini = 0.444\nsamples = 4\nvalue = [4, 2]\nclass = 0", fillcolor="#e581397f"] ;
14 -> 16 ;
17 [label="sibsp <= 0.5\ngini = 0.336\nsamples = 96\nvalue = [32, 118]\nclass = 1", fillcolor="#399de5ba"] ;
1 -> 17 ;
18 [label="fare <= 26.125\ngini = 0.239\nsamples = 44\nvalue = [10, 62]\nclass = 1", fillcolor="#399de5d6"] ;
17 -> 18 ;
19 [label="age <= 35.25\ngini = 0.355\nsamples = 10\nvalue = [3, 10]\nclass = 1", fillcolor="#399de5b3"] ;
18 -> 19 ;
20 [label="gini = 0.0\nsamples = 7\nvalue = [0, 9]\nclass = 1", fillcolor="#399de5ff"] ;
19 -> 20 ;
21 [label="gini = 0.375\nsamples = 3\nvalue = [3, 1]\nclass = 0", fillcolor="#e58139aa"] ;
19 -> 21 ;
22 [label="parch <= 1.5\ngini = 0.209\nsamples = 34\nvalue = [7, 52]\nclass = 1", fillcolor="#399de5dd"] ;
18 -> 22 ;
23 [label="gini = 0.312\nsamples = 19\nvalue = [6, 25]\nclass = 1", fillcolor="#399de5c2"] ;
22 -> 23 ;
24 [label="gini = 0.069\nsamples = 15\nvalue = [1, 27]\nclass = 1", fillcolor="#399de5f6"] ;
22 -> 24 ;
25 [label="sibsp <= 1.5\ngini = 0.405\nsamples = 52\nvalue = [22, 56]\nclass = 1", fillcolor="#399de59b"] ;
17 -> 25 ;
26 [label="sex <= 0.5\ngini = 0.419\nsamples = 40\nvalue = [17, 40]\nclass = 1", fillcolor="#399de593"] ;
25 -> 26 ;
27 [label="gini = 0.483\nsamples = 19\nvalue = [16, 11]\nclass = 0", fillcolor="#e5813950"] ;
26 -> 27 ;
28 [label="gini = 0.064\nsamples = 21\nvalue = [1, 29]\nclass = 1", fillcolor="#399de5f6"] ;
26 -> 28 ;
29 [label="age <= 18.5\ngini = 0.363\nsamples = 12\nvalue = [5, 16]\nclass = 1", fillcolor="#399de5af"] ;
25 -> 29 ;
30 [label="gini = 0.0\nsamples = 4\nvalue = [0, 7]\nclass = 1", fillcolor="#399de5ff"] ;
29 -> 30 ;
31 [label="gini = 0.459\nsamples = 8\nvalue = [5, 9]\nclass = 1", fillcolor="#399de571"] ;
29 -> 31 ;
32 [label="sex <= 0.5\ngini = 0.39\nsamples = 302\nvalue = [344, 124]\nclass = 0", fillcolor="#e58139a3"] ;
0 -> 32 [labeldistance=2.5, labelangle=-45, headlabel="False"] ;
33 [label="embarked <= 0.5\ngini = 0.296\nsamples = 205\nvalue = [263, 58]\nclass = 0", fillcolor="#e58139c7"] ;
32 -> 33 ;
34 [label="age <= 3.208\ngini = 0.426\nsamples = 22\nvalue = [27, 12]\nclass = 0", fillcolor="#e581398e"] ;
33 -> 34 ;
35 [label="gini = 0.0\nsamples = 1\nvalue = [0, 3]\nclass = 1", fillcolor="#399de5ff"] ;
34 -> 35 ;
36 [label="fare <= 7.562\ngini = 0.375\nsamples = 21\nvalue = [27, 9]\nclass = 0", fillcolor="#e58139aa"] ;
34 -> 36 ;
37 [label="gini = 0.255\nsamples = 12\nvalue = [17, 3]\nclass = 0", fillcolor="#e58139d2"] ;
36 -> 37 ;
38 [label="gini = 0.469\nsamples = 9\nvalue = [10, 6]\nclass = 0", fillcolor="#e5813966"] ;
36 -> 38 ;
39 [label="age <= 14.25\ngini = 0.273\nsamples = 183\nvalue = [236, 46]\nclass = 0", fillcolor="#e58139cd"] ;
33 -> 39 ;
40 [label="fare <= 20.825\ngini = 0.439\nsamples = 24\nvalue = [27, 13]\nclass = 0", fillcolor="#e5813984"] ;
39 -> 40 ;
41 [label="gini = 0.36\nsamples = 7\nvalue = [4, 13]\nclass = 1", fillcolor="#399de5b1"] ;
40 -> 41 ;
42 [label="gini = 0.0\nsamples = 17\nvalue = [23, 0]\nclass = 0", fillcolor="#e58139ff"] ;
40 -> 42 ;
43 [label="parch <= 1.5\ngini = 0.236\nsamples = 159\nvalue = [209, 33]\nclass = 0", fillcolor="#e58139d7"] ;
39 -> 43 ;
44 [label="gini = 0.243\nsamples = 152\nvalue = [200, 33]\nclass = 0", fillcolor="#e58139d5"] ;
43 -> 44 ;
45 [label="gini = 0.0\nsamples = 7\nvalue = [9, 0]\nclass = 0", fillcolor="#e58139ff"] ;
43 -> 45 ;
46 [label="fare <= 23.087\ngini = 0.495\nsamples = 97\nvalue = [81, 66]\nclass = 0", fillcolor="#e581392f"] ;
32 -> 46 ;
47 [label="embarked <= 0.5\ngini = 0.5\nsamples = 83\nvalue = [64, 65]\nclass = 1", fillcolor="#399de504"] ;
46 -> 47 ;
48 [label="sibsp <= 1.5\ngini = 0.255\nsamples = 14\nvalue = [3, 17]\nclass = 1", fillcolor="#399de5d2"] ;
47 -> 48 ;
49 [label="gini = 0.291\nsamples = 12\nvalue = [3, 14]\nclass = 1", fillcolor="#399de5c8"] ;
48 -> 49 ;
50 [label="gini = 0.0\nsamples = 2\nvalue = [0, 3]\nclass = 1", fillcolor="#399de5ff"] ;
48 -> 50 ;
51 [label="fare <= 21.55\ngini = 0.493\nsamples = 69\nvalue = [61, 48]\nclass = 0", fillcolor="#e5813936"] ;
47 -> 51 ;
52 [label="gini = 0.485\nsamples = 67\nvalue = [61, 43]\nclass = 0", fillcolor="#e581394b"] ;
51 -> 52 ;
53 [label="gini = 0.0\nsamples = 2\nvalue = [0, 5]\nclass = 1", fillcolor="#399de5ff"] ;
51 -> 53 ;
54 [label="fare <= 31.331\ngini = 0.105\nsamples = 14\nvalue = [17, 1]\nclass = 0", fillcolor="#e58139f0"] ;
46 -> 54 ;
55 [label="gini = 0.0\nsamples = 8\nvalue = [10, 0]\nclass = 0", fillcolor="#e58139ff"] ;
54 -> 55 ;
56 [label="fare <= 32.881\ngini = 0.219\nsamples = 6\nvalue = [7, 1]\nclass = 0", fillcolor="#e58139db"] ;
54 -> 56 ;
57 [label="gini = 0.0\nsamples = 1\nvalue = [0, 1]\nclass = 1", fillcolor="#399de5ff"] ;
56 -> 57 ;
58 [label="gini = 0.0\nsamples = 5\nvalue = [7, 0]\nclass = 0", fillcolor="#e58139ff"] ;
56 -> 58 ;
{rank=same ; 0} ;
{rank=same ; 1; 32} ;
{rank=same ; 2; 17; 33; 46} ;
{rank=same ; 3; 10; 18; 25; 34; 39; 47; 54} ;
{rank=same ; 4; 7; 11; 14; 19; 22; 26; 29; 36; 40; 43; 48; 51; 56} ;
{rank=same ; 5; 6; 8; 9; 12; 13; 15; 16; 20; 21; 23; 24; 27; 28; 30; 31; 35; 37; 38; 41; 42; 44; 45; 49; 50; 52; 53; 55; 57; 58} ;
}