digraph Tree {
node [shape=box, style="filled", color="black"] ;
graph [ranksep=equally, splines=polyline] ;
0 [label="parch <= 0.5\ngini = 0.476\nsamples = 641\nvalue = [617, 396]\nclass = 0", fillcolor="#e581395b"] ;
1 [label="embarked <= 0.5\ngini = 0.444\nsamples = 467\nvalue = [492, 246]\nclass = 0", fillcolor="#e581397f"] ;
0 -> 1 [labeldistance=2.5, labelangle=45, headlabel="True"] ;
2 [label="pclass <= 2.5\ngini = 0.421\nsamples = 77\nvalue = [34, 79]\nclass = 1", fillcolor="#399de591"] ;
1 -> 2 ;
3 [label="fare <= 44.815\ngini = 0.339\nsamples = 57\nvalue = [19, 69]\nclass = 1", fillcolor="#399de5b9"] ;
2 -> 3 ;
4 [label="age <= 35.5\ngini = 0.439\nsamples = 23\nvalue = [13, 27]\nclass = 1", fillcolor="#399de584"] ;
3 -> 4 ;
5 [label="gini = 0.298\nsamples = 13\nvalue = [4, 18]\nclass = 1", fillcolor="#399de5c6"] ;
4 -> 5 ;
6 [label="gini = 0.5\nsamples = 10\nvalue = [9, 9]\nclass = 0", fillcolor="#e5813900"] ;
4 -> 6 ;
7 [label="sex <= 0.5\ngini = 0.219\nsamples = 34\nvalue = [6, 42]\nclass = 1", fillcolor="#399de5db"] ;
3 -> 7 ;
8 [label="gini = 0.444\nsamples = 13\nvalue = [6, 12]\nclass = 1", fillcolor="#399de57f"] ;
7 -> 8 ;
9 [label="gini = 0.0\nsamples = 21\nvalue = [0, 30]\nclass = 1", fillcolor="#399de5ff"] ;
7 -> 9 ;
10 [label="sex <= 0.5\ngini = 0.48\nsamples = 20\nvalue = [15, 10]\nclass = 0", fillcolor="#e5813955"] ;
2 -> 10 ;
11 [label="age <= 22.25\ngini = 0.346\nsamples = 14\nvalue = [14, 4]\nclass = 0", fillcolor="#e58139b6"] ;
10 -> 11 ;
12 [label="gini = 0.5\nsamples = 7\nvalue = [4, 4]\nclass = 0", fillcolor="#e5813900"] ;
11 -> 12 ;
13 [label="gini = 0.0\nsamples = 7\nvalue = [10, 0]\nclass = 0", fillcolor="#e58139ff"] ;
11 -> 13 ;
14 [label="fare <= 12.848\ngini = 0.245\nsamples = 6\nvalue = [1, 6]\nclass = 1", fillcolor="#399de5d4"] ;
10 -> 14 ;
15 [label="gini = 0.0\nsamples = 5\nvalue = [0, 6]\nclass = 1", fillcolor="#399de5ff"] ;
14 -> 15 ;
16 [label="gini = 0.0\nsamples = 1\nvalue = [1, 0]\nclass = 0", fillcolor="#e58139ff"] ;
14 -> 16 ;
17 [label="fare <= 26.144\ngini = 0.392\nsamples = 390\nvalue = [458, 167]\nclass = 0", fillcolor="#e58139a2"] ;
1 -> 17 ;
18 [label="pclass <= 2.5\ngini = 0.322\nsamples = 321\nvalue = [404, 102]\nclass = 0", fillcolor="#e58139bf"] ;
17 -> 18 ;
19 [label="age <= 24.5\ngini = 0.389\nsamples = 101\nvalue = [117, 42]\nclass = 0", fillcolor="#e58139a3"] ;
18 -> 19 ;
20 [label="gini = 0.469\nsamples = 26\nvalue = [25, 15]\nclass = 0", fillcolor="#e5813966"] ;
19 -> 20 ;
21 [label="gini = 0.351\nsamples = 75\nvalue = [92, 27]\nclass = 0", fillcolor="#e58139b4"] ;
19 -> 21 ;
22 [label="age <= 16.5\ngini = 0.286\nsamples = 220\nvalue = [287, 60]\nclass = 0", fillcolor="#e58139ca"] ;
18 -> 22 ;
23 [label="gini = 0.498\nsamples = 10\nvalue = [8, 9]\nclass = 1", fillcolor="#399de51c"] ;
22 -> 23 ;
24 [label="gini = 0.261\nsamples = 210\nvalue = [279, 51]\nclass = 0", fillcolor="#e58139d0"] ;
22 -> 24 ;
25 [label="age <= 41.0\ngini = 0.496\nsamples = 69\nvalue = [54, 65]\nclass = 1", fillcolor="#399de52b"] ;
17 -> 25 ;
26 [label="sibsp <= 1.5\ngini = 0.452\nsamples = 45\nvalue = [28, 53]\nclass = 1", fillcolor="#399de578"] ;
25 -> 26 ;
27 [label="gini = 0.415\nsamples = 41\nvalue = [22, 53]\nclass = 1", fillcolor="#399de595"] ;
26 -> 27 ;
28 [label="gini = 0.0\nsamples = 4\nvalue = [6, 0]\nclass = 0", fillcolor="#e58139ff"] ;
26 -> 28 ;
29 [label="sex <= 0.5\ngini = 0.432\nsamples = 24\nvalue = [26, 12]\nclass = 0", fillcolor="#e5813989"] ;
25 -> 29 ;
30 [label="gini = 0.36\nsamples = 22\nvalue = [26, 8]\nclass = 0", fillcolor="#e58139b1"] ;
29 -> 30 ;
31 [label="gini = 0.0\nsamples = 2\nvalue = [0, 4]\nclass = 1", fillcolor="#399de5ff"] ;
29 -> 31 ;
32 [label="fare <= 48.2\ngini = 0.496\nsamples = 174\nvalue = [125, 150]\nclass = 1", fillcolor="#399de52a"] ;
0 -> 32 [labeldistance=2.5, labelangle=-45, headlabel="False"] ;
33 [label="sibsp <= 2.5\ngini = 0.497\nsamples = 130\nvalue = [111, 94]\nclass = 0", fillcolor="#e5813927"] ;
32 -> 33 ;
34 [label="age <= 35.5\ngini = 0.491\nsamples = 103\nvalue = [68, 89]\nclass = 1", fillcolor="#399de53c"] ;
33 -> 34 ;
35 [label="fare <= 8.185\ngini = 0.451\nsamples = 82\nvalue = [43, 82]\nclass = 1", fillcolor="#399de579"] ;
34 -> 35 ;
36 [label="gini = 0.0\nsamples = 2\nvalue = [5, 0]\nclass = 0", fillcolor="#e58139ff"] ;
35 -> 36 ;
37 [label="gini = 0.433\nsamples = 80\nvalue = [38, 82]\nclass = 1", fillcolor="#399de589"] ;
35 -> 37 ;
38 [label="pclass <= 2.5\ngini = 0.342\nsamples = 21\nvalue = [25, 7]\nclass = 0", fillcolor="#e58139b8"] ;
34 -> 38 ;
39 [label="gini = 0.496\nsamples = 8\nvalue = [6, 5]\nclass = 0", fillcolor="#e581392a"] ;
38 -> 39 ;
40 [label="gini = 0.172\nsamples = 13\nvalue = [19, 2]\nclass = 0", fillcolor="#e58139e4"] ;
38 -> 40 ;
41 [label="age <= 16.5\ngini = 0.187\nsamples = 27\nvalue = [43, 5]\nclass = 0", fillcolor="#e58139e1"] ;
33 -> 41 ;
42 [label="embarked <= 1.5\ngini = 0.044\nsamples = 25\nvalue = [43, 1]\nclass = 0", fillcolor="#e58139f9"] ;
41 -> 42 ;
43 [label="gini = 0.0\nsamples = 3\nvalue = [7, 0]\nclass = 0", fillcolor="#e58139ff"] ;
42 -> 43 ;
44 [label="gini = 0.053\nsamples = 22\nvalue = [36, 1]\nclass = 0", fillcolor="#e58139f8"] ;
42 -> 44 ;
45 [label="gini = 0.0\nsamples = 2\nvalue = [0, 4]\nclass = 1", fillcolor="#399de5ff"] ;
41 -> 45 ;
46 [label="sex <= 0.5\ngini = 0.32\nsamples = 44\nvalue = [14, 56]\nclass = 1", fillcolor="#399de5bf"] ;
32 -> 46 ;
47 [label="fare <= 149.683\ngini = 0.388\nsamples = 15\nvalue = [14, 5]\nclass = 0", fillcolor="#e58139a4"] ;
46 -> 47 ;
48 [label="age <= 37.0\ngini = 0.5\nsamples = 10\nvalue = [5, 5]\nclass = 0", fillcolor="#e5813900"] ;
47 -> 48 ;
49 [label="gini = 0.0\nsamples = 5\nvalue = [0, 5]\nclass = 1", fillcolor="#399de5ff"] ;
48 -> 49 ;
50 [label="gini = 0.0\nsamples = 5\nvalue = [5, 0]\nclass = 0", fillcolor="#e58139ff"] ;
48 -> 50 ;
51 [label="gini = 0.0\nsamples = 5\nvalue = [9, 0]\nclass = 0", fillcolor="#e58139ff"] ;
47 -> 51 ;
52 [label="gini = 0.0\nsamples = 29\nvalue = [0, 51]\nclass = 1", fillcolor="#399de5ff"] ;
46 -> 52 ;
{rank=same ; 0} ;
{rank=same ; 1; 32} ;
{rank=same ; 2; 17; 33; 46} ;
{rank=same ; 3; 10; 18; 25; 34; 41; 47} ;
{rank=same ; 4; 7; 11; 14; 19; 22; 26; 29; 35; 38; 42; 48} ;
{rank=same ; 5; 6; 8; 9; 12; 13; 15; 16; 20; 21; 23; 24; 27; 28; 30; 31; 36; 37; 39; 40; 43; 44; 45; 49; 50; 51; 52} ;
}