digraph Tree {
node [shape=box, style="filled", color="black"] ;
graph [ranksep=equally, splines=polyline] ;
0 [label="fare <= 15.646\ngini = 0.47\nsamples = 653\nvalue = [631, 382]\nclass = 0", fillcolor="#e5813965"] ;
1 [label="sex <= 0.5\ngini = 0.353\nsamples = 331\nvalue = [401, 119]\nclass = 0", fillcolor="#e58139b3"] ;
0 -> 1 [labeldistance=2.5, labelangle=45, headlabel="True"] ;
2 [label="pclass <= 2.5\ngini = 0.223\nsamples = 246\nvalue = [341, 50]\nclass = 0", fillcolor="#e58139da"] ;
1 -> 2 ;
3 [label="fare <= 13.679\ngini = 0.161\nsamples = 65\nvalue = [103, 10]\nclass = 0", fillcolor="#e58139e6"] ;
2 -> 3 ;
4 [label="age <= 23.5\ngini = 0.11\nsamples = 59\nvalue = [97, 6]\nclass = 0", fillcolor="#e58139ef"] ;
3 -> 4 ;
5 [label="gini = 0.0\nsamples = 15\nvalue = [35, 0]\nclass = 0", fillcolor="#e58139ff"] ;
4 -> 5 ;
6 [label="gini = 0.161\nsamples = 44\nvalue = [62, 6]\nclass = 0", fillcolor="#e58139e6"] ;
4 -> 6 ;
7 [label="fare <= 13.931\ngini = 0.48\nsamples = 6\nvalue = [6, 4]\nclass = 0", fillcolor="#e5813955"] ;
3 -> 7 ;
8 [label="gini = 0.0\nsamples = 2\nvalue = [0, 4]\nclass = 1", fillcolor="#399de5ff"] ;
7 -> 8 ;
9 [label="gini = 0.0\nsamples = 4\nvalue = [6, 0]\nclass = 0", fillcolor="#e58139ff"] ;
7 -> 9 ;
10 [label="fare <= 9.337\ngini = 0.246\nsamples = 181\nvalue = [238, 40]\nclass = 0", fillcolor="#e58139d4"] ;
2 -> 10 ;
11 [label="sibsp <= 1.5\ngini = 0.2\nsamples = 156\nvalue = [213, 27]\nclass = 0", fillcolor="#e58139df"] ;
10 -> 11 ;
12 [label="gini = 0.205\nsamples = 153\nvalue = [206, 27]\nclass = 0", fillcolor="#e58139de"] ;
11 -> 12 ;
13 [label="gini = 0.0\nsamples = 3\nvalue = [7, 0]\nclass = 0", fillcolor="#e58139ff"] ;
11 -> 13 ;
14 [label="age <= 12.5\ngini = 0.45\nsamples = 25\nvalue = [25, 13]\nclass = 0", fillcolor="#e581397a"] ;
10 -> 14 ;
15 [label="gini = 0.444\nsamples = 7\nvalue = [4, 8]\nclass = 1", fillcolor="#399de57f"] ;
14 -> 15 ;
16 [label="gini = 0.311\nsamples = 18\nvalue = [21, 5]\nclass = 0", fillcolor="#e58139c2"] ;
14 -> 16 ;
17 [label="fare <= 7.729\ngini = 0.498\nsamples = 85\nvalue = [60, 69]\nclass = 1", fillcolor="#399de521"] ;
1 -> 17 ;
18 [label="fare <= 7.44\ngini = 0.133\nsamples = 9\nvalue = [1, 13]\nclass = 1", fillcolor="#399de5eb"] ;
17 -> 18 ;
19 [label="gini = 0.0\nsamples = 6\nvalue = [0, 10]\nclass = 1", fillcolor="#399de5ff"] ;
18 -> 19 ;
20 [label="fare <= 7.64\ngini = 0.375\nsamples = 3\nvalue = [1, 3]\nclass = 1", fillcolor="#399de5aa"] ;
18 -> 20 ;
21 [label="gini = 0.0\nsamples = 1\nvalue = [1, 0]\nclass = 0", fillcolor="#e58139ff"] ;
20 -> 21 ;
22 [label="gini = 0.0\nsamples = 2\nvalue = [0, 3]\nclass = 1", fillcolor="#399de5ff"] ;
20 -> 22 ;
23 [label="age <= 23.5\ngini = 0.5\nsamples = 76\nvalue = [59, 56]\nclass = 0", fillcolor="#e581390d"] ;
17 -> 23 ;
24 [label="embarked <= 0.5\ngini = 0.483\nsamples = 35\nvalue = [20, 29]\nclass = 1", fillcolor="#399de54f"] ;
23 -> 24 ;
25 [label="gini = 0.444\nsamples = 8\nvalue = [3, 6]\nclass = 1", fillcolor="#399de57f"] ;
24 -> 25 ;
26 [label="gini = 0.489\nsamples = 27\nvalue = [17, 23]\nclass = 1", fillcolor="#399de543"] ;
24 -> 26 ;
27 [label="pclass <= 2.5\ngini = 0.483\nsamples = 41\nvalue = [39, 27]\nclass = 0", fillcolor="#e581394e"] ;
23 -> 27 ;
28 [label="gini = 0.365\nsamples = 19\nvalue = [6, 19]\nclass = 1", fillcolor="#399de5ae"] ;
27 -> 28 ;
29 [label="gini = 0.314\nsamples = 22\nvalue = [33, 8]\nclass = 0", fillcolor="#e58139c1"] ;
27 -> 29 ;
30 [label="fare <= 52.277\ngini = 0.498\nsamples = 322\nvalue = [230, 263]\nclass = 1", fillcolor="#399de520"] ;
0 -> 30 [labeldistance=2.5, labelangle=-45, headlabel="False"] ;
31 [label="parch <= 0.5\ngini = 0.494\nsamples = 206\nvalue = [173, 138]\nclass = 0", fillcolor="#e5813934"] ;
30 -> 31 ;
32 [label="embarked <= 1.0\ngini = 0.442\nsamples = 107\nvalue = [114, 56]\nclass = 0", fillcolor="#e5813982"] ;
31 -> 32 ;
33 [label="fare <= 50.0\ngini = 0.499\nsamples = 24\nvalue = [19, 21]\nclass = 1", fillcolor="#399de518"] ;
32 -> 33 ;
34 [label="gini = 0.494\nsamples = 23\nvalue = [17, 21]\nclass = 1", fillcolor="#399de531"] ;
33 -> 34 ;
35 [label="gini = 0.0\nsamples = 1\nvalue = [2, 0]\nclass = 0", fillcolor="#e58139ff"] ;
33 -> 35 ;
36 [label="age <= 59.0\ngini = 0.393\nsamples = 83\nvalue = [95, 35]\nclass = 0", fillcolor="#e58139a1"] ;
32 -> 36 ;
37 [label="gini = 0.421\nsamples = 77\nvalue = [81, 35]\nclass = 0", fillcolor="#e5813991"] ;
36 -> 37 ;
38 [label="gini = 0.0\nsamples = 6\nvalue = [14, 0]\nclass = 0", fillcolor="#e58139ff"] ;
36 -> 38 ;
39 [label="pclass <= 2.5\ngini = 0.487\nsamples = 99\nvalue = [59, 82]\nclass = 1", fillcolor="#399de548"] ;
31 -> 39 ;
40 [label="sex <= 0.5\ngini = 0.225\nsamples = 45\nvalue = [8, 54]\nclass = 1", fillcolor="#399de5d9"] ;
39 -> 40 ;
41 [label="gini = 0.455\nsamples = 13\nvalue = [7, 13]\nclass = 1", fillcolor="#399de576"] ;
40 -> 41 ;
42 [label="gini = 0.046\nsamples = 32\nvalue = [1, 41]\nclass = 1", fillcolor="#399de5f9"] ;
40 -> 42 ;
43 [label="fare <= 23.087\ngini = 0.458\nsamples = 54\nvalue = [51, 28]\nclass = 0", fillcolor="#e5813973"] ;
39 -> 43 ;
44 [label="gini = 0.389\nsamples = 20\nvalue = [9, 25]\nclass = 1", fillcolor="#399de5a3"] ;
43 -> 44 ;
45 [label="gini = 0.124\nsamples = 34\nvalue = [42, 3]\nclass = 0", fillcolor="#e58139ed"] ;
43 -> 45 ;
46 [label="fare <= 59.7\ngini = 0.43\nsamples = 116\nvalue = [57, 125]\nclass = 1", fillcolor="#399de58b"] ;
30 -> 46 ;
47 [label="gini = 0.0\nsamples = 16\nvalue = [0, 26]\nclass = 1", fillcolor="#399de5ff"] ;
46 -> 47 ;
48 [label="sibsp <= 1.5\ngini = 0.464\nsamples = 100\nvalue = [57, 99]\nclass = 1", fillcolor="#399de56c"] ;
46 -> 48 ;
49 [label="fare <= 62.669\ngini = 0.436\nsamples = 92\nvalue = [45, 95]\nclass = 1", fillcolor="#399de586"] ;
48 -> 49 ;
50 [label="gini = 0.397\nsamples = 6\nvalue = [8, 3]\nclass = 0", fillcolor="#e581399f"] ;
49 -> 50 ;
51 [label="gini = 0.409\nsamples = 86\nvalue = [37, 92]\nclass = 1", fillcolor="#399de598"] ;
49 -> 51 ;
52 [label="fare <= 111.825\ngini = 0.375\nsamples = 8\nvalue = [12, 4]\nclass = 0", fillcolor="#e58139aa"] ;
48 -> 52 ;
53 [label="gini = 0.0\nsamples = 4\nvalue = [10, 0]\nclass = 0", fillcolor="#e58139ff"] ;
52 -> 53 ;
54 [label="gini = 0.444\nsamples = 4\nvalue = [2, 4]\nclass = 1", fillcolor="#399de57f"] ;
52 -> 54 ;
{rank=same ; 0} ;
{rank=same ; 1; 30} ;
{rank=same ; 2; 17; 31; 46} ;
{rank=same ; 3; 10; 18; 23; 32; 39; 48} ;
{rank=same ; 4; 7; 11; 14; 20; 24; 27; 33; 36; 40; 43; 49; 52} ;
{rank=same ; 5; 6; 8; 9; 12; 13; 15; 16; 19; 21; 22; 25; 26; 28; 29; 34; 35; 37; 38; 41; 42; 44; 45; 47; 50; 51; 53; 54} ;
}