digraph Tree {
node [shape=box, style="filled", color="black"] ;
graph [ranksep=equally, splines=polyline] ;
0 [label="parch <= 0.5\ngini = 0.48\nsamples = 644\nvalue = [609, 404]\nclass = 0", fillcolor="#e5813956"] ;
1 [label="sex <= 0.5\ngini = 0.451\nsamples = 480\nvalue = [491, 257]\nclass = 0", fillcolor="#e581397a"] ;
0 -> 1 [labeldistance=2.5, labelangle=45, headlabel="True"] ;
2 [label="age <= 77.0\ngini = 0.28\nsamples = 328\nvalue = [424, 86]\nclass = 0", fillcolor="#e58139cb"] ;
1 -> 2 ;
3 [label="embarked <= 0.5\ngini = 0.276\nsamples = 327\nvalue = [424, 84]\nclass = 0", fillcolor="#e58139cc"] ;
2 -> 3 ;
4 [label="age <= 26.5\ngini = 0.389\nsamples = 45\nvalue = [50, 18]\nclass = 0", fillcolor="#e58139a3"] ;
3 -> 4 ;
5 [label="gini = 0.486\nsamples = 16\nvalue = [14, 10]\nclass = 0", fillcolor="#e5813949"] ;
4 -> 5 ;
6 [label="gini = 0.298\nsamples = 29\nvalue = [36, 8]\nclass = 0", fillcolor="#e58139c6"] ;
4 -> 6 ;
7 [label="pclass <= 2.5\ngini = 0.255\nsamples = 282\nvalue = [374, 66]\nclass = 0", fillcolor="#e58139d2"] ;
3 -> 7 ;
8 [label="gini = 0.189\nsamples = 123\nvalue = [178, 21]\nclass = 0", fillcolor="#e58139e1"] ;
7 -> 8 ;
9 [label="gini = 0.304\nsamples = 159\nvalue = [196, 45]\nclass = 0", fillcolor="#e58139c4"] ;
7 -> 9 ;
10 [label="gini = 0.0\nsamples = 1\nvalue = [0, 2]\nclass = 1", fillcolor="#399de5ff"] ;
2 -> 10 ;
11 [label="fare <= 9.84\ngini = 0.405\nsamples = 152\nvalue = [67, 171]\nclass = 1", fillcolor="#399de59b"] ;
1 -> 11 ;
12 [label="fare <= 8.356\ngini = 0.472\nsamples = 41\nvalue = [39, 24]\nclass = 0", fillcolor="#e5813962"] ;
11 -> 12 ;
13 [label="age <= 26.5\ngini = 0.5\nsamples = 30\nvalue = [23, 22]\nclass = 0", fillcolor="#e581390b"] ;
12 -> 13 ;
14 [label="gini = 0.451\nsamples = 20\nvalue = [11, 21]\nclass = 1", fillcolor="#399de579"] ;
13 -> 14 ;
15 [label="gini = 0.142\nsamples = 10\nvalue = [12, 1]\nclass = 0", fillcolor="#e58139ea"] ;
13 -> 15 ;
16 [label="fare <= 8.906\ngini = 0.198\nsamples = 11\nvalue = [16, 2]\nclass = 0", fillcolor="#e58139df"] ;
12 -> 16 ;
17 [label="gini = 0.0\nsamples = 5\nvalue = [7, 0]\nclass = 0", fillcolor="#e58139ff"] ;
16 -> 17 ;
18 [label="gini = 0.298\nsamples = 6\nvalue = [9, 2]\nclass = 0", fillcolor="#e58139c6"] ;
16 -> 18 ;
19 [label="pclass <= 2.5\ngini = 0.269\nsamples = 111\nvalue = [28, 147]\nclass = 1", fillcolor="#399de5ce"] ;
11 -> 19 ;
20 [label="fare <= 35.64\ngini = 0.168\nsamples = 94\nvalue = [14, 137]\nclass = 1", fillcolor="#399de5e5"] ;
19 -> 20 ;
21 [label="gini = 0.267\nsamples = 48\nvalue = [13, 69]\nclass = 1", fillcolor="#399de5cf"] ;
20 -> 21 ;
22 [label="gini = 0.029\nsamples = 46\nvalue = [1, 68]\nclass = 1", fillcolor="#399de5fb"] ;
20 -> 22 ;
23 [label="fare <= 14.281\ngini = 0.486\nsamples = 17\nvalue = [14, 10]\nclass = 0", fillcolor="#e5813949"] ;
19 -> 23 ;
24 [label="gini = 0.219\nsamples = 5\nvalue = [1, 7]\nclass = 1", fillcolor="#399de5db"] ;
23 -> 24 ;
25 [label="gini = 0.305\nsamples = 12\nvalue = [13, 3]\nclass = 0", fillcolor="#e58139c4"] ;
23 -> 25 ;
26 [label="fare <= 48.2\ngini = 0.494\nsamples = 164\nvalue = [118, 147]\nclass = 1", fillcolor="#399de532"] ;
0 -> 26 [labeldistance=2.5, labelangle=-45, headlabel="False"] ;
27 [label="sibsp <= 2.5\ngini = 0.499\nsamples = 114\nvalue = [97, 88]\nclass = 0", fillcolor="#e5813918"] ;
26 -> 27 ;
28 [label="fare <= 23.575\ngini = 0.489\nsamples = 91\nvalue = [63, 85]\nclass = 1", fillcolor="#399de542"] ;
27 -> 28 ;
29 [label="sex <= 0.5\ngini = 0.447\nsamples = 45\nvalue = [26, 51]\nclass = 1", fillcolor="#399de57d"] ;
28 -> 29 ;
30 [label="gini = 0.5\nsamples = 20\nvalue = [17, 18]\nclass = 1", fillcolor="#399de50e"] ;
29 -> 30 ;
31 [label="gini = 0.337\nsamples = 25\nvalue = [9, 33]\nclass = 1", fillcolor="#399de5b9"] ;
29 -> 31 ;
32 [label="fare <= 38.002\ngini = 0.499\nsamples = 46\nvalue = [37, 34]\nclass = 0", fillcolor="#e5813915"] ;
28 -> 32 ;
33 [label="gini = 0.484\nsamples = 39\nvalue = [36, 25]\nclass = 0", fillcolor="#e581394e"] ;
32 -> 33 ;
34 [label="gini = 0.18\nsamples = 7\nvalue = [1, 9]\nclass = 1", fillcolor="#399de5e3"] ;
32 -> 34 ;
35 [label="fare <= 24.962\ngini = 0.149\nsamples = 23\nvalue = [34, 3]\nclass = 0", fillcolor="#e58139e9"] ;
27 -> 35 ;
36 [label="fare <= 21.55\ngini = 0.444\nsamples = 5\nvalue = [4, 2]\nclass = 0", fillcolor="#e581397f"] ;
35 -> 36 ;
37 [label="gini = 0.32\nsamples = 4\nvalue = [4, 1]\nclass = 0", fillcolor="#e58139bf"] ;
36 -> 37 ;
38 [label="gini = 0.0\nsamples = 1\nvalue = [0, 1]\nclass = 1", fillcolor="#399de5ff"] ;
36 -> 38 ;
39 [label="fare <= 31.331\ngini = 0.062\nsamples = 18\nvalue = [30, 1]\nclass = 0", fillcolor="#e58139f6"] ;
35 -> 39 ;
40 [label="gini = 0.0\nsamples = 9\nvalue = [14, 0]\nclass = 0", fillcolor="#e58139ff"] ;
39 -> 40 ;
41 [label="gini = 0.111\nsamples = 9\nvalue = [16, 1]\nclass = 0", fillcolor="#e58139ef"] ;
39 -> 41 ;
42 [label="fare <= 60.39\ngini = 0.387\nsamples = 50\nvalue = [21, 59]\nclass = 1", fillcolor="#399de5a4"] ;
26 -> 42 ;
43 [label="gini = 0.0\nsamples = 5\nvalue = [0, 11]\nclass = 1", fillcolor="#399de5ff"] ;
42 -> 43 ;
44 [label="sex <= 0.5\ngini = 0.423\nsamples = 45\nvalue = [21, 48]\nclass = 1", fillcolor="#399de58f"] ;
42 -> 44 ;
45 [label="embarked <= 1.0\ngini = 0.48\nsamples = 22\nvalue = [21, 14]\nclass = 0", fillcolor="#e5813955"] ;
44 -> 45 ;
46 [label="gini = 0.499\nsamples = 12\nvalue = [10, 9]\nclass = 0", fillcolor="#e5813919"] ;
45 -> 46 ;
47 [label="gini = 0.43\nsamples = 10\nvalue = [11, 5]\nclass = 0", fillcolor="#e581398b"] ;
45 -> 47 ;
48 [label="gini = 0.0\nsamples = 23\nvalue = [0, 34]\nclass = 1", fillcolor="#399de5ff"] ;
44 -> 48 ;
{rank=same ; 0} ;
{rank=same ; 1; 26} ;
{rank=same ; 2; 11; 27; 42} ;
{rank=same ; 3; 12; 19; 28; 35; 44} ;
{rank=same ; 4; 7; 13; 16; 20; 23; 29; 32; 36; 39; 45} ;
{rank=same ; 5; 6; 8; 9; 10; 14; 15; 17; 18; 21; 22; 24; 25; 30; 31; 33; 34; 37; 38; 40; 41; 43; 46; 47; 48} ;
}