digraph Tree {
node [shape=box, style="filled", color="black"] ;
graph [ranksep=equally, splines=polyline] ;
0 [label="pclass <= 2.5\ngini = 0.481\nsamples = 645\nvalue = [606, 407]\nclass = 0", fillcolor="#e5813954"] ;
1 [label="parch <= 0.5\ngini = 0.497\nsamples = 320\nvalue = [234, 270]\nclass = 1", fillcolor="#399de522"] ;
0 -> 1 [labeldistance=2.5, labelangle=45, headlabel="True"] ;
2 [label="pclass <= 1.5\ngini = 0.49\nsamples = 228\nvalue = [202, 153]\nclass = 0", fillcolor="#e581393e"] ;
1 -> 2 ;
3 [label="age <= 45.25\ngini = 0.497\nsamples = 114\nvalue = [82, 95]\nclass = 1", fillcolor="#399de523"] ;
2 -> 3 ;
4 [label="fare <= 15.644\ngini = 0.46\nsamples = 76\nvalue = [43, 77]\nclass = 1", fillcolor="#399de571"] ;
3 -> 4 ;
5 [label="gini = 0.0\nsamples = 2\nvalue = [5, 0]\nclass = 0", fillcolor="#e58139ff"] ;
4 -> 5 ;
6 [label="gini = 0.442\nsamples = 74\nvalue = [38, 77]\nclass = 1", fillcolor="#399de581"] ;
4 -> 6 ;
7 [label="sex <= 0.5\ngini = 0.432\nsamples = 38\nvalue = [39, 18]\nclass = 0", fillcolor="#e5813989"] ;
3 -> 7 ;
8 [label="gini = 0.258\nsamples = 29\nvalue = [39, 7]\nclass = 0", fillcolor="#e58139d1"] ;
7 -> 8 ;
9 [label="gini = 0.0\nsamples = 9\nvalue = [0, 11]\nclass = 1", fillcolor="#399de5ff"] ;
7 -> 9 ;
10 [label="fare <= 50.875\ngini = 0.439\nsamples = 114\nvalue = [120, 58]\nclass = 0", fillcolor="#e5813984"] ;
2 -> 10 ;
11 [label="sibsp <= 2.5\ngini = 0.452\nsamples = 107\nvalue = [110, 58]\nclass = 0", fillcolor="#e5813979"] ;
10 -> 11 ;
12 [label="gini = 0.439\nsamples = 106\nvalue = [110, 53]\nclass = 0", fillcolor="#e5813984"] ;
11 -> 12 ;
13 [label="gini = 0.0\nsamples = 1\nvalue = [0, 5]\nclass = 1", fillcolor="#399de5ff"] ;
11 -> 13 ;
14 [label="gini = 0.0\nsamples = 7\nvalue = [10, 0]\nclass = 0", fillcolor="#e58139ff"] ;
10 -> 14 ;
15 [label="parch <= 1.5\ngini = 0.337\nsamples = 92\nvalue = [32, 117]\nclass = 1", fillcolor="#399de5b9"] ;
1 -> 15 ;
16 [label="age <= 53.5\ngini = 0.396\nsamples = 58\nvalue = [25, 67]\nclass = 1", fillcolor="#399de5a0"] ;
15 -> 16 ;
17 [label="fare <= 38.002\ngini = 0.311\nsamples = 51\nvalue = [15, 63]\nclass = 1", fillcolor="#399de5c2"] ;
16 -> 17 ;
18 [label="gini = 0.452\nsamples = 22\nvalue = [10, 19]\nclass = 1", fillcolor="#399de579"] ;
17 -> 18 ;
19 [label="gini = 0.183\nsamples = 29\nvalue = [5, 44]\nclass = 1", fillcolor="#399de5e2"] ;
17 -> 19 ;
20 [label="sex <= 0.5\ngini = 0.408\nsamples = 7\nvalue = [10, 4]\nclass = 0", fillcolor="#e5813999"] ;
16 -> 20 ;
21 [label="gini = 0.0\nsamples = 5\nvalue = [10, 0]\nclass = 0", fillcolor="#e58139ff"] ;
20 -> 21 ;
22 [label="gini = 0.0\nsamples = 2\nvalue = [0, 4]\nclass = 1", fillcolor="#399de5ff"] ;
20 -> 22 ;
23 [label="embarked <= 1.0\ngini = 0.215\nsamples = 34\nvalue = [7, 50]\nclass = 1", fillcolor="#399de5db"] ;
15 -> 23 ;
24 [label="sex <= 0.5\ngini = 0.337\nsamples = 11\nvalue = [3, 11]\nclass = 1", fillcolor="#399de5b9"] ;
23 -> 24 ;
25 [label="gini = 0.5\nsamples = 4\nvalue = [3, 3]\nclass = 0", fillcolor="#e5813900"] ;
24 -> 25 ;
26 [label="gini = 0.0\nsamples = 7\nvalue = [0, 8]\nclass = 1", fillcolor="#399de5ff"] ;
24 -> 26 ;
27 [label="fare <= 28.875\ngini = 0.169\nsamples = 23\nvalue = [4, 39]\nclass = 1", fillcolor="#399de5e5"] ;
23 -> 27 ;
28 [label="gini = 0.346\nsamples = 9\nvalue = [4, 14]\nclass = 1", fillcolor="#399de5b6"] ;
27 -> 28 ;
29 [label="gini = 0.0\nsamples = 14\nvalue = [0, 25]\nclass = 1", fillcolor="#399de5ff"] ;
27 -> 29 ;
30 [label="fare <= 22.275\ngini = 0.393\nsamples = 325\nvalue = [372, 137]\nclass = 0", fillcolor="#e58139a1"] ;
0 -> 30 [labeldistance=2.5, labelangle=-45, headlabel="False"] ;
31 [label="fare <= 10.825\ngini = 0.418\nsamples = 288\nvalue = [314, 133]\nclass = 0", fillcolor="#e5813993"] ;
30 -> 31 ;
32 [label="fare <= 7.865\ngini = 0.37\nsamples = 217\nvalue = [250, 81]\nclass = 0", fillcolor="#e58139ac"] ;
31 -> 32 ;
33 [label="parch <= 1.5\ngini = 0.42\nsamples = 111\nvalue = [117, 50]\nclass = 0", fillcolor="#e5813992"] ;
32 -> 33 ;
34 [label="gini = 0.422\nsamples = 110\nvalue = [115, 50]\nclass = 0", fillcolor="#e5813990"] ;
33 -> 34 ;
35 [label="gini = 0.0\nsamples = 1\nvalue = [2, 0]\nclass = 0", fillcolor="#e58139ff"] ;
33 -> 35 ;
36 [label="age <= 18.5\ngini = 0.307\nsamples = 106\nvalue = [133, 31]\nclass = 0", fillcolor="#e58139c4"] ;
32 -> 36 ;
37 [label="gini = 0.5\nsamples = 13\nvalue = [12, 12]\nclass = 0", fillcolor="#e5813900"] ;
36 -> 37 ;
38 [label="gini = 0.235\nsamples = 93\nvalue = [121, 19]\nclass = 0", fillcolor="#e58139d7"] ;
36 -> 38 ;
39 [label="fare <= 13.596\ngini = 0.495\nsamples = 71\nvalue = [64, 52]\nclass = 0", fillcolor="#e5813930"] ;
31 -> 39 ;
40 [label="age <= 33.0\ngini = 0.291\nsamples = 11\nvalue = [3, 14]\nclass = 1", fillcolor="#399de5c8"] ;
39 -> 40 ;
41 [label="gini = 0.133\nsamples = 9\nvalue = [1, 13]\nclass = 1", fillcolor="#399de5eb"] ;
40 -> 41 ;
42 [label="gini = 0.444\nsamples = 2\nvalue = [2, 1]\nclass = 0", fillcolor="#e581397f"] ;
40 -> 42 ;
43 [label="sex <= 0.5\ngini = 0.473\nsamples = 60\nvalue = [61, 38]\nclass = 0", fillcolor="#e5813960"] ;
39 -> 43 ;
44 [label="gini = 0.33\nsamples = 29\nvalue = [38, 10]\nclass = 0", fillcolor="#e58139bc"] ;
43 -> 44 ;
45 [label="gini = 0.495\nsamples = 31\nvalue = [23, 28]\nclass = 1", fillcolor="#399de52e"] ;
43 -> 45 ;
46 [label="sex <= 0.5\ngini = 0.121\nsamples = 37\nvalue = [58, 4]\nclass = 0", fillcolor="#e58139ed"] ;
30 -> 46 ;
47 [label="fare <= 31.331\ngini = 0.176\nsamples = 25\nvalue = [37, 4]\nclass = 0", fillcolor="#e58139e3"] ;
46 -> 47 ;
48 [label="gini = 0.0\nsamples = 13\nvalue = [21, 0]\nclass = 0", fillcolor="#e58139ff"] ;
47 -> 48 ;
49 [label="age <= 5.0\ngini = 0.32\nsamples = 12\nvalue = [16, 4]\nclass = 0", fillcolor="#e58139bf"] ;
47 -> 49 ;
50 [label="gini = 0.48\nsamples = 2\nvalue = [2, 3]\nclass = 1", fillcolor="#399de555"] ;
49 -> 50 ;
51 [label="gini = 0.124\nsamples = 10\nvalue = [14, 1]\nclass = 0", fillcolor="#e58139ed"] ;
49 -> 51 ;
52 [label="gini = 0.0\nsamples = 12\nvalue = [21, 0]\nclass = 0", fillcolor="#e58139ff"] ;
46 -> 52 ;
{rank=same ; 0} ;
{rank=same ; 1; 30} ;
{rank=same ; 2; 15; 31; 46} ;
{rank=same ; 3; 10; 16; 23; 32; 39; 47} ;
{rank=same ; 4; 7; 11; 17; 20; 24; 27; 33; 36; 40; 43; 49} ;
{rank=same ; 5; 6; 8; 9; 12; 13; 14; 18; 19; 21; 22; 25; 26; 28; 29; 34; 35; 37; 38; 41; 42; 44; 45; 48; 50; 51; 52} ;
}