digraph Tree {
node [shape=box, style="filled", color="black"] ;
graph [ranksep=equally, splines=polyline] ;
0 [label="embarked <= 0.5\ngini = 0.481\nsamples = 648\nvalue = [604, 409]\nclass = 0", fillcolor="#e5813952"] ;
1 [label="age <= 5.5\ngini = 0.465\nsamples = 130\nvalue = [78, 134]\nclass = 1", fillcolor="#399de56b"] ;
0 -> 1 [labeldistance=2.5, labelangle=45, headlabel="True"] ;
2 [label="gini = 0.0\nsamples = 7\nvalue = [0, 13]\nclass = 1", fillcolor="#399de5ff"] ;
1 -> 2 ;
3 [label="sex <= 0.5\ngini = 0.477\nsamples = 123\nvalue = [78, 121]\nclass = 1", fillcolor="#399de55b"] ;
1 -> 3 ;
4 [label="fare <= 9.952\ngini = 0.438\nsamples = 67\nvalue = [73, 35]\nclass = 0", fillcolor="#e5813985"] ;
3 -> 4 ;
5 [label="fare <= 7.562\ngini = 0.153\nsamples = 16\nvalue = [22, 2]\nclass = 0", fillcolor="#e58139e8"] ;
4 -> 5 ;
6 [label="gini = 0.18\nsamples = 13\nvalue = [18, 2]\nclass = 0", fillcolor="#e58139e3"] ;
5 -> 6 ;
7 [label="gini = 0.0\nsamples = 3\nvalue = [4, 0]\nclass = 0", fillcolor="#e58139ff"] ;
5 -> 7 ;
8 [label="age <= 26.5\ngini = 0.477\nsamples = 51\nvalue = [51, 33]\nclass = 0", fillcolor="#e581395a"] ;
4 -> 8 ;
9 [label="gini = 0.465\nsamples = 13\nvalue = [7, 12]\nclass = 1", fillcolor="#399de56a"] ;
8 -> 9 ;
10 [label="gini = 0.437\nsamples = 38\nvalue = [44, 21]\nclass = 0", fillcolor="#e5813985"] ;
8 -> 10 ;
11 [label="pclass <= 2.5\ngini = 0.104\nsamples = 56\nvalue = [5, 86]\nclass = 1", fillcolor="#399de5f0"] ;
3 -> 11 ;
12 [label="gini = 0.0\nsamples = 46\nvalue = [0, 75]\nclass = 1", fillcolor="#399de5ff"] ;
11 -> 12 ;
13 [label="age <= 23.5\ngini = 0.43\nsamples = 10\nvalue = [5, 11]\nclass = 1", fillcolor="#399de58b"] ;
11 -> 13 ;
14 [label="gini = 0.496\nsamples = 8\nvalue = [5, 6]\nclass = 1", fillcolor="#399de52a"] ;
13 -> 14 ;
15 [label="gini = 0.0\nsamples = 2\nvalue = [0, 5]\nclass = 1", fillcolor="#399de5ff"] ;
13 -> 15 ;
16 [label="age <= 5.5\ngini = 0.451\nsamples = 518\nvalue = [526, 275]\nclass = 0", fillcolor="#e581397a"] ;
0 -> 16 [labeldistance=2.5, labelangle=-45, headlabel="False"] ;
17 [label="sibsp <= 2.5\ngini = 0.444\nsamples = 29\nvalue = [15, 30]\nclass = 1", fillcolor="#399de57f"] ;
16 -> 17 ;
18 [label="fare <= 12.235\ngini = 0.313\nsamples = 23\nvalue = [7, 29]\nclass = 1", fillcolor="#399de5c1"] ;
17 -> 18 ;
19 [label="sibsp <= 0.5\ngini = 0.469\nsamples = 5\nvalue = [5, 3]\nclass = 0", fillcolor="#e5813966"] ;
18 -> 19 ;
20 [label="gini = 0.444\nsamples = 2\nvalue = [2, 1]\nclass = 0", fillcolor="#e581397f"] ;
19 -> 20 ;
21 [label="gini = 0.48\nsamples = 3\nvalue = [3, 2]\nclass = 0", fillcolor="#e5813955"] ;
19 -> 21 ;
22 [label="fare <= 20.394\ngini = 0.133\nsamples = 18\nvalue = [2, 26]\nclass = 1", fillcolor="#399de5eb"] ;
18 -> 22 ;
23 [label="gini = 0.278\nsamples = 8\nvalue = [2, 10]\nclass = 1", fillcolor="#399de5cc"] ;
22 -> 23 ;
24 [label="gini = 0.0\nsamples = 10\nvalue = [0, 16]\nclass = 1", fillcolor="#399de5ff"] ;
22 -> 24 ;
25 [label="parch <= 1.5\ngini = 0.198\nsamples = 6\nvalue = [8, 1]\nclass = 0", fillcolor="#e58139df"] ;
17 -> 25 ;
26 [label="gini = 0.0\nsamples = 2\nvalue = [5, 0]\nclass = 0", fillcolor="#e58139ff"] ;
25 -> 26 ;
27 [label="sibsp <= 3.5\ngini = 0.375\nsamples = 4\nvalue = [3, 1]\nclass = 0", fillcolor="#e58139aa"] ;
25 -> 27 ;
28 [label="gini = 0.0\nsamples = 1\nvalue = [1, 0]\nclass = 0", fillcolor="#e58139ff"] ;
27 -> 28 ;
29 [label="gini = 0.444\nsamples = 3\nvalue = [2, 1]\nclass = 0", fillcolor="#e581397f"] ;
27 -> 29 ;
30 [label="sibsp <= 1.5\ngini = 0.438\nsamples = 489\nvalue = [511, 245]\nclass = 0", fillcolor="#e5813985"] ;
16 -> 30 ;
31 [label="sex <= 0.5\ngini = 0.447\nsamples = 453\nvalue = [465, 237]\nclass = 0", fillcolor="#e581397d"] ;
30 -> 31 ;
32 [label="fare <= 4.704\ngini = 0.253\nsamples = 291\nvalue = [385, 67]\nclass = 0", fillcolor="#e58139d3"] ;
31 -> 32 ;
33 [label="gini = 0.346\nsamples = 5\nvalue = [2, 7]\nclass = 1", fillcolor="#399de5b6"] ;
32 -> 33 ;
34 [label="gini = 0.234\nsamples = 286\nvalue = [383, 60]\nclass = 0", fillcolor="#e58139d7"] ;
32 -> 34 ;
35 [label="embarked <= 1.5\ngini = 0.435\nsamples = 162\nvalue = [80, 170]\nclass = 1", fillcolor="#399de587"] ;
31 -> 35 ;
36 [label="gini = 0.444\nsamples = 19\nvalue = [18, 9]\nclass = 0", fillcolor="#e581397f"] ;
35 -> 36 ;
37 [label="gini = 0.401\nsamples = 143\nvalue = [62, 161]\nclass = 1", fillcolor="#399de59d"] ;
35 -> 37 ;
38 [label="sex <= 0.5\ngini = 0.252\nsamples = 36\nvalue = [46, 8]\nclass = 0", fillcolor="#e58139d3"] ;
30 -> 38 ;
39 [label="gini = 0.0\nsamples = 19\nvalue = [29, 0]\nclass = 0", fillcolor="#e58139ff"] ;
38 -> 39 ;
40 [label="parch <= 2.5\ngini = 0.435\nsamples = 17\nvalue = [17, 8]\nclass = 0", fillcolor="#e5813987"] ;
38 -> 40 ;
41 [label="gini = 0.386\nsamples = 16\nvalue = [17, 6]\nclass = 0", fillcolor="#e58139a5"] ;
40 -> 41 ;
42 [label="gini = 0.0\nsamples = 1\nvalue = [0, 2]\nclass = 1", fillcolor="#399de5ff"] ;
40 -> 42 ;
{rank=same ; 0} ;
{rank=same ; 1; 16} ;
{rank=same ; 3; 17; 30} ;
{rank=same ; 4; 11; 18; 25; 31; 38} ;
{rank=same ; 5; 8; 13; 19; 22; 27; 32; 35; 40} ;
{rank=same ; 2; 6; 7; 9; 10; 12; 14; 15; 20; 21; 23; 24; 26; 28; 29; 33; 34; 36; 37; 39; 41; 42} ;
}