digraph Tree {
node [shape=box, style="filled", color="black"] ;
graph [ranksep=equally, splines=polyline] ;
0 [label="sex <= 0.5\ngini = 0.484\nsamples = 655\nvalue = [596, 417]\nclass = 0", fillcolor="#e581394d"] ;
1 [label="pclass <= 1.5\ngini = 0.306\nsamples = 399\nvalue = [478, 111]\nclass = 0", fillcolor="#e58139c4"] ;
0 -> 1 [labeldistance=2.5, labelangle=45, headlabel="True"] ;
2 [label="age <= 35.5\ngini = 0.433\nsamples = 94\nvalue = [97, 45]\nclass = 0", fillcolor="#e5813989"] ;
1 -> 2 ;
3 [label="parch <= 1.5\ngini = 0.5\nsamples = 34\nvalue = [28, 29]\nclass = 1", fillcolor="#399de509"] ;
2 -> 3 ;
4 [label="embarked <= 1.0\ngini = 0.493\nsamples = 29\nvalue = [28, 22]\nclass = 0", fillcolor="#e5813937"] ;
3 -> 4 ;
5 [label="gini = 0.5\nsamples = 15\nvalue = [12, 12]\nclass = 0", fillcolor="#e5813900"] ;
4 -> 5 ;
6 [label="gini = 0.473\nsamples = 14\nvalue = [16, 10]\nclass = 0", fillcolor="#e5813960"] ;
4 -> 6 ;
7 [label="gini = 0.0\nsamples = 5\nvalue = [0, 7]\nclass = 1", fillcolor="#399de5ff"] ;
3 -> 7 ;
8 [label="age <= 47.5\ngini = 0.306\nsamples = 60\nvalue = [69, 16]\nclass = 0", fillcolor="#e58139c4"] ;
2 -> 8 ;
9 [label="fare <= 101.738\ngini = 0.172\nsamples = 27\nvalue = [38, 4]\nclass = 0", fillcolor="#e58139e4"] ;
8 -> 9 ;
10 [label="gini = 0.136\nsamples = 26\nvalue = [38, 3]\nclass = 0", fillcolor="#e58139eb"] ;
9 -> 10 ;
11 [label="gini = 0.0\nsamples = 1\nvalue = [0, 1]\nclass = 1", fillcolor="#399de5ff"] ;
9 -> 11 ;
12 [label="age <= 56.5\ngini = 0.402\nsamples = 33\nvalue = [31, 12]\nclass = 0", fillcolor="#e581399c"] ;
8 -> 12 ;
13 [label="gini = 0.486\nsamples = 17\nvalue = [14, 10]\nclass = 0", fillcolor="#e5813949"] ;
12 -> 13 ;
14 [label="gini = 0.188\nsamples = 16\nvalue = [17, 2]\nclass = 0", fillcolor="#e58139e1"] ;
12 -> 14 ;
15 [label="pclass <= 2.5\ngini = 0.252\nsamples = 305\nvalue = [381, 66]\nclass = 0", fillcolor="#e58139d3"] ;
1 -> 15 ;
16 [label="age <= 11.0\ngini = 0.14\nsamples = 91\nvalue = [122, 10]\nclass = 0", fillcolor="#e58139ea"] ;
15 -> 16 ;
17 [label="gini = 0.0\nsamples = 5\nvalue = [0, 6]\nclass = 1", fillcolor="#399de5ff"] ;
16 -> 17 ;
18 [label="fare <= 13.931\ngini = 0.061\nsamples = 86\nvalue = [122, 4]\nclass = 0", fillcolor="#e58139f7"] ;
16 -> 18 ;
19 [label="gini = 0.092\nsamples = 59\nvalue = [79, 4]\nclass = 0", fillcolor="#e58139f2"] ;
18 -> 19 ;
20 [label="gini = 0.0\nsamples = 27\nvalue = [43, 0]\nclass = 0", fillcolor="#e58139ff"] ;
18 -> 20 ;
21 [label="fare <= 7.762\ngini = 0.292\nsamples = 214\nvalue = [259, 56]\nclass = 0", fillcolor="#e58139c8"] ;
15 -> 21 ;
22 [label="fare <= 3.219\ngini = 0.113\nsamples = 55\nvalue = [78, 5]\nclass = 0", fillcolor="#e58139ef"] ;
21 -> 22 ;
23 [label="gini = 0.5\nsamples = 2\nvalue = [1, 1]\nclass = 0", fillcolor="#e5813900"] ;
22 -> 23 ;
24 [label="gini = 0.094\nsamples = 53\nvalue = [77, 4]\nclass = 0", fillcolor="#e58139f2"] ;
22 -> 24 ;
25 [label="embarked <= 0.5\ngini = 0.343\nsamples = 159\nvalue = [181, 51]\nclass = 0", fillcolor="#e58139b7"] ;
21 -> 25 ;
26 [label="gini = 0.497\nsamples = 9\nvalue = [7, 6]\nclass = 0", fillcolor="#e5813924"] ;
25 -> 26 ;
27 [label="gini = 0.327\nsamples = 150\nvalue = [174, 45]\nclass = 0", fillcolor="#e58139bd"] ;
25 -> 27 ;
28 [label="sibsp <= 2.5\ngini = 0.402\nsamples = 256\nvalue = [118, 306]\nclass = 1", fillcolor="#399de59d"] ;
0 -> 28 [labeldistance=2.5, labelangle=-45, headlabel="False"] ;
29 [label="fare <= 18.375\ngini = 0.389\nsamples = 242\nvalue = [105, 292]\nclass = 1", fillcolor="#399de5a3"] ;
28 -> 29 ;
30 [label="sibsp <= 0.5\ngini = 0.5\nsamples = 100\nvalue = [83, 86]\nclass = 1", fillcolor="#399de509"] ;
29 -> 30 ;
31 [label="age <= 16.5\ngini = 0.472\nsamples = 72\nvalue = [45, 73]\nclass = 1", fillcolor="#399de562"] ;
30 -> 31 ;
32 [label="gini = 0.0\nsamples = 7\nvalue = [0, 12]\nclass = 1", fillcolor="#399de5ff"] ;
31 -> 32 ;
33 [label="gini = 0.489\nsamples = 65\nvalue = [45, 61]\nclass = 1", fillcolor="#399de543"] ;
31 -> 33 ;
34 [label="pclass <= 2.5\ngini = 0.38\nsamples = 28\nvalue = [38, 13]\nclass = 0", fillcolor="#e58139a8"] ;
30 -> 34 ;
35 [label="gini = 0.48\nsamples = 2\nvalue = [2, 3]\nclass = 1", fillcolor="#399de555"] ;
34 -> 35 ;
36 [label="gini = 0.34\nsamples = 26\nvalue = [36, 10]\nclass = 0", fillcolor="#e58139b8"] ;
34 -> 36 ;
37 [label="pclass <= 2.5\ngini = 0.174\nsamples = 142\nvalue = [22, 206]\nclass = 1", fillcolor="#399de5e4"] ;
29 -> 37 ;
38 [label="embarked <= 1.5\ngini = 0.078\nsamples = 123\nvalue = [8, 190]\nclass = 1", fillcolor="#399de5f4"] ;
37 -> 38 ;
39 [label="gini = 0.049\nsamples = 49\nvalue = [2, 78]\nclass = 1", fillcolor="#399de5f8"] ;
38 -> 39 ;
40 [label="gini = 0.097\nsamples = 74\nvalue = [6, 112]\nclass = 1", fillcolor="#399de5f1"] ;
38 -> 40 ;
41 [label="embarked <= 0.5\ngini = 0.498\nsamples = 19\nvalue = [14, 16]\nclass = 1", fillcolor="#399de520"] ;
37 -> 41 ;
42 [label="gini = 0.0\nsamples = 4\nvalue = [0, 10]\nclass = 1", fillcolor="#399de5ff"] ;
41 -> 42 ;
43 [label="gini = 0.42\nsamples = 15\nvalue = [14, 6]\nclass = 0", fillcolor="#e5813992"] ;
41 -> 43 ;
44 [label="age <= 16.5\ngini = 0.499\nsamples = 14\nvalue = [13, 14]\nclass = 1", fillcolor="#399de512"] ;
28 -> 44 ;
45 [label="sibsp <= 3.5\ngini = 0.142\nsamples = 8\nvalue = [12, 1]\nclass = 0", fillcolor="#e58139ea"] ;
44 -> 45 ;
46 [label="gini = 0.0\nsamples = 4\nvalue = [7, 0]\nclass = 0", fillcolor="#e58139ff"] ;
45 -> 46 ;
47 [label="sibsp <= 4.5\ngini = 0.278\nsamples = 4\nvalue = [5, 1]\nclass = 0", fillcolor="#e58139cc"] ;
45 -> 47 ;
48 [label="gini = 0.375\nsamples = 3\nvalue = [3, 1]\nclass = 0", fillcolor="#e58139aa"] ;
47 -> 48 ;
49 [label="gini = 0.0\nsamples = 1\nvalue = [2, 0]\nclass = 0", fillcolor="#e58139ff"] ;
47 -> 49 ;
50 [label="pclass <= 2.5\ngini = 0.133\nsamples = 6\nvalue = [1, 13]\nclass = 1", fillcolor="#399de5eb"] ;
44 -> 50 ;
51 [label="gini = 0.0\nsamples = 4\nvalue = [0, 10]\nclass = 1", fillcolor="#399de5ff"] ;
50 -> 51 ;
52 [label="age <= 27.5\ngini = 0.375\nsamples = 2\nvalue = [1, 3]\nclass = 1", fillcolor="#399de5aa"] ;
50 -> 52 ;
53 [label="gini = 0.0\nsamples = 1\nvalue = [0, 3]\nclass = 1", fillcolor="#399de5ff"] ;
52 -> 53 ;
54 [label="gini = 0.0\nsamples = 1\nvalue = [1, 0]\nclass = 0", fillcolor="#e58139ff"] ;
52 -> 54 ;
{rank=same ; 0} ;
{rank=same ; 1; 28} ;
{rank=same ; 2; 15; 29; 44} ;
{rank=same ; 3; 8; 16; 21; 30; 37; 45; 50} ;
{rank=same ; 4; 9; 12; 18; 22; 25; 31; 34; 38; 41; 47; 52} ;
{rank=same ; 5; 6; 7; 10; 11; 13; 14; 17; 19; 20; 23; 24; 26; 27; 32; 33; 35; 36; 39; 40; 42; 43; 46; 48; 49; 51; 53; 54} ;
}