digraph Tree {
node [shape=box, style="filled", color="black"] ;
graph [ranksep=equally, splines=polyline] ;
0 [label="pclass <= 2.5\ngini = 0.477\nsamples = 642\nvalue = [615, 398]\nclass = 0", fillcolor="#e581395a"] ;
1 [label="sex <= 0.5\ngini = 0.498\nsamples = 318\nvalue = [222, 254]\nclass = 1", fillcolor="#399de520"] ;
0 -> 1 [labeldistance=2.5, labelangle=45, headlabel="True"] ;
2 [label="parch <= 0.5\ngini = 0.377\nsamples = 186\nvalue = [211, 71]\nclass = 0", fillcolor="#e58139a9"] ;
1 -> 2 ;
3 [label="fare <= 26.144\ngini = 0.299\nsamples = 152\nvalue = [188, 42]\nclass = 0", fillcolor="#e58139c6"] ;
2 -> 3 ;
4 [label="sibsp <= 0.5\ngini = 0.15\nsamples = 71\nvalue = [101, 9]\nclass = 0", fillcolor="#e58139e8"] ;
3 -> 4 ;
5 [label="gini = 0.159\nsamples = 60\nvalue = [84, 8]\nclass = 0", fillcolor="#e58139e7"] ;
4 -> 5 ;
6 [label="gini = 0.105\nsamples = 11\nvalue = [17, 1]\nclass = 0", fillcolor="#e58139f0"] ;
4 -> 6 ;
7 [label="embarked <= 0.5\ngini = 0.399\nsamples = 81\nvalue = [87, 33]\nclass = 0", fillcolor="#e581399e"] ;
3 -> 7 ;
8 [label="gini = 0.42\nsamples = 30\nvalue = [28, 12]\nclass = 0", fillcolor="#e5813992"] ;
7 -> 8 ;
9 [label="gini = 0.387\nsamples = 51\nvalue = [59, 21]\nclass = 0", fillcolor="#e58139a4"] ;
7 -> 9 ;
10 [label="age <= 18.0\ngini = 0.493\nsamples = 34\nvalue = [23, 29]\nclass = 1", fillcolor="#399de535"] ;
2 -> 10 ;
11 [label="gini = 0.0\nsamples = 13\nvalue = [0, 23]\nclass = 1", fillcolor="#399de5ff"] ;
10 -> 11 ;
12 [label="sibsp <= 2.0\ngini = 0.328\nsamples = 21\nvalue = [23, 6]\nclass = 0", fillcolor="#e58139bc"] ;
10 -> 12 ;
13 [label="gini = 0.337\nsamples = 20\nvalue = [22, 6]\nclass = 0", fillcolor="#e58139b9"] ;
12 -> 13 ;
14 [label="gini = 0.0\nsamples = 1\nvalue = [1, 0]\nclass = 0", fillcolor="#e58139ff"] ;
12 -> 14 ;
15 [label="fare <= 216.64\ngini = 0.107\nsamples = 132\nvalue = [11, 183]\nclass = 1", fillcolor="#399de5f0"] ;
1 -> 15 ;
16 [label="age <= 56.5\ngini = 0.077\nsamples = 119\nvalue = [7, 167]\nclass = 1", fillcolor="#399de5f4"] ;
15 -> 16 ;
17 [label="age <= 29.5\ngini = 0.061\nsamples = 111\nvalue = [5, 155]\nclass = 1", fillcolor="#399de5f7"] ;
16 -> 17 ;
18 [label="gini = 0.114\nsamples = 48\nvalue = [4, 62]\nclass = 1", fillcolor="#399de5ef"] ;
17 -> 18 ;
19 [label="gini = 0.021\nsamples = 63\nvalue = [1, 93]\nclass = 1", fillcolor="#399de5fc"] ;
17 -> 19 ;
20 [label="pclass <= 1.5\ngini = 0.245\nsamples = 8\nvalue = [2, 12]\nclass = 1", fillcolor="#399de5d4"] ;
16 -> 20 ;
21 [label="gini = 0.0\nsamples = 6\nvalue = [0, 12]\nclass = 1", fillcolor="#399de5ff"] ;
20 -> 21 ;
22 [label="gini = 0.0\nsamples = 2\nvalue = [2, 0]\nclass = 0", fillcolor="#e58139ff"] ;
20 -> 22 ;
23 [label="parch <= 0.5\ngini = 0.32\nsamples = 13\nvalue = [4, 16]\nclass = 1", fillcolor="#399de5bf"] ;
15 -> 23 ;
24 [label="sibsp <= 0.5\ngini = 0.444\nsamples = 6\nvalue = [4, 8]\nclass = 1", fillcolor="#399de57f"] ;
23 -> 24 ;
25 [label="gini = 0.0\nsamples = 5\nvalue = [0, 8]\nclass = 1", fillcolor="#399de5ff"] ;
24 -> 25 ;
26 [label="gini = 0.0\nsamples = 1\nvalue = [4, 0]\nclass = 0", fillcolor="#e58139ff"] ;
24 -> 26 ;
27 [label="gini = 0.0\nsamples = 7\nvalue = [0, 8]\nclass = 1", fillcolor="#399de5ff"] ;
23 -> 27 ;
28 [label="age <= 0.917\ngini = 0.392\nsamples = 324\nvalue = [393, 144]\nclass = 0", fillcolor="#e58139a2"] ;
0 -> 28 [labeldistance=2.5, labelangle=-45, headlabel="False"] ;
29 [label="sex <= 0.5\ngini = 0.219\nsamples = 5\nvalue = [1, 7]\nclass = 1", fillcolor="#399de5db"] ;
28 -> 29 ;
30 [label="fare <= 11.562\ngini = 0.32\nsamples = 3\nvalue = [1, 4]\nclass = 1", fillcolor="#399de5bf"] ;
29 -> 30 ;
31 [label="gini = 0.0\nsamples = 2\nvalue = [0, 4]\nclass = 1", fillcolor="#399de5ff"] ;
30 -> 31 ;
32 [label="gini = 0.0\nsamples = 1\nvalue = [1, 0]\nclass = 0", fillcolor="#e58139ff"] ;
30 -> 32 ;
33 [label="gini = 0.0\nsamples = 2\nvalue = [0, 3]\nclass = 1", fillcolor="#399de5ff"] ;
29 -> 33 ;
34 [label="embarked <= 0.5\ngini = 0.384\nsamples = 319\nvalue = [392, 137]\nclass = 0", fillcolor="#e58139a6"] ;
28 -> 34 ;
35 [label="parch <= 1.5\ngini = 0.471\nsamples = 30\nvalue = [31, 19]\nclass = 0", fillcolor="#e5813963"] ;
34 -> 35 ;
36 [label="parch <= 0.5\ngini = 0.444\nsamples = 27\nvalue = [30, 15]\nclass = 0", fillcolor="#e581397f"] ;
35 -> 36 ;
37 [label="gini = 0.391\nsamples = 19\nvalue = [22, 8]\nclass = 0", fillcolor="#e58139a2"] ;
36 -> 37 ;
38 [label="gini = 0.498\nsamples = 8\nvalue = [8, 7]\nclass = 0", fillcolor="#e5813920"] ;
36 -> 38 ;
39 [label="sex <= 0.5\ngini = 0.32\nsamples = 3\nvalue = [1, 4]\nclass = 1", fillcolor="#399de5bf"] ;
35 -> 39 ;
40 [label="gini = 0.0\nsamples = 1\nvalue = [1, 0]\nclass = 0", fillcolor="#e58139ff"] ;
39 -> 40 ;
41 [label="gini = 0.0\nsamples = 2\nvalue = [0, 4]\nclass = 1", fillcolor="#399de5ff"] ;
39 -> 41 ;
42 [label="fare <= 22.275\ngini = 0.371\nsamples = 289\nvalue = [361, 118]\nclass = 0", fillcolor="#e58139ac"] ;
34 -> 42 ;
43 [label="sex <= 0.5\ngini = 0.402\nsamples = 246\nvalue = [297, 115]\nclass = 0", fillcolor="#e581399c"] ;
42 -> 43 ;
44 [label="gini = 0.314\nsamples = 179\nvalue = [247, 60]\nclass = 0", fillcolor="#e58139c1"] ;
43 -> 44 ;
45 [label="gini = 0.499\nsamples = 67\nvalue = [50, 55]\nclass = 1", fillcolor="#399de517"] ;
43 -> 45 ;
46 [label="parch <= 4.5\ngini = 0.086\nsamples = 43\nvalue = [64, 3]\nclass = 0", fillcolor="#e58139f3"] ;
42 -> 46 ;
47 [label="gini = 0.064\nsamples = 37\nvalue = [58, 2]\nclass = 0", fillcolor="#e58139f6"] ;
46 -> 47 ;
48 [label="gini = 0.245\nsamples = 6\nvalue = [6, 1]\nclass = 0", fillcolor="#e58139d4"] ;
46 -> 48 ;
{rank=same ; 0} ;
{rank=same ; 1; 28} ;
{rank=same ; 2; 15; 29; 34} ;
{rank=same ; 3; 10; 16; 23; 30; 35; 42} ;
{rank=same ; 4; 7; 12; 17; 20; 24; 36; 39; 43; 46} ;
{rank=same ; 5; 6; 8; 9; 11; 13; 14; 18; 19; 21; 22; 25; 26; 27; 31; 32; 33; 37; 38; 40; 41; 44; 45; 47; 48} ;
}