digraph Tree {
node [shape=box, style="filled", color="black"] ;
graph [ranksep=equally, splines=polyline] ;
0 [label="pclass <= 1.5\ngini = 0.479\nsamples = 633\nvalue = [611, 402]\nclass = 0", fillcolor="#e5813957"] ;
1 [label="age <= 39.5\ngini = 0.462\nsamples = 169\nvalue = [98, 173]\nclass = 1", fillcolor="#399de56f"] ;
0 -> 1 [labeldistance=2.5, labelangle=45, headlabel="True"] ;
2 [label="embarked <= 1.5\ngini = 0.377\nsamples = 91\nvalue = [37, 110]\nclass = 1", fillcolor="#399de5a9"] ;
1 -> 2 ;
3 [label="embarked <= 0.5\ngini = 0.274\nsamples = 44\nvalue = [11, 56]\nclass = 1", fillcolor="#399de5cd"] ;
2 -> 3 ;
4 [label="parch <= 0.5\ngini = 0.285\nsamples = 42\nvalue = [11, 53]\nclass = 1", fillcolor="#399de5ca"] ;
3 -> 4 ;
5 [label="gini = 0.278\nsamples = 27\nvalue = [7, 35]\nclass = 1", fillcolor="#399de5cc"] ;
4 -> 5 ;
6 [label="gini = 0.298\nsamples = 15\nvalue = [4, 18]\nclass = 1", fillcolor="#399de5c6"] ;
4 -> 6 ;
7 [label="gini = 0.0\nsamples = 2\nvalue = [0, 3]\nclass = 1", fillcolor="#399de5ff"] ;
3 -> 7 ;
8 [label="sex <= 0.5\ngini = 0.439\nsamples = 47\nvalue = [26, 54]\nclass = 1", fillcolor="#399de584"] ;
2 -> 8 ;
9 [label="age <= 25.5\ngini = 0.464\nsamples = 24\nvalue = [26, 15]\nclass = 0", fillcolor="#e581396c"] ;
8 -> 9 ;
10 [label="gini = 0.153\nsamples = 7\nvalue = [11, 1]\nclass = 0", fillcolor="#e58139e8"] ;
9 -> 10 ;
11 [label="gini = 0.499\nsamples = 17\nvalue = [15, 14]\nclass = 0", fillcolor="#e5813911"] ;
9 -> 11 ;
12 [label="gini = 0.0\nsamples = 23\nvalue = [0, 39]\nclass = 1", fillcolor="#399de5ff"] ;
8 -> 12 ;
13 [label="fare <= 52.277\ngini = 0.5\nsamples = 78\nvalue = [61, 63]\nclass = 1", fillcolor="#399de508"] ;
1 -> 13 ;
14 [label="age <= 43.5\ngini = 0.472\nsamples = 34\nvalue = [34, 21]\nclass = 0", fillcolor="#e5813961"] ;
13 -> 14 ;
15 [label="embarked <= 1.0\ngini = 0.133\nsamples = 7\nvalue = [13, 1]\nclass = 0", fillcolor="#e58139eb"] ;
14 -> 15 ;
16 [label="gini = 0.0\nsamples = 1\nvalue = [3, 0]\nclass = 0", fillcolor="#e58139ff"] ;
15 -> 16 ;
17 [label="gini = 0.165\nsamples = 6\nvalue = [10, 1]\nclass = 0", fillcolor="#e58139e6"] ;
15 -> 17 ;
18 [label="fare <= 25.965\ngini = 0.5\nsamples = 27\nvalue = [21, 20]\nclass = 0", fillcolor="#e581390c"] ;
14 -> 18 ;
19 [label="gini = 0.0\nsamples = 3\nvalue = [0, 4]\nclass = 1", fillcolor="#399de5ff"] ;
18 -> 19 ;
20 [label="gini = 0.491\nsamples = 24\nvalue = [21, 16]\nclass = 0", fillcolor="#e581393d"] ;
18 -> 20 ;
21 [label="fare <= 58.69\ngini = 0.476\nsamples = 44\nvalue = [27, 42]\nclass = 1", fillcolor="#399de55b"] ;
13 -> 21 ;
22 [label="gini = 0.0\nsamples = 4\nvalue = [0, 7]\nclass = 1", fillcolor="#399de5ff"] ;
21 -> 22 ;
23 [label="fare <= 75.771\ngini = 0.492\nsamples = 40\nvalue = [27, 35]\nclass = 1", fillcolor="#399de53a"] ;
21 -> 23 ;
24 [label="gini = 0.444\nsamples = 9\nvalue = [10, 5]\nclass = 0", fillcolor="#e581397f"] ;
23 -> 24 ;
25 [label="gini = 0.462\nsamples = 31\nvalue = [17, 30]\nclass = 1", fillcolor="#399de56e"] ;
23 -> 25 ;
26 [label="sex <= 0.5\ngini = 0.427\nsamples = 464\nvalue = [513, 229]\nclass = 0", fillcolor="#e581398d"] ;
0 -> 26 [labeldistance=2.5, labelangle=-45, headlabel="False"] ;
27 [label="pclass <= 2.5\ngini = 0.237\nsamples = 313\nvalue = [433, 69]\nclass = 0", fillcolor="#e58139d6"] ;
26 -> 27 ;
28 [label="age <= 11.0\ngini = 0.182\nsamples = 98\nvalue = [142, 16]\nclass = 0", fillcolor="#e58139e2"] ;
27 -> 28 ;
29 [label="gini = 0.0\nsamples = 6\nvalue = [0, 7]\nclass = 1", fillcolor="#399de5ff"] ;
28 -> 29 ;
30 [label="age <= 30.5\ngini = 0.112\nsamples = 92\nvalue = [142, 9]\nclass = 0", fillcolor="#e58139ef"] ;
28 -> 30 ;
31 [label="gini = 0.175\nsamples = 50\nvalue = [84, 9]\nclass = 0", fillcolor="#e58139e4"] ;
30 -> 31 ;
32 [label="gini = 0.0\nsamples = 42\nvalue = [58, 0]\nclass = 0", fillcolor="#e58139ff"] ;
30 -> 32 ;
33 [label="embarked <= 1.5\ngini = 0.261\nsamples = 215\nvalue = [291, 53]\nclass = 0", fillcolor="#e58139d1"] ;
27 -> 33 ;
34 [label="embarked <= 0.5\ngini = 0.23\nsamples = 37\nvalue = [59, 9]\nclass = 0", fillcolor="#e58139d8"] ;
33 -> 34 ;
35 [label="gini = 0.273\nsamples = 23\nvalue = [36, 7]\nclass = 0", fillcolor="#e58139cd"] ;
34 -> 35 ;
36 [label="gini = 0.147\nsamples = 14\nvalue = [23, 2]\nclass = 0", fillcolor="#e58139e9"] ;
34 -> 36 ;
37 [label="sibsp <= 1.5\ngini = 0.268\nsamples = 178\nvalue = [232, 44]\nclass = 0", fillcolor="#e58139cf"] ;
33 -> 37 ;
38 [label="gini = 0.291\nsamples = 163\nvalue = [205, 44]\nclass = 0", fillcolor="#e58139c8"] ;
37 -> 38 ;
39 [label="gini = 0.0\nsamples = 15\nvalue = [27, 0]\nclass = 0", fillcolor="#e58139ff"] ;
37 -> 39 ;
40 [label="embarked <= 0.5\ngini = 0.444\nsamples = 151\nvalue = [80, 160]\nclass = 1", fillcolor="#399de57f"] ;
26 -> 40 ;
41 [label="parch <= 0.5\ngini = 0.198\nsamples = 21\nvalue = [3, 24]\nclass = 1", fillcolor="#399de5df"] ;
40 -> 41 ;
42 [label="age <= 17.5\ngini = 0.133\nsamples = 10\nvalue = [1, 13]\nclass = 1", fillcolor="#399de5eb"] ;
41 -> 42 ;
43 [label="gini = 0.32\nsamples = 4\nvalue = [1, 4]\nclass = 1", fillcolor="#399de5bf"] ;
42 -> 43 ;
44 [label="gini = 0.0\nsamples = 6\nvalue = [0, 9]\nclass = 1", fillcolor="#399de5ff"] ;
42 -> 44 ;
45 [label="pclass <= 2.5\ngini = 0.26\nsamples = 11\nvalue = [2, 11]\nclass = 1", fillcolor="#399de5d1"] ;
41 -> 45 ;
46 [label="gini = 0.0\nsamples = 3\nvalue = [0, 3]\nclass = 1", fillcolor="#399de5ff"] ;
45 -> 46 ;
47 [label="gini = 0.32\nsamples = 8\nvalue = [2, 8]\nclass = 1", fillcolor="#399de5bf"] ;
45 -> 47 ;
48 [label="embarked <= 1.5\ngini = 0.462\nsamples = 130\nvalue = [77, 136]\nclass = 1", fillcolor="#399de56f"] ;
40 -> 48 ;
49 [label="fare <= 7.677\ngini = 0.495\nsamples = 14\nvalue = [11, 9]\nclass = 0", fillcolor="#e581392e"] ;
48 -> 49 ;
50 [label="gini = 0.0\nsamples = 3\nvalue = [3, 0]\nclass = 0", fillcolor="#e58139ff"] ;
49 -> 50 ;
51 [label="gini = 0.498\nsamples = 11\nvalue = [8, 9]\nclass = 1", fillcolor="#399de51c"] ;
49 -> 51 ;
52 [label="pclass <= 2.5\ngini = 0.45\nsamples = 116\nvalue = [66, 127]\nclass = 1", fillcolor="#399de57a"] ;
48 -> 52 ;
53 [label="gini = 0.124\nsamples = 52\nvalue = [6, 84]\nclass = 1", fillcolor="#399de5ed"] ;
52 -> 53 ;
54 [label="gini = 0.486\nsamples = 64\nvalue = [60, 43]\nclass = 0", fillcolor="#e5813948"] ;
52 -> 54 ;
{rank=same ; 0} ;
{rank=same ; 1; 26} ;
{rank=same ; 2; 13; 27; 40} ;
{rank=same ; 3; 8; 14; 21; 28; 33; 41; 48} ;
{rank=same ; 4; 9; 15; 18; 23; 30; 34; 37; 42; 45; 49; 52} ;
{rank=same ; 5; 6; 7; 10; 11; 12; 16; 17; 19; 20; 22; 24; 25; 29; 31; 32; 35; 36; 38; 39; 43; 44; 46; 47; 50; 51; 53; 54} ;
}