digraph Tree {
node [shape=box, style="filled", color="black"] ;
graph [ranksep=equally, splines=polyline] ;
0 [label="pclass <= 1.5\ngini = 0.474\nsamples = 645\nvalue = [622, 391]\nclass = 0", fillcolor="#e581395f"] ;
1 [label="sex <= 0.5\ngini = 0.465\nsamples = 167\nvalue = [97, 167]\nclass = 1", fillcolor="#399de56b"] ;
0 -> 1 [labeldistance=2.5, labelangle=45, headlabel="True"] ;
2 [label="sibsp <= 1.5\ngini = 0.458\nsamples = 93\nvalue = [96, 53]\nclass = 0", fillcolor="#e5813972"] ;
1 -> 2 ;
3 [label="age <= 36.5\ngini = 0.453\nsamples = 92\nvalue = [96, 51]\nclass = 0", fillcolor="#e5813978"] ;
2 -> 3 ;
4 [label="fare <= 77.008\ngini = 0.499\nsamples = 34\nvalue = [29, 32]\nclass = 1", fillcolor="#399de518"] ;
3 -> 4 ;
5 [label="gini = 0.439\nsamples = 21\nvalue = [13, 27]\nclass = 1", fillcolor="#399de584"] ;
4 -> 5 ;
6 [label="gini = 0.363\nsamples = 13\nvalue = [16, 5]\nclass = 0", fillcolor="#e58139af"] ;
4 -> 6 ;
7 [label="age <= 57.0\ngini = 0.344\nsamples = 58\nvalue = [67, 19]\nclass = 0", fillcolor="#e58139b7"] ;
3 -> 7 ;
8 [label="gini = 0.398\nsamples = 46\nvalue = [45, 17]\nclass = 0", fillcolor="#e581399f"] ;
7 -> 8 ;
9 [label="gini = 0.153\nsamples = 12\nvalue = [22, 2]\nclass = 0", fillcolor="#e58139e8"] ;
7 -> 9 ;
10 [label="gini = 0.0\nsamples = 1\nvalue = [0, 2]\nclass = 1", fillcolor="#399de5ff"] ;
2 -> 10 ;
11 [label="sibsp <= 0.5\ngini = 0.017\nsamples = 74\nvalue = [1, 114]\nclass = 1", fillcolor="#399de5fd"] ;
1 -> 11 ;
12 [label="gini = 0.0\nsamples = 38\nvalue = [0, 56]\nclass = 1", fillcolor="#399de5ff"] ;
11 -> 12 ;
13 [label="embarked <= 1.5\ngini = 0.033\nsamples = 36\nvalue = [1, 58]\nclass = 1", fillcolor="#399de5fb"] ;
11 -> 13 ;
14 [label="gini = 0.0\nsamples = 18\nvalue = [0, 31]\nclass = 1", fillcolor="#399de5ff"] ;
13 -> 14 ;
15 [label="parch <= 0.5\ngini = 0.069\nsamples = 18\nvalue = [1, 27]\nclass = 1", fillcolor="#399de5f6"] ;
13 -> 15 ;
16 [label="gini = 0.142\nsamples = 10\nvalue = [1, 12]\nclass = 1", fillcolor="#399de5ea"] ;
15 -> 16 ;
17 [label="gini = 0.0\nsamples = 8\nvalue = [0, 15]\nclass = 1", fillcolor="#399de5ff"] ;
15 -> 17 ;
18 [label="parch <= 0.5\ngini = 0.419\nsamples = 478\nvalue = [525, 224]\nclass = 0", fillcolor="#e5813992"] ;
0 -> 18 [labeldistance=2.5, labelangle=-45, headlabel="False"] ;
19 [label="age <= 13.5\ngini = 0.367\nsamples = 344\nvalue = [414, 132]\nclass = 0", fillcolor="#e58139ae"] ;
18 -> 19 ;
20 [label="sibsp <= 0.5\ngini = 0.32\nsamples = 3\nvalue = [1, 4]\nclass = 1", fillcolor="#399de5bf"] ;
19 -> 20 ;
21 [label="age <= 12.0\ngini = 0.444\nsamples = 2\nvalue = [1, 2]\nclass = 1", fillcolor="#399de57f"] ;
20 -> 21 ;
22 [label="gini = 0.0\nsamples = 1\nvalue = [1, 0]\nclass = 0", fillcolor="#e58139ff"] ;
21 -> 22 ;
23 [label="gini = 0.0\nsamples = 1\nvalue = [0, 2]\nclass = 1", fillcolor="#399de5ff"] ;
21 -> 23 ;
24 [label="gini = 0.0\nsamples = 1\nvalue = [0, 2]\nclass = 1", fillcolor="#399de5ff"] ;
20 -> 24 ;
25 [label="age <= 24.25\ngini = 0.361\nsamples = 341\nvalue = [413, 128]\nclass = 0", fillcolor="#e58139b0"] ;
19 -> 25 ;
26 [label="age <= 21.5\ngini = 0.408\nsamples = 140\nvalue = [160, 64]\nclass = 0", fillcolor="#e5813999"] ;
25 -> 26 ;
27 [label="gini = 0.364\nsamples = 85\nvalue = [108, 34]\nclass = 0", fillcolor="#e58139af"] ;
26 -> 27 ;
28 [label="gini = 0.464\nsamples = 55\nvalue = [52, 30]\nclass = 0", fillcolor="#e581396c"] ;
26 -> 28 ;
29 [label="sibsp <= 2.5\ngini = 0.322\nsamples = 201\nvalue = [253, 64]\nclass = 0", fillcolor="#e58139be"] ;
25 -> 29 ;
30 [label="gini = 0.319\nsamples = 200\nvalue = [253, 63]\nclass = 0", fillcolor="#e58139c0"] ;
29 -> 30 ;
31 [label="gini = 0.0\nsamples = 1\nvalue = [0, 1]\nclass = 1", fillcolor="#399de5ff"] ;
29 -> 31 ;
32 [label="pclass <= 2.5\ngini = 0.496\nsamples = 134\nvalue = [111, 92]\nclass = 0", fillcolor="#e581392c"] ;
18 -> 32 ;
33 [label="parch <= 1.5\ngini = 0.411\nsamples = 52\nvalue = [22, 54]\nclass = 1", fillcolor="#399de597"] ;
32 -> 33 ;
34 [label="fare <= 15.875\ngini = 0.457\nsamples = 32\nvalue = [18, 33]\nclass = 1", fillcolor="#399de574"] ;
33 -> 34 ;
35 [label="gini = 0.0\nsamples = 2\nvalue = [4, 0]\nclass = 0", fillcolor="#e58139ff"] ;
34 -> 35 ;
36 [label="gini = 0.418\nsamples = 30\nvalue = [14, 33]\nclass = 1", fillcolor="#399de593"] ;
34 -> 36 ;
37 [label="age <= 48.5\ngini = 0.269\nsamples = 20\nvalue = [4, 21]\nclass = 1", fillcolor="#399de5ce"] ;
33 -> 37 ;
38 [label="gini = 0.159\nsamples = 19\nvalue = [2, 21]\nclass = 1", fillcolor="#399de5e7"] ;
37 -> 38 ;
39 [label="gini = 0.0\nsamples = 1\nvalue = [2, 0]\nclass = 0", fillcolor="#e58139ff"] ;
37 -> 39 ;
40 [label="sex <= 0.5\ngini = 0.419\nsamples = 82\nvalue = [89, 38]\nclass = 0", fillcolor="#e5813992"] ;
32 -> 40 ;
41 [label="sibsp <= 2.0\ngini = 0.198\nsamples = 37\nvalue = [48, 6]\nclass = 0", fillcolor="#e58139df"] ;
40 -> 41 ;
42 [label="gini = 0.328\nsamples = 21\nvalue = [23, 6]\nclass = 0", fillcolor="#e58139bc"] ;
41 -> 42 ;
43 [label="gini = 0.0\nsamples = 16\nvalue = [25, 0]\nclass = 0", fillcolor="#e58139ff"] ;
41 -> 43 ;
44 [label="embarked <= 0.5\ngini = 0.492\nsamples = 45\nvalue = [41, 32]\nclass = 0", fillcolor="#e5813938"] ;
40 -> 44 ;
45 [label="gini = 0.444\nsamples = 8\nvalue = [3, 6]\nclass = 1", fillcolor="#399de57f"] ;
44 -> 45 ;
46 [label="gini = 0.482\nsamples = 37\nvalue = [38, 26]\nclass = 0", fillcolor="#e5813951"] ;
44 -> 46 ;
{rank=same ; 0} ;
{rank=same ; 1; 18} ;
{rank=same ; 2; 11; 19; 32} ;
{rank=same ; 3; 13; 20; 25; 33; 40} ;
{rank=same ; 4; 7; 15; 21; 26; 29; 34; 37; 41; 44} ;
{rank=same ; 5; 6; 8; 9; 10; 12; 14; 16; 17; 22; 23; 24; 27; 28; 30; 31; 35; 36; 38; 39; 42; 43; 45; 46} ;
}