digraph Tree {
node [shape=box, style="filled", color="black"] ;
graph [ranksep=equally, splines=polyline] ;
0 [label="parch <= 0.5\ngini = 0.492\nsamples = 620\nvalue = [570, 443]\nclass = 0", fillcolor="#e5813939"] ;
1 [label="fare <= 52.277\ngini = 0.465\nsamples = 451\nvalue = [459, 268]\nclass = 0", fillcolor="#e581396a"] ;
0 -> 1 [labeldistance=2.5, labelangle=45, headlabel="True"] ;
2 [label="sex <= 0.5\ngini = 0.426\nsamples = 386\nvalue = [437, 194]\nclass = 0", fillcolor="#e581398e"] ;
1 -> 2 ;
3 [label="age <= 15.0\ngini = 0.28\nsamples = 288\nvalue = [386, 78]\nclass = 0", fillcolor="#e58139cb"] ;
2 -> 3 ;
4 [label="gini = 0.0\nsamples = 2\nvalue = [0, 3]\nclass = 1", fillcolor="#399de5ff"] ;
3 -> 4 ;
5 [label="embarked <= 0.5\ngini = 0.272\nsamples = 286\nvalue = [386, 75]\nclass = 0", fillcolor="#e58139cd"] ;
3 -> 5 ;
6 [label="gini = 0.431\nsamples = 34\nvalue = [37, 17]\nclass = 0", fillcolor="#e581398a"] ;
5 -> 6 ;
7 [label="gini = 0.244\nsamples = 252\nvalue = [349, 58]\nclass = 0", fillcolor="#e58139d5"] ;
5 -> 7 ;
8 [label="age <= 56.0\ngini = 0.424\nsamples = 98\nvalue = [51, 116]\nclass = 1", fillcolor="#399de58f"] ;
2 -> 8 ;
9 [label="age <= 14.75\ngini = 0.412\nsamples = 95\nvalue = [47, 115]\nclass = 1", fillcolor="#399de597"] ;
8 -> 9 ;
10 [label="gini = 0.48\nsamples = 5\nvalue = [6, 4]\nclass = 0", fillcolor="#e5813955"] ;
9 -> 10 ;
11 [label="gini = 0.394\nsamples = 90\nvalue = [41, 111]\nclass = 1", fillcolor="#399de5a1"] ;
9 -> 11 ;
12 [label="sibsp <= 1.5\ngini = 0.32\nsamples = 3\nvalue = [4, 1]\nclass = 0", fillcolor="#e58139bf"] ;
8 -> 12 ;
13 [label="gini = 0.0\nsamples = 2\nvalue = [4, 0]\nclass = 0", fillcolor="#e58139ff"] ;
12 -> 13 ;
14 [label="gini = 0.0\nsamples = 1\nvalue = [0, 1]\nclass = 1", fillcolor="#399de5ff"] ;
12 -> 14 ;
15 [label="embarked <= 1.5\ngini = 0.353\nsamples = 65\nvalue = [22, 74]\nclass = 1", fillcolor="#399de5b3"] ;
1 -> 15 ;
16 [label="fare <= 78.733\ngini = 0.18\nsamples = 33\nvalue = [5, 45]\nclass = 1", fillcolor="#399de5e3"] ;
15 -> 16 ;
17 [label="gini = 0.0\nsamples = 12\nvalue = [0, 19]\nclass = 1", fillcolor="#399de5ff"] ;
16 -> 17 ;
18 [label="embarked <= 0.5\ngini = 0.271\nsamples = 21\nvalue = [5, 26]\nclass = 1", fillcolor="#399de5ce"] ;
16 -> 18 ;
19 [label="gini = 0.285\nsamples = 19\nvalue = [5, 24]\nclass = 1", fillcolor="#399de5ca"] ;
18 -> 19 ;
20 [label="gini = 0.0\nsamples = 2\nvalue = [0, 2]\nclass = 1", fillcolor="#399de5ff"] ;
18 -> 20 ;
21 [label="sibsp <= 1.5\ngini = 0.466\nsamples = 32\nvalue = [17, 29]\nclass = 1", fillcolor="#399de56a"] ;
15 -> 21 ;
22 [label="pclass <= 1.5\ngini = 0.449\nsamples = 31\nvalue = [15, 29]\nclass = 1", fillcolor="#399de57b"] ;
21 -> 22 ;
23 [label="gini = 0.32\nsamples = 24\nvalue = [7, 28]\nclass = 1", fillcolor="#399de5bf"] ;
22 -> 23 ;
24 [label="gini = 0.198\nsamples = 7\nvalue = [8, 1]\nclass = 0", fillcolor="#e58139df"] ;
22 -> 24 ;
25 [label="gini = 0.0\nsamples = 1\nvalue = [2, 0]\nclass = 0", fillcolor="#e58139ff"] ;
21 -> 25 ;
26 [label="fare <= 48.2\ngini = 0.475\nsamples = 169\nvalue = [111, 175]\nclass = 1", fillcolor="#399de55d"] ;
0 -> 26 [labeldistance=2.5, labelangle=-45, headlabel="False"] ;
27 [label="fare <= 39.544\ngini = 0.49\nsamples = 123\nvalue = [87, 115]\nclass = 1", fillcolor="#399de53e"] ;
26 -> 27 ;
28 [label="pclass <= 2.5\ngini = 0.473\nsamples = 110\nvalue = [69, 111]\nclass = 1", fillcolor="#399de560"] ;
27 -> 28 ;
29 [label="sex <= 0.5\ngini = 0.27\nsamples = 39\nvalue = [9, 47]\nclass = 1", fillcolor="#399de5ce"] ;
28 -> 29 ;
30 [label="gini = 0.444\nsamples = 9\nvalue = [8, 4]\nclass = 0", fillcolor="#e581397f"] ;
29 -> 30 ;
31 [label="gini = 0.044\nsamples = 30\nvalue = [1, 43]\nclass = 1", fillcolor="#399de5f9"] ;
29 -> 31 ;
32 [label="sex <= 0.5\ngini = 0.499\nsamples = 71\nvalue = [60, 64]\nclass = 1", fillcolor="#399de510"] ;
28 -> 32 ;
33 [label="gini = 0.498\nsamples = 28\nvalue = [25, 22]\nclass = 0", fillcolor="#e581391f"] ;
32 -> 33 ;
34 [label="gini = 0.496\nsamples = 43\nvalue = [35, 42]\nclass = 1", fillcolor="#399de52a"] ;
32 -> 34 ;
35 [label="sex <= 0.5\ngini = 0.298\nsamples = 13\nvalue = [18, 4]\nclass = 0", fillcolor="#e58139c6"] ;
27 -> 35 ;
36 [label="gini = 0.0\nsamples = 9\nvalue = [15, 0]\nclass = 0", fillcolor="#e58139ff"] ;
35 -> 36 ;
37 [label="pclass <= 2.5\ngini = 0.49\nsamples = 4\nvalue = [3, 4]\nclass = 1", fillcolor="#399de540"] ;
35 -> 37 ;
38 [label="gini = 0.0\nsamples = 2\nvalue = [0, 4]\nclass = 1", fillcolor="#399de5ff"] ;
37 -> 38 ;
39 [label="gini = 0.0\nsamples = 2\nvalue = [3, 0]\nclass = 0", fillcolor="#e58139ff"] ;
37 -> 39 ;
40 [label="parch <= 1.5\ngini = 0.408\nsamples = 46\nvalue = [24, 60]\nclass = 1", fillcolor="#399de599"] ;
26 -> 40 ;
41 [label="age <= 48.0\ngini = 0.491\nsamples = 25\nvalue = [20, 26]\nclass = 1", fillcolor="#399de53b"] ;
40 -> 41 ;
42 [label="sibsp <= 0.5\ngini = 0.308\nsamples = 13\nvalue = [4, 17]\nclass = 1", fillcolor="#399de5c3"] ;
41 -> 42 ;
43 [label="gini = 0.408\nsamples = 8\nvalue = [4, 10]\nclass = 1", fillcolor="#399de599"] ;
42 -> 43 ;
44 [label="gini = 0.0\nsamples = 5\nvalue = [0, 7]\nclass = 1", fillcolor="#399de5ff"] ;
42 -> 44 ;
45 [label="age <= 51.5\ngini = 0.461\nsamples = 12\nvalue = [16, 9]\nclass = 0", fillcolor="#e5813970"] ;
41 -> 45 ;
46 [label="gini = 0.219\nsamples = 4\nvalue = [7, 1]\nclass = 0", fillcolor="#e58139db"] ;
45 -> 46 ;
47 [label="gini = 0.498\nsamples = 8\nvalue = [9, 8]\nclass = 0", fillcolor="#e581391c"] ;
45 -> 47 ;
48 [label="age <= 54.5\ngini = 0.188\nsamples = 21\nvalue = [4, 34]\nclass = 1", fillcolor="#399de5e1"] ;
40 -> 48 ;
49 [label="pclass <= 2.5\ngini = 0.111\nsamples = 18\nvalue = [2, 32]\nclass = 1", fillcolor="#399de5ef"] ;
48 -> 49 ;
50 [label="gini = 0.059\nsamples = 17\nvalue = [1, 32]\nclass = 1", fillcolor="#399de5f7"] ;
49 -> 50 ;
51 [label="gini = 0.0\nsamples = 1\nvalue = [1, 0]\nclass = 0", fillcolor="#e58139ff"] ;
49 -> 51 ;
52 [label="sex <= 0.5\ngini = 0.5\nsamples = 3\nvalue = [2, 2]\nclass = 0", fillcolor="#e5813900"] ;
48 -> 52 ;
53 [label="gini = 0.0\nsamples = 2\nvalue = [2, 0]\nclass = 0", fillcolor="#e58139ff"] ;
52 -> 53 ;
54 [label="gini = 0.0\nsamples = 1\nvalue = [0, 2]\nclass = 1", fillcolor="#399de5ff"] ;
52 -> 54 ;
{rank=same ; 0} ;
{rank=same ; 1; 26} ;
{rank=same ; 2; 15; 27; 40} ;
{rank=same ; 3; 8; 16; 21; 28; 35; 41; 48} ;
{rank=same ; 5; 9; 12; 18; 22; 29; 32; 37; 42; 45; 49; 52} ;
{rank=same ; 4; 6; 7; 10; 11; 13; 14; 17; 19; 20; 23; 24; 25; 30; 31; 33; 34; 36; 38; 39; 43; 44; 46; 47; 50; 51; 53; 54} ;
}