digraph Tree {
node [shape=box, style="filled", color="black"] ;
graph [ranksep=equally, splines=polyline] ;
0 [label="sex <= 0.5\ngini = 0.477\nsamples = 631\nvalue = [616, 397]\nclass = 0", fillcolor="#e581395b"] ;
1 [label="fare <= 26.269\ngini = 0.316\nsamples = 398\nvalue = [518, 127]\nclass = 0", fillcolor="#e58139c0"] ;
0 -> 1 [labeldistance=2.5, labelangle=45, headlabel="True"] ;
2 [label="parch <= 0.5\ngini = 0.246\nsamples = 280\nvalue = [393, 66]\nclass = 0", fillcolor="#e58139d4"] ;
1 -> 2 ;
3 [label="pclass <= 2.5\ngini = 0.193\nsamples = 246\nvalue = [363, 44]\nclass = 0", fillcolor="#e58139e0"] ;
2 -> 3 ;
4 [label="embarked <= 0.5\ngini = 0.104\nsamples = 80\nvalue = [120, 7]\nclass = 0", fillcolor="#e58139f0"] ;
3 -> 4 ;
5 [label="gini = 0.375\nsamples = 5\nvalue = [6, 2]\nclass = 0", fillcolor="#e58139aa"] ;
4 -> 5 ;
6 [label="gini = 0.081\nsamples = 75\nvalue = [114, 5]\nclass = 0", fillcolor="#e58139f4"] ;
4 -> 6 ;
7 [label="embarked <= 0.5\ngini = 0.229\nsamples = 166\nvalue = [243, 37]\nclass = 0", fillcolor="#e58139d8"] ;
3 -> 7 ;
8 [label="gini = 0.42\nsamples = 23\nvalue = [28, 12]\nclass = 0", fillcolor="#e5813992"] ;
7 -> 8 ;
9 [label="gini = 0.187\nsamples = 143\nvalue = [215, 25]\nclass = 0", fillcolor="#e58139e1"] ;
7 -> 9 ;
10 [label="fare <= 19.481\ngini = 0.488\nsamples = 34\nvalue = [30, 22]\nclass = 0", fillcolor="#e5813944"] ;
2 -> 10 ;
11 [label="age <= 10.25\ngini = 0.497\nsamples = 19\nvalue = [13, 15]\nclass = 1", fillcolor="#399de522"] ;
10 -> 11 ;
12 [label="gini = 0.219\nsamples = 9\nvalue = [2, 14]\nclass = 1", fillcolor="#399de5db"] ;
11 -> 12 ;
13 [label="gini = 0.153\nsamples = 10\nvalue = [11, 1]\nclass = 0", fillcolor="#e58139e8"] ;
11 -> 13 ;
14 [label="pclass <= 2.5\ngini = 0.413\nsamples = 15\nvalue = [17, 7]\nclass = 0", fillcolor="#e5813996"] ;
10 -> 14 ;
15 [label="gini = 0.48\nsamples = 6\nvalue = [6, 4]\nclass = 0", fillcolor="#e5813955"] ;
14 -> 15 ;
16 [label="gini = 0.337\nsamples = 9\nvalue = [11, 3]\nclass = 0", fillcolor="#e58139b9"] ;
14 -> 16 ;
17 [label="fare <= 30.888\ngini = 0.441\nsamples = 118\nvalue = [125, 61]\nclass = 0", fillcolor="#e5813983"] ;
1 -> 17 ;
18 [label="parch <= 0.5\ngini = 0.5\nsamples = 30\nvalue = [26, 26]\nclass = 0", fillcolor="#e5813900"] ;
17 -> 18 ;
19 [label="fare <= 29.85\ngini = 0.48\nsamples = 21\nvalue = [14, 21]\nclass = 1", fillcolor="#399de555"] ;
18 -> 19 ;
20 [label="gini = 0.499\nsamples = 18\nvalue = [14, 13]\nclass = 0", fillcolor="#e5813912"] ;
19 -> 20 ;
21 [label="gini = 0.0\nsamples = 3\nvalue = [0, 8]\nclass = 1", fillcolor="#399de5ff"] ;
19 -> 21 ;
22 [label="sibsp <= 0.5\ngini = 0.415\nsamples = 9\nvalue = [12, 5]\nclass = 0", fillcolor="#e5813995"] ;
18 -> 22 ;
23 [label="gini = 0.32\nsamples = 2\nvalue = [1, 4]\nclass = 1", fillcolor="#399de5bf"] ;
22 -> 23 ;
24 [label="gini = 0.153\nsamples = 7\nvalue = [11, 1]\nclass = 0", fillcolor="#e58139e8"] ;
22 -> 24 ;
25 [label="fare <= 387.665\ngini = 0.386\nsamples = 88\nvalue = [99, 35]\nclass = 0", fillcolor="#e58139a5"] ;
17 -> 25 ;
26 [label="sibsp <= 1.5\ngini = 0.363\nsamples = 86\nvalue = [99, 31]\nclass = 0", fillcolor="#e58139af"] ;
25 -> 26 ;
27 [label="gini = 0.381\nsamples = 73\nvalue = [87, 30]\nclass = 0", fillcolor="#e58139a7"] ;
26 -> 27 ;
28 [label="gini = 0.142\nsamples = 13\nvalue = [12, 1]\nclass = 0", fillcolor="#e58139ea"] ;
26 -> 28 ;
29 [label="gini = 0.0\nsamples = 2\nvalue = [0, 4]\nclass = 1", fillcolor="#399de5ff"] ;
25 -> 29 ;
30 [label="pclass <= 2.5\ngini = 0.391\nsamples = 233\nvalue = [98, 270]\nclass = 1", fillcolor="#399de5a2"] ;
0 -> 30 [labeldistance=2.5, labelangle=-45, headlabel="False"] ;
31 [label="pclass <= 1.5\ngini = 0.118\nsamples = 132\nvalue = [12, 179]\nclass = 1", fillcolor="#399de5ee"] ;
30 -> 31 ;
32 [label="fare <= 35.54\ngini = 0.048\nsamples = 87\nvalue = [3, 120]\nclass = 1", fillcolor="#399de5f9"] ;
31 -> 32 ;
33 [label="age <= 34.5\ngini = 0.245\nsamples = 12\nvalue = [2, 12]\nclass = 1", fillcolor="#399de5d4"] ;
32 -> 33 ;
34 [label="gini = 0.0\nsamples = 4\nvalue = [0, 5]\nclass = 1", fillcolor="#399de5ff"] ;
33 -> 34 ;
35 [label="gini = 0.346\nsamples = 8\nvalue = [2, 7]\nclass = 1", fillcolor="#399de5b6"] ;
33 -> 35 ;
36 [label="fare <= 216.64\ngini = 0.018\nsamples = 75\nvalue = [1, 108]\nclass = 1", fillcolor="#399de5fd"] ;
32 -> 36 ;
37 [label="gini = 0.0\nsamples = 64\nvalue = [0, 95]\nclass = 1", fillcolor="#399de5ff"] ;
36 -> 37 ;
38 [label="gini = 0.133\nsamples = 11\nvalue = [1, 13]\nclass = 1", fillcolor="#399de5eb"] ;
36 -> 38 ;
39 [label="embarked <= 1.5\ngini = 0.23\nsamples = 45\nvalue = [9, 59]\nclass = 1", fillcolor="#399de5d8"] ;
31 -> 39 ;
40 [label="gini = 0.0\nsamples = 9\nvalue = [0, 14]\nclass = 1", fillcolor="#399de5ff"] ;
39 -> 40 ;
41 [label="fare <= 26.125\ngini = 0.278\nsamples = 36\nvalue = [9, 45]\nclass = 1", fillcolor="#399de5cc"] ;
39 -> 41 ;
42 [label="gini = 0.349\nsamples = 28\nvalue = [9, 31]\nclass = 1", fillcolor="#399de5b5"] ;
41 -> 42 ;
43 [label="gini = 0.0\nsamples = 8\nvalue = [0, 14]\nclass = 1", fillcolor="#399de5ff"] ;
41 -> 43 ;
44 [label="fare <= 20.825\ngini = 0.5\nsamples = 101\nvalue = [86, 91]\nclass = 1", fillcolor="#399de50e"] ;
30 -> 44 ;
45 [label="fare <= 15.646\ngini = 0.484\nsamples = 83\nvalue = [59, 85]\nclass = 1", fillcolor="#399de54e"] ;
44 -> 45 ;
46 [label="age <= 30.25\ngini = 0.496\nsamples = 66\nvalue = [55, 66]\nclass = 1", fillcolor="#399de52a"] ;
45 -> 46 ;
47 [label="gini = 0.476\nsamples = 55\nvalue = [39, 61]\nclass = 1", fillcolor="#399de55c"] ;
46 -> 47 ;
48 [label="gini = 0.363\nsamples = 11\nvalue = [16, 5]\nclass = 0", fillcolor="#e58139af"] ;
46 -> 48 ;
49 [label="age <= 38.5\ngini = 0.287\nsamples = 17\nvalue = [4, 19]\nclass = 1", fillcolor="#399de5c9"] ;
45 -> 49 ;
50 [label="gini = 0.236\nsamples = 16\nvalue = [3, 19]\nclass = 1", fillcolor="#399de5d7"] ;
49 -> 50 ;
51 [label="gini = 0.0\nsamples = 1\nvalue = [1, 0]\nclass = 0", fillcolor="#e58139ff"] ;
49 -> 51 ;
52 [label="parch <= 2.5\ngini = 0.298\nsamples = 18\nvalue = [27, 6]\nclass = 0", fillcolor="#e58139c6"] ;
44 -> 52 ;
53 [label="parch <= 1.5\ngini = 0.33\nsamples = 11\nvalue = [19, 5]\nclass = 0", fillcolor="#e58139bc"] ;
52 -> 53 ;
54 [label="gini = 0.278\nsamples = 3\nvalue = [5, 1]\nclass = 0", fillcolor="#e58139cc"] ;
53 -> 54 ;
55 [label="gini = 0.346\nsamples = 8\nvalue = [14, 4]\nclass = 0", fillcolor="#e58139b6"] ;
53 -> 55 ;
56 [label="fare <= 31.331\ngini = 0.198\nsamples = 7\nvalue = [8, 1]\nclass = 0", fillcolor="#e58139df"] ;
52 -> 56 ;
57 [label="gini = 0.0\nsamples = 4\nvalue = [6, 0]\nclass = 0", fillcolor="#e58139ff"] ;
56 -> 57 ;
58 [label="gini = 0.444\nsamples = 3\nvalue = [2, 1]\nclass = 0", fillcolor="#e581397f"] ;
56 -> 58 ;
{rank=same ; 0} ;
{rank=same ; 1; 30} ;
{rank=same ; 2; 17; 31; 44} ;
{rank=same ; 3; 10; 18; 25; 32; 39; 45; 52} ;
{rank=same ; 4; 7; 11; 14; 19; 22; 26; 33; 36; 41; 46; 49; 53; 56} ;
{rank=same ; 5; 6; 8; 9; 12; 13; 15; 16; 20; 21; 23; 24; 27; 28; 29; 34; 35; 37; 38; 40; 42; 43; 47; 48; 50; 51; 54; 55; 57; 58} ;
}