digraph Tree {
node [shape=box, style="filled", color="black"] ;
graph [ranksep=equally, splines=polyline] ;
0 [label="sex <= 0.5\ngini = 0.483\nsamples = 657\nvalue = [599, 414]\nclass = 0", fillcolor="#e581394f"] ;
1 [label="sibsp <= 0.5\ngini = 0.31\nsamples = 410\nvalue = [509, 121]\nclass = 0", fillcolor="#e58139c2"] ;
0 -> 1 [labeldistance=2.5, labelangle=45, headlabel="True"] ;
2 [label="embarked <= 0.5\ngini = 0.286\nsamples = 302\nvalue = [383, 80]\nclass = 0", fillcolor="#e58139ca"] ;
1 -> 2 ;
3 [label="parch <= 1.5\ngini = 0.413\nsamples = 47\nvalue = [56, 23]\nclass = 0", fillcolor="#e5813996"] ;
2 -> 3 ;
4 [label="pclass <= 1.5\ngini = 0.421\nsamples = 43\nvalue = [51, 22]\nclass = 0", fillcolor="#e5813991"] ;
3 -> 4 ;
5 [label="gini = 0.411\nsamples = 21\nvalue = [27, 11]\nclass = 0", fillcolor="#e5813997"] ;
4 -> 5 ;
6 [label="gini = 0.431\nsamples = 22\nvalue = [24, 11]\nclass = 0", fillcolor="#e581398a"] ;
4 -> 6 ;
7 [label="fare <= 112.079\ngini = 0.278\nsamples = 4\nvalue = [5, 1]\nclass = 0", fillcolor="#e58139cc"] ;
3 -> 7 ;
8 [label="gini = 0.5\nsamples = 2\nvalue = [1, 1]\nclass = 0", fillcolor="#e5813900"] ;
7 -> 8 ;
9 [label="gini = 0.0\nsamples = 2\nvalue = [4, 0]\nclass = 0", fillcolor="#e58139ff"] ;
7 -> 9 ;
10 [label="pclass <= 1.5\ngini = 0.253\nsamples = 255\nvalue = [327, 57]\nclass = 0", fillcolor="#e58139d3"] ;
2 -> 10 ;
11 [label="age <= 37.0\ngini = 0.308\nsamples = 40\nvalue = [51, 12]\nclass = 0", fillcolor="#e58139c3"] ;
10 -> 11 ;
12 [label="gini = 0.498\nsamples = 14\nvalue = [8, 9]\nclass = 1", fillcolor="#399de51c"] ;
11 -> 12 ;
13 [label="gini = 0.122\nsamples = 26\nvalue = [43, 3]\nclass = 0", fillcolor="#e58139ed"] ;
11 -> 13 ;
14 [label="age <= 15.0\ngini = 0.241\nsamples = 215\nvalue = [276, 45]\nclass = 0", fillcolor="#e58139d5"] ;
10 -> 14 ;
15 [label="gini = 0.49\nsamples = 6\nvalue = [3, 4]\nclass = 1", fillcolor="#399de540"] ;
14 -> 15 ;
16 [label="gini = 0.227\nsamples = 209\nvalue = [273, 41]\nclass = 0", fillcolor="#e58139d9"] ;
14 -> 16 ;
17 [label="parch <= 0.5\ngini = 0.37\nsamples = 108\nvalue = [126, 41]\nclass = 0", fillcolor="#e58139ac"] ;
1 -> 17 ;
18 [label="embarked <= 0.5\ngini = 0.294\nsamples = 59\nvalue = [78, 17]\nclass = 0", fillcolor="#e58139c7"] ;
17 -> 18 ;
19 [label="pclass <= 2.5\ngini = 0.444\nsamples = 16\nvalue = [16, 8]\nclass = 0", fillcolor="#e581397f"] ;
18 -> 19 ;
20 [label="gini = 0.42\nsamples = 13\nvalue = [14, 6]\nclass = 0", fillcolor="#e5813992"] ;
19 -> 20 ;
21 [label="gini = 0.5\nsamples = 3\nvalue = [2, 2]\nclass = 0", fillcolor="#e5813900"] ;
19 -> 21 ;
22 [label="pclass <= 1.5\ngini = 0.221\nsamples = 43\nvalue = [62, 9]\nclass = 0", fillcolor="#e58139da"] ;
18 -> 22 ;
23 [label="gini = 0.363\nsamples = 13\nvalue = [16, 5]\nclass = 0", fillcolor="#e58139af"] ;
22 -> 23 ;
24 [label="gini = 0.147\nsamples = 30\nvalue = [46, 4]\nclass = 0", fillcolor="#e58139e9"] ;
22 -> 24 ;
25 [label="parch <= 1.5\ngini = 0.444\nsamples = 49\nvalue = [48, 24]\nclass = 0", fillcolor="#e581397f"] ;
17 -> 25 ;
26 [label="sibsp <= 2.5\ngini = 0.499\nsamples = 33\nvalue = [22, 20]\nclass = 0", fillcolor="#e5813917"] ;
25 -> 26 ;
27 [label="gini = 0.494\nsamples = 28\nvalue = [16, 20]\nclass = 1", fillcolor="#399de533"] ;
26 -> 27 ;
28 [label="gini = 0.0\nsamples = 5\nvalue = [6, 0]\nclass = 0", fillcolor="#e58139ff"] ;
26 -> 28 ;
29 [label="fare <= 165.962\ngini = 0.231\nsamples = 16\nvalue = [26, 4]\nclass = 0", fillcolor="#e58139d8"] ;
25 -> 29 ;
30 [label="gini = 0.147\nsamples = 13\nvalue = [23, 2]\nclass = 0", fillcolor="#e58139e9"] ;
29 -> 30 ;
31 [label="gini = 0.48\nsamples = 3\nvalue = [3, 2]\nclass = 0", fillcolor="#e5813955"] ;
29 -> 31 ;
32 [label="fare <= 35.562\ngini = 0.36\nsamples = 247\nvalue = [90, 293]\nclass = 1", fillcolor="#399de5b1"] ;
0 -> 32 [labeldistance=2.5, labelangle=-45, headlabel="False"] ;
33 [label="parch <= 1.5\ngini = 0.448\nsamples = 168\nvalue = [85, 166]\nclass = 1", fillcolor="#399de57c"] ;
32 -> 33 ;
34 [label="fare <= 10.481\ngini = 0.438\nsamples = 136\nvalue = [66, 138]\nclass = 1", fillcolor="#399de585"] ;
33 -> 34 ;
35 [label="fare <= 7.729\ngini = 0.5\nsamples = 43\nvalue = [34, 32]\nclass = 0", fillcolor="#e581390f"] ;
34 -> 35 ;
36 [label="gini = 0.291\nsamples = 10\nvalue = [3, 14]\nclass = 1", fillcolor="#399de5c8"] ;
35 -> 36 ;
37 [label="gini = 0.465\nsamples = 33\nvalue = [31, 18]\nclass = 0", fillcolor="#e581396b"] ;
35 -> 37 ;
38 [label="parch <= 0.5\ngini = 0.356\nsamples = 93\nvalue = [32, 106]\nclass = 1", fillcolor="#399de5b2"] ;
34 -> 38 ;
39 [label="gini = 0.312\nsamples = 60\nvalue = [18, 75]\nclass = 1", fillcolor="#399de5c2"] ;
38 -> 39 ;
40 [label="gini = 0.429\nsamples = 33\nvalue = [14, 31]\nclass = 1", fillcolor="#399de58c"] ;
38 -> 40 ;
41 [label="parch <= 4.5\ngini = 0.482\nsamples = 32\nvalue = [19, 28]\nclass = 1", fillcolor="#399de552"] ;
33 -> 41 ;
42 [label="pclass <= 2.5\ngini = 0.485\nsamples = 31\nvalue = [19, 27]\nclass = 1", fillcolor="#399de54c"] ;
41 -> 42 ;
43 [label="gini = 0.0\nsamples = 10\nvalue = [0, 14]\nclass = 1", fillcolor="#399de5ff"] ;
42 -> 43 ;
44 [label="gini = 0.482\nsamples = 21\nvalue = [19, 13]\nclass = 0", fillcolor="#e5813951"] ;
42 -> 44 ;
45 [label="gini = 0.0\nsamples = 1\nvalue = [0, 1]\nclass = 1", fillcolor="#399de5ff"] ;
41 -> 45 ;
46 [label="embarked <= 1.5\ngini = 0.073\nsamples = 79\nvalue = [5, 127]\nclass = 1", fillcolor="#399de5f5"] ;
32 -> 46 ;
47 [label="gini = 0.0\nsamples = 46\nvalue = [0, 78]\nclass = 1", fillcolor="#399de5ff"] ;
46 -> 47 ;
48 [label="age <= 57.5\ngini = 0.168\nsamples = 33\nvalue = [5, 49]\nclass = 1", fillcolor="#399de5e5"] ;
46 -> 48 ;
49 [label="sibsp <= 4.0\ngini = 0.08\nsamples = 31\nvalue = [2, 46]\nclass = 1", fillcolor="#399de5f4"] ;
48 -> 49 ;
50 [label="gini = 0.042\nsamples = 30\nvalue = [1, 46]\nclass = 1", fillcolor="#399de5f9"] ;
49 -> 50 ;
51 [label="gini = 0.0\nsamples = 1\nvalue = [1, 0]\nclass = 0", fillcolor="#e58139ff"] ;
49 -> 51 ;
52 [label="age <= 69.5\ngini = 0.5\nsamples = 2\nvalue = [3, 3]\nclass = 0", fillcolor="#e5813900"] ;
48 -> 52 ;
53 [label="gini = 0.0\nsamples = 1\nvalue = [3, 0]\nclass = 0", fillcolor="#e58139ff"] ;
52 -> 53 ;
54 [label="gini = 0.0\nsamples = 1\nvalue = [0, 3]\nclass = 1", fillcolor="#399de5ff"] ;
52 -> 54 ;
{rank=same ; 0} ;
{rank=same ; 1; 32} ;
{rank=same ; 2; 17; 33; 46} ;
{rank=same ; 3; 10; 18; 25; 34; 41; 48} ;
{rank=same ; 4; 7; 11; 14; 19; 22; 26; 29; 35; 38; 42; 49; 52} ;
{rank=same ; 5; 6; 8; 9; 12; 13; 15; 16; 20; 21; 23; 24; 27; 28; 30; 31; 36; 37; 39; 40; 43; 44; 45; 47; 50; 51; 53; 54} ;
}