digraph Tree {
node [shape=box, style="filled", color="black"] ;
graph [ranksep=equally, splines=polyline] ;
0 [label="sex <= 0.5\ngini = 0.48\nsamples = 642\nvalue = [607, 406]\nclass = 0", fillcolor="#e5813954"] ;
1 [label="fare <= 80.754\ngini = 0.331\nsamples = 404\nvalue = [505, 134]\nclass = 0", fillcolor="#e58139bb"] ;
0 -> 1 [labeldistance=2.5, labelangle=45, headlabel="True"] ;
2 [label="age <= 10.0\ngini = 0.305\nsamples = 377\nvalue = [485, 112]\nclass = 0", fillcolor="#e58139c4"] ;
1 -> 2 ;
3 [label="pclass <= 2.5\ngini = 0.478\nsamples = 23\nvalue = [13, 20]\nclass = 1", fillcolor="#399de559"] ;
2 -> 3 ;
4 [label="gini = 0.0\nsamples = 6\nvalue = [0, 8]\nclass = 1", fillcolor="#399de5ff"] ;
3 -> 4 ;
5 [label="fare <= 20.8\ngini = 0.499\nsamples = 17\nvalue = [13, 12]\nclass = 0", fillcolor="#e5813914"] ;
3 -> 5 ;
6 [label="gini = 0.18\nsamples = 7\nvalue = [1, 9]\nclass = 1", fillcolor="#399de5e3"] ;
5 -> 6 ;
7 [label="gini = 0.32\nsamples = 10\nvalue = [12, 3]\nclass = 0", fillcolor="#e58139bf"] ;
5 -> 7 ;
8 [label="fare <= 26.269\ngini = 0.273\nsamples = 354\nvalue = [472, 92]\nclass = 0", fillcolor="#e58139cd"] ;
2 -> 8 ;
9 [label="sibsp <= 1.5\ngini = 0.222\nsamples = 257\nvalue = [364, 53]\nclass = 0", fillcolor="#e58139da"] ;
8 -> 9 ;
10 [label="gini = 0.226\nsamples = 252\nvalue = [355, 53]\nclass = 0", fillcolor="#e58139d9"] ;
9 -> 10 ;
11 [label="gini = 0.0\nsamples = 5\nvalue = [9, 0]\nclass = 0", fillcolor="#e58139ff"] ;
9 -> 11 ;
12 [label="age <= 25.5\ngini = 0.39\nsamples = 97\nvalue = [108, 39]\nclass = 0", fillcolor="#e58139a3"] ;
8 -> 12 ;
13 [label="gini = 0.054\nsamples = 20\nvalue = [35, 1]\nclass = 0", fillcolor="#e58139f8"] ;
12 -> 13 ;
14 [label="gini = 0.45\nsamples = 77\nvalue = [73, 38]\nclass = 0", fillcolor="#e581397a"] ;
12 -> 14 ;
15 [label="age <= 17.5\ngini = 0.499\nsamples = 27\nvalue = [20, 22]\nclass = 1", fillcolor="#399de517"] ;
1 -> 15 ;
16 [label="gini = 0.0\nsamples = 5\nvalue = [0, 10]\nclass = 1", fillcolor="#399de5ff"] ;
15 -> 16 ;
17 [label="embarked <= 1.0\ngini = 0.469\nsamples = 22\nvalue = [20, 12]\nclass = 0", fillcolor="#e5813966"] ;
15 -> 17 ;
18 [label="sibsp <= 0.5\ngini = 0.415\nsamples = 11\nvalue = [12, 5]\nclass = 0", fillcolor="#e5813995"] ;
17 -> 18 ;
19 [label="gini = 0.375\nsamples = 3\nvalue = [3, 1]\nclass = 0", fillcolor="#e58139aa"] ;
18 -> 19 ;
20 [label="gini = 0.426\nsamples = 8\nvalue = [9, 4]\nclass = 0", fillcolor="#e581398e"] ;
18 -> 20 ;
21 [label="parch <= 3.0\ngini = 0.498\nsamples = 11\nvalue = [8, 7]\nclass = 0", fillcolor="#e5813920"] ;
17 -> 21 ;
22 [label="gini = 0.5\nsamples = 10\nvalue = [7, 7]\nclass = 0", fillcolor="#e5813900"] ;
21 -> 22 ;
23 [label="gini = 0.0\nsamples = 1\nvalue = [1, 0]\nclass = 0", fillcolor="#e58139ff"] ;
21 -> 23 ;
24 [label="fare <= 48.202\ngini = 0.397\nsamples = 238\nvalue = [102, 272]\nclass = 1", fillcolor="#399de59f"] ;
0 -> 24 [labeldistance=2.5, labelangle=-45, headlabel="False"] ;
25 [label="parch <= 3.5\ngini = 0.475\nsamples = 168\nvalue = [102, 160]\nclass = 1", fillcolor="#399de55c"] ;
24 -> 25 ;
26 [label="pclass <= 2.5\ngini = 0.468\nsamples = 163\nvalue = [95, 159]\nclass = 1", fillcolor="#399de567"] ;
25 -> 26 ;
27 [label="age <= 21.5\ngini = 0.188\nsamples = 67\nvalue = [11, 94]\nclass = 1", fillcolor="#399de5e1"] ;
26 -> 27 ;
28 [label="gini = 0.0\nsamples = 17\nvalue = [0, 26]\nclass = 1", fillcolor="#399de5ff"] ;
27 -> 28 ;
29 [label="gini = 0.24\nsamples = 50\nvalue = [11, 68]\nclass = 1", fillcolor="#399de5d6"] ;
27 -> 29 ;
30 [label="fare <= 23.087\ngini = 0.492\nsamples = 96\nvalue = [84, 65]\nclass = 0", fillcolor="#e581393a"] ;
26 -> 30 ;
31 [label="gini = 0.5\nsamples = 84\nvalue = [64, 65]\nclass = 1", fillcolor="#399de504"] ;
30 -> 31 ;
32 [label="gini = 0.0\nsamples = 12\nvalue = [20, 0]\nclass = 0", fillcolor="#e58139ff"] ;
30 -> 32 ;
33 [label="fare <= 31.331\ngini = 0.219\nsamples = 5\nvalue = [7, 1]\nclass = 0", fillcolor="#e58139db"] ;
25 -> 33 ;
34 [label="gini = 0.0\nsamples = 3\nvalue = [5, 0]\nclass = 0", fillcolor="#e58139ff"] ;
33 -> 34 ;
35 [label="fare <= 39.144\ngini = 0.444\nsamples = 2\nvalue = [2, 1]\nclass = 0", fillcolor="#e581397f"] ;
33 -> 35 ;
36 [label="gini = 0.0\nsamples = 1\nvalue = [0, 1]\nclass = 1", fillcolor="#399de5ff"] ;
35 -> 36 ;
37 [label="gini = 0.0\nsamples = 1\nvalue = [2, 0]\nclass = 0", fillcolor="#e58139ff"] ;
35 -> 37 ;
38 [label="gini = 0.0\nsamples = 70\nvalue = [0, 112]\nclass = 1", fillcolor="#399de5ff"] ;
24 -> 38 ;
{rank=same ; 0} ;
{rank=same ; 1; 24} ;
{rank=same ; 2; 15; 25} ;
{rank=same ; 3; 8; 17; 26; 33} ;
{rank=same ; 5; 9; 12; 18; 21; 27; 30; 35} ;
{rank=same ; 4; 6; 7; 10; 11; 13; 14; 16; 19; 20; 22; 23; 28; 29; 31; 32; 34; 36; 37; 38} ;
}