digraph Tree {
node [shape=box, style="filled", color="black"] ;
graph [ranksep=equally, splines=polyline] ;
0 [label="embarked <= 0.5\ngini = 0.474\nsamples = 654\nvalue = [622, 391]\nclass = 0", fillcolor="#e581395f"] ;
1 [label="sex <= 0.5\ngini = 0.469\nsamples = 133\nvalue = [75, 125]\nclass = 1", fillcolor="#399de566"] ;
0 -> 1 [labeldistance=2.5, labelangle=45, headlabel="True"] ;
2 [label="sibsp <= 0.5\ngini = 0.46\nsamples = 69\nvalue = [66, 37]\nclass = 0", fillcolor="#e5813970"] ;
1 -> 2 ;
3 [label="fare <= 10.317\ngini = 0.488\nsamples = 47\nvalue = [41, 30]\nclass = 0", fillcolor="#e5813944"] ;
2 -> 3 ;
4 [label="age <= 22.25\ngini = 0.255\nsamples = 15\nvalue = [17, 3]\nclass = 0", fillcolor="#e58139d2"] ;
3 -> 4 ;
5 [label="gini = 0.48\nsamples = 4\nvalue = [2, 3]\nclass = 1", fillcolor="#399de555"] ;
4 -> 5 ;
6 [label="gini = 0.0\nsamples = 11\nvalue = [15, 0]\nclass = 0", fillcolor="#e58139ff"] ;
4 -> 6 ;
7 [label="parch <= 0.5\ngini = 0.498\nsamples = 32\nvalue = [24, 27]\nclass = 1", fillcolor="#399de51c"] ;
3 -> 7 ;
8 [label="gini = 0.5\nsamples = 23\nvalue = [20, 20]\nclass = 0", fillcolor="#e5813900"] ;
7 -> 8 ;
9 [label="gini = 0.463\nsamples = 9\nvalue = [4, 7]\nclass = 1", fillcolor="#399de56d"] ;
7 -> 9 ;
10 [label="parch <= 0.5\ngini = 0.342\nsamples = 22\nvalue = [25, 7]\nclass = 0", fillcolor="#e58139b8"] ;
2 -> 10 ;
11 [label="pclass <= 1.5\ngini = 0.401\nsamples = 13\nvalue = [13, 5]\nclass = 0", fillcolor="#e581399d"] ;
10 -> 11 ;
12 [label="gini = 0.486\nsamples = 8\nvalue = [7, 5]\nclass = 0", fillcolor="#e5813949"] ;
11 -> 12 ;
13 [label="gini = 0.0\nsamples = 5\nvalue = [6, 0]\nclass = 0", fillcolor="#e58139ff"] ;
11 -> 13 ;
14 [label="age <= 14.0\ngini = 0.245\nsamples = 9\nvalue = [12, 2]\nclass = 0", fillcolor="#e58139d4"] ;
10 -> 14 ;
15 [label="gini = 0.5\nsamples = 2\nvalue = [1, 1]\nclass = 0", fillcolor="#e5813900"] ;
14 -> 15 ;
16 [label="gini = 0.153\nsamples = 7\nvalue = [11, 1]\nclass = 0", fillcolor="#e58139e8"] ;
14 -> 16 ;
17 [label="age <= 18.5\ngini = 0.168\nsamples = 64\nvalue = [9, 88]\nclass = 1", fillcolor="#399de5e5"] ;
1 -> 17 ;
18 [label="pclass <= 2.5\ngini = 0.32\nsamples = 18\nvalue = [6, 24]\nclass = 1", fillcolor="#399de5bf"] ;
17 -> 18 ;
19 [label="gini = 0.0\nsamples = 7\nvalue = [0, 12]\nclass = 1", fillcolor="#399de5ff"] ;
18 -> 19 ;
20 [label="parch <= 1.5\ngini = 0.444\nsamples = 11\nvalue = [6, 12]\nclass = 1", fillcolor="#399de57f"] ;
18 -> 20 ;
21 [label="gini = 0.457\nsamples = 10\nvalue = [6, 11]\nclass = 1", fillcolor="#399de574"] ;
20 -> 21 ;
22 [label="gini = 0.0\nsamples = 1\nvalue = [0, 1]\nclass = 1", fillcolor="#399de5ff"] ;
20 -> 22 ;
23 [label="fare <= 34.156\ngini = 0.086\nsamples = 46\nvalue = [3, 64]\nclass = 1", fillcolor="#399de5f3"] ;
17 -> 23 ;
24 [label="parch <= 2.0\ngini = 0.305\nsamples = 10\nvalue = [3, 13]\nclass = 1", fillcolor="#399de5c4"] ;
23 -> 24 ;
25 [label="gini = 0.32\nsamples = 9\nvalue = [3, 12]\nclass = 1", fillcolor="#399de5bf"] ;
24 -> 25 ;
26 [label="gini = 0.0\nsamples = 1\nvalue = [0, 1]\nclass = 1", fillcolor="#399de5ff"] ;
24 -> 26 ;
27 [label="gini = 0.0\nsamples = 36\nvalue = [0, 51]\nclass = 1", fillcolor="#399de5ff"] ;
23 -> 27 ;
28 [label="pclass <= 2.5\ngini = 0.44\nsamples = 521\nvalue = [547, 266]\nclass = 0", fillcolor="#e5813983"] ;
0 -> 28 [labeldistance=2.5, labelangle=-45, headlabel="False"] ;
29 [label="fare <= 14.25\ngini = 0.495\nsamples = 232\nvalue = [205, 167]\nclass = 0", fillcolor="#e581392f"] ;
28 -> 29 ;
30 [label="parch <= 1.5\ngini = 0.35\nsamples = 77\nvalue = [89, 26]\nclass = 0", fillcolor="#e58139b5"] ;
29 -> 30 ;
31 [label="embarked <= 1.5\ngini = 0.342\nsamples = 76\nvalue = [89, 25]\nclass = 0", fillcolor="#e58139b7"] ;
30 -> 31 ;
32 [label="gini = 0.245\nsamples = 4\nvalue = [6, 1]\nclass = 0", fillcolor="#e58139d4"] ;
31 -> 32 ;
33 [label="gini = 0.348\nsamples = 72\nvalue = [83, 24]\nclass = 0", fillcolor="#e58139b5"] ;
31 -> 33 ;
34 [label="gini = 0.0\nsamples = 1\nvalue = [0, 1]\nclass = 1", fillcolor="#399de5ff"] ;
30 -> 34 ;
35 [label="embarked <= 1.5\ngini = 0.495\nsamples = 155\nvalue = [116, 141]\nclass = 1", fillcolor="#399de52d"] ;
29 -> 35 ;
36 [label="sibsp <= 1.5\ngini = 0.375\nsamples = 3\nvalue = [1, 3]\nclass = 1", fillcolor="#399de5aa"] ;
35 -> 36 ;
37 [label="gini = 0.0\nsamples = 2\nvalue = [0, 3]\nclass = 1", fillcolor="#399de5ff"] ;
36 -> 37 ;
38 [label="gini = 0.0\nsamples = 1\nvalue = [1, 0]\nclass = 0", fillcolor="#e58139ff"] ;
36 -> 38 ;
39 [label="sex <= 0.5\ngini = 0.496\nsamples = 152\nvalue = [115, 138]\nclass = 1", fillcolor="#399de52a"] ;
35 -> 39 ;
40 [label="gini = 0.289\nsamples = 86\nvalue = [113, 24]\nclass = 0", fillcolor="#e58139c9"] ;
39 -> 40 ;
41 [label="gini = 0.034\nsamples = 66\nvalue = [2, 114]\nclass = 1", fillcolor="#399de5fb"] ;
39 -> 41 ;
42 [label="sex <= 0.5\ngini = 0.348\nsamples = 289\nvalue = [342, 99]\nclass = 0", fillcolor="#e58139b5"] ;
28 -> 42 ;
43 [label="fare <= 12.767\ngini = 0.239\nsamples = 206\nvalue = [273, 44]\nclass = 0", fillcolor="#e58139d6"] ;
42 -> 43 ;
44 [label="age <= 15.0\ngini = 0.27\nsamples = 163\nvalue = [209, 40]\nclass = 0", fillcolor="#e58139ce"] ;
43 -> 44 ;
45 [label="gini = 0.0\nsamples = 3\nvalue = [0, 6]\nclass = 1", fillcolor="#399de5ff"] ;
44 -> 45 ;
46 [label="gini = 0.241\nsamples = 160\nvalue = [209, 34]\nclass = 0", fillcolor="#e58139d6"] ;
44 -> 46 ;
47 [label="age <= 3.5\ngini = 0.111\nsamples = 43\nvalue = [64, 4]\nclass = 0", fillcolor="#e58139ef"] ;
43 -> 47 ;
48 [label="gini = 0.444\nsamples = 5\nvalue = [4, 2]\nclass = 0", fillcolor="#e581397f"] ;
47 -> 48 ;
49 [label="gini = 0.062\nsamples = 38\nvalue = [60, 2]\nclass = 0", fillcolor="#e58139f6"] ;
47 -> 49 ;
50 [label="sibsp <= 1.5\ngini = 0.494\nsamples = 83\nvalue = [69, 55]\nclass = 0", fillcolor="#e5813934"] ;
42 -> 50 ;
51 [label="parch <= 1.5\ngini = 0.499\nsamples = 72\nvalue = [58, 52]\nclass = 0", fillcolor="#e581391a"] ;
50 -> 51 ;
52 [label="gini = 0.5\nsamples = 62\nvalue = [47, 49]\nclass = 1", fillcolor="#399de50a"] ;
51 -> 52 ;
53 [label="gini = 0.337\nsamples = 10\nvalue = [11, 3]\nclass = 0", fillcolor="#e58139b9"] ;
51 -> 53 ;
54 [label="age <= 27.5\ngini = 0.337\nsamples = 11\nvalue = [11, 3]\nclass = 0", fillcolor="#e58139b9"] ;
50 -> 54 ;
55 [label="gini = 0.26\nsamples = 10\nvalue = [11, 2]\nclass = 0", fillcolor="#e58139d1"] ;
54 -> 55 ;
56 [label="gini = 0.0\nsamples = 1\nvalue = [0, 1]\nclass = 1", fillcolor="#399de5ff"] ;
54 -> 56 ;
{rank=same ; 0} ;
{rank=same ; 1; 28} ;
{rank=same ; 2; 17; 29; 42} ;
{rank=same ; 3; 10; 18; 23; 30; 35; 43; 50} ;
{rank=same ; 4; 7; 11; 14; 20; 24; 31; 36; 39; 44; 47; 51; 54} ;
{rank=same ; 5; 6; 8; 9; 12; 13; 15; 16; 19; 21; 22; 25; 26; 27; 32; 33; 34; 37; 38; 40; 41; 45; 46; 48; 49; 52; 53; 55; 56} ;
}