digraph Tree {
node [shape=box, style="filled", color="black"] ;
graph [ranksep=equally, splines=polyline] ;
0 [label="pclass <= 1.5\ngini = 0.491\nsamples = 636\nvalue = [575, 438]\nclass = 0", fillcolor="#e581393d"] ;
1 [label="age <= 49.5\ngini = 0.424\nsamples = 175\nvalue = [87, 198]\nclass = 1", fillcolor="#399de58f"] ;
0 -> 1 [labeldistance=2.5, labelangle=45, headlabel="True"] ;
2 [label="sex <= 0.5\ngini = 0.378\nsamples = 132\nvalue = [54, 159]\nclass = 1", fillcolor="#399de5a8"] ;
1 -> 2 ;
3 [label="age <= 47.5\ngini = 0.471\nsamples = 58\nvalue = [54, 33]\nclass = 0", fillcolor="#e5813963"] ;
2 -> 3 ;
4 [label="parch <= 0.5\ngini = 0.447\nsamples = 53\nvalue = [53, 27]\nclass = 0", fillcolor="#e581397d"] ;
3 -> 4 ;
5 [label="gini = 0.465\nsamples = 45\nvalue = [43, 25]\nclass = 0", fillcolor="#e581396b"] ;
4 -> 5 ;
6 [label="gini = 0.278\nsamples = 8\nvalue = [10, 2]\nclass = 0", fillcolor="#e58139cc"] ;
4 -> 6 ;
7 [label="sibsp <= 0.5\ngini = 0.245\nsamples = 5\nvalue = [1, 6]\nclass = 1", fillcolor="#399de5d4"] ;
3 -> 7 ;
8 [label="gini = 0.0\nsamples = 1\nvalue = [1, 0]\nclass = 0", fillcolor="#e58139ff"] ;
7 -> 8 ;
9 [label="gini = 0.0\nsamples = 4\nvalue = [0, 6]\nclass = 1", fillcolor="#399de5ff"] ;
7 -> 9 ;
10 [label="gini = 0.0\nsamples = 74\nvalue = [0, 126]\nclass = 1", fillcolor="#399de5ff"] ;
2 -> 10 ;
11 [label="fare <= 77.777\ngini = 0.497\nsamples = 43\nvalue = [33, 39]\nclass = 1", fillcolor="#399de527"] ;
1 -> 11 ;
12 [label="sex <= 0.5\ngini = 0.487\nsamples = 26\nvalue = [25, 18]\nclass = 0", fillcolor="#e5813947"] ;
11 -> 12 ;
13 [label="parch <= 0.5\ngini = 0.404\nsamples = 18\nvalue = [23, 9]\nclass = 0", fillcolor="#e581399b"] ;
12 -> 13 ;
14 [label="gini = 0.476\nsamples = 14\nvalue = [14, 9]\nclass = 0", fillcolor="#e581395b"] ;
13 -> 14 ;
15 [label="gini = 0.0\nsamples = 4\nvalue = [9, 0]\nclass = 0", fillcolor="#e58139ff"] ;
13 -> 15 ;
16 [label="sibsp <= 0.5\ngini = 0.298\nsamples = 8\nvalue = [2, 9]\nclass = 1", fillcolor="#399de5c6"] ;
12 -> 16 ;
17 [label="gini = 0.408\nsamples = 5\nvalue = [2, 5]\nclass = 1", fillcolor="#399de599"] ;
16 -> 17 ;
18 [label="gini = 0.0\nsamples = 3\nvalue = [0, 4]\nclass = 1", fillcolor="#399de5ff"] ;
16 -> 18 ;
19 [label="age <= 60.5\ngini = 0.4\nsamples = 17\nvalue = [8, 21]\nclass = 1", fillcolor="#399de59e"] ;
11 -> 19 ;
20 [label="sex <= 0.5\ngini = 0.32\nsamples = 15\nvalue = [5, 20]\nclass = 1", fillcolor="#399de5bf"] ;
19 -> 20 ;
21 [label="gini = 0.459\nsamples = 7\nvalue = [5, 9]\nclass = 1", fillcolor="#399de571"] ;
20 -> 21 ;
22 [label="gini = 0.0\nsamples = 8\nvalue = [0, 11]\nclass = 1", fillcolor="#399de5ff"] ;
20 -> 22 ;
23 [label="sibsp <= 0.5\ngini = 0.375\nsamples = 2\nvalue = [3, 1]\nclass = 0", fillcolor="#e58139aa"] ;
19 -> 23 ;
24 [label="gini = 0.0\nsamples = 1\nvalue = [0, 1]\nclass = 1", fillcolor="#399de5ff"] ;
23 -> 24 ;
25 [label="gini = 0.0\nsamples = 1\nvalue = [3, 0]\nclass = 0", fillcolor="#e58139ff"] ;
23 -> 25 ;
26 [label="embarked <= 0.5\ngini = 0.442\nsamples = 461\nvalue = [488, 240]\nclass = 0", fillcolor="#e5813982"] ;
0 -> 26 [labeldistance=2.5, labelangle=-45, headlabel="False"] ;
27 [label="sex <= 0.5\ngini = 0.492\nsamples = 50\nvalue = [37, 48]\nclass = 1", fillcolor="#399de53a"] ;
26 -> 27 ;
28 [label="fare <= 17.017\ngini = 0.369\nsamples = 30\nvalue = [34, 11]\nclass = 0", fillcolor="#e58139ac"] ;
27 -> 28 ;
29 [label="age <= 22.5\ngini = 0.399\nsamples = 26\nvalue = [29, 11]\nclass = 0", fillcolor="#e581399e"] ;
28 -> 29 ;
30 [label="gini = 0.492\nsamples = 11\nvalue = [7, 9]\nclass = 1", fillcolor="#399de539"] ;
29 -> 30 ;
31 [label="gini = 0.153\nsamples = 15\nvalue = [22, 2]\nclass = 0", fillcolor="#e58139e8"] ;
29 -> 31 ;
32 [label="gini = 0.0\nsamples = 4\nvalue = [5, 0]\nclass = 0", fillcolor="#e58139ff"] ;
28 -> 32 ;
33 [label="fare <= 14.156\ngini = 0.139\nsamples = 20\nvalue = [3, 37]\nclass = 1", fillcolor="#399de5ea"] ;
27 -> 33 ;
34 [label="gini = 0.0\nsamples = 8\nvalue = [0, 20]\nclass = 1", fillcolor="#399de5ff"] ;
33 -> 34 ;
35 [label="fare <= 15.494\ngini = 0.255\nsamples = 12\nvalue = [3, 17]\nclass = 1", fillcolor="#399de5d2"] ;
33 -> 35 ;
36 [label="gini = 0.48\nsamples = 4\nvalue = [3, 2]\nclass = 0", fillcolor="#e5813955"] ;
35 -> 36 ;
37 [label="gini = 0.0\nsamples = 8\nvalue = [0, 15]\nclass = 1", fillcolor="#399de5ff"] ;
35 -> 37 ;
38 [label="pclass <= 2.5\ngini = 0.419\nsamples = 411\nvalue = [451, 192]\nclass = 0", fillcolor="#e5813992"] ;
26 -> 38 ;
39 [label="age <= 22.5\ngini = 0.478\nsamples = 139\nvalue = [129, 84]\nclass = 0", fillcolor="#e5813959"] ;
38 -> 39 ;
40 [label="fare <= 56.25\ngini = 0.432\nsamples = 39\nvalue = [18, 39]\nclass = 1", fillcolor="#399de589"] ;
39 -> 40 ;
41 [label="gini = 0.389\nsamples = 36\nvalue = [14, 39]\nclass = 1", fillcolor="#399de5a3"] ;
40 -> 41 ;
42 [label="gini = 0.0\nsamples = 3\nvalue = [4, 0]\nclass = 0", fillcolor="#e58139ff"] ;
40 -> 42 ;
43 [label="age <= 56.0\ngini = 0.411\nsamples = 100\nvalue = [111, 45]\nclass = 0", fillcolor="#e5813998"] ;
39 -> 43 ;
44 [label="gini = 0.423\nsamples = 92\nvalue = [101, 44]\nclass = 0", fillcolor="#e5813990"] ;
43 -> 44 ;
45 [label="gini = 0.165\nsamples = 8\nvalue = [10, 1]\nclass = 0", fillcolor="#e58139e6"] ;
43 -> 45 ;
46 [label="sibsp <= 1.5\ngini = 0.376\nsamples = 272\nvalue = [322, 108]\nclass = 0", fillcolor="#e58139a9"] ;
38 -> 46 ;
47 [label="fare <= 22.275\ngini = 0.394\nsamples = 243\nvalue = [281, 104]\nclass = 0", fillcolor="#e58139a1"] ;
46 -> 47 ;
48 [label="gini = 0.413\nsamples = 227\nvalue = [253, 104]\nclass = 0", fillcolor="#e5813996"] ;
47 -> 48 ;
49 [label="gini = 0.0\nsamples = 16\nvalue = [28, 0]\nclass = 0", fillcolor="#e58139ff"] ;
47 -> 49 ;
50 [label="sibsp <= 3.5\ngini = 0.162\nsamples = 29\nvalue = [41, 4]\nclass = 0", fillcolor="#e58139e6"] ;
46 -> 50 ;
51 [label="gini = 0.255\nsamples = 13\nvalue = [17, 3]\nclass = 0", fillcolor="#e58139d2"] ;
50 -> 51 ;
52 [label="gini = 0.077\nsamples = 16\nvalue = [24, 1]\nclass = 0", fillcolor="#e58139f4"] ;
50 -> 52 ;
{rank=same ; 0} ;
{rank=same ; 1; 26} ;
{rank=same ; 2; 11; 27; 38} ;
{rank=same ; 3; 12; 19; 28; 33; 39; 46} ;
{rank=same ; 4; 7; 13; 16; 20; 23; 29; 35; 40; 43; 47; 50} ;
{rank=same ; 5; 6; 8; 9; 10; 14; 15; 17; 18; 21; 22; 24; 25; 30; 31; 32; 34; 36; 37; 41; 42; 44; 45; 48; 49; 51; 52} ;
}