digraph Tree {
node [shape=box, style="filled", color="black"] ;
graph [ranksep=equally, splines=polyline] ;
0 [label="sex <= 0.5\ngini = 0.483\nsamples = 1013\nvalue = [601, 412]\nclass = 0", fillcolor="#e5813950"] ;
1 [label="age <= 9.5\ngini = 0.326\nsamples = 638\nvalue = [507, 131]\nclass = 0", fillcolor="#e58139bd"] ;
0 -> 1 [labeldistance=2.5, labelangle=45, headlabel="True"] ;
2 [label="sibsp <= 2.5\ngini = 0.493\nsamples = 41\nvalue = [18, 23]\nclass = 1", fillcolor="#399de537"] ;
1 -> 2 ;
3 [label="age <= 0.375\ngini = 0.211\nsamples = 25\nvalue = [3, 22]\nclass = 1", fillcolor="#399de5dc"] ;
2 -> 3 ;
4 [label="gini = 0.0\nsamples = 1\nvalue = [1, 0]\nclass = 0", fillcolor="#e58139ff"] ;
3 -> 4 ;
5 [label="fare <= 15.573\ngini = 0.153\nsamples = 24\nvalue = [2, 22]\nclass = 1", fillcolor="#399de5e8"] ;
3 -> 5 ;
6 [label="fare <= 13.125\ngini = 0.346\nsamples = 9\nvalue = [2, 7]\nclass = 1", fillcolor="#399de5b6"] ;
5 -> 6 ;
7 [label="gini = 0.0\nsamples = 5\nvalue = [0, 5]\nclass = 1", fillcolor="#399de5ff"] ;
6 -> 7 ;
8 [label="pclass <= 2.5\ngini = 0.5\nsamples = 4\nvalue = [2, 2]\nclass = 0", fillcolor="#e5813900"] ;
6 -> 8 ;
9 [label="gini = 0.0\nsamples = 1\nvalue = [0, 1]\nclass = 1", fillcolor="#399de5ff"] ;
8 -> 9 ;
10 [label="age <= 6.5\ngini = 0.444\nsamples = 3\nvalue = [2, 1]\nclass = 0", fillcolor="#e581397f"] ;
8 -> 10 ;
11 [label="gini = 0.0\nsamples = 2\nvalue = [2, 0]\nclass = 0", fillcolor="#e58139ff"] ;
10 -> 11 ;
12 [label="gini = 0.0\nsamples = 1\nvalue = [0, 1]\nclass = 1", fillcolor="#399de5ff"] ;
10 -> 12 ;
13 [label="gini = 0.0\nsamples = 15\nvalue = [0, 15]\nclass = 1", fillcolor="#399de5ff"] ;
5 -> 13 ;
14 [label="age <= 3.5\ngini = 0.117\nsamples = 16\nvalue = [15, 1]\nclass = 0", fillcolor="#e58139ee"] ;
2 -> 14 ;
15 [label="age <= 2.5\ngini = 0.278\nsamples = 6\nvalue = [5, 1]\nclass = 0", fillcolor="#e58139cc"] ;
14 -> 15 ;
16 [label="gini = 0.0\nsamples = 5\nvalue = [5, 0]\nclass = 0", fillcolor="#e58139ff"] ;
15 -> 16 ;
17 [label="gini = 0.0\nsamples = 1\nvalue = [0, 1]\nclass = 1", fillcolor="#399de5ff"] ;
15 -> 17 ;
18 [label="gini = 0.0\nsamples = 10\nvalue = [10, 0]\nclass = 0", fillcolor="#e58139ff"] ;
14 -> 18 ;
19 [label="pclass <= 1.5\ngini = 0.296\nsamples = 597\nvalue = [489, 108]\nclass = 0", fillcolor="#e58139c7"] ;
1 -> 19 ;
20 [label="age <= 54.5\ngini = 0.45\nsamples = 143\nvalue = [94, 49]\nclass = 0", fillcolor="#e581397a"] ;
19 -> 20 ;
21 [label="fare <= 26.144\ngini = 0.479\nsamples = 116\nvalue = [70, 46]\nclass = 0", fillcolor="#e5813957"] ;
20 -> 21 ;
22 [label="fare <= 2.5\ngini = 0.18\nsamples = 10\nvalue = [9, 1]\nclass = 0", fillcolor="#e58139e3"] ;
21 -> 22 ;
23 [label="age <= 44.5\ngini = 0.444\nsamples = 3\nvalue = [2, 1]\nclass = 0", fillcolor="#e581397f"] ;
22 -> 23 ;
24 [label="gini = 0.0\nsamples = 2\nvalue = [2, 0]\nclass = 0", fillcolor="#e58139ff"] ;
23 -> 24 ;
25 [label="gini = 0.0\nsamples = 1\nvalue = [0, 1]\nclass = 1", fillcolor="#399de5ff"] ;
23 -> 25 ;
26 [label="gini = 0.0\nsamples = 7\nvalue = [7, 0]\nclass = 0", fillcolor="#e58139ff"] ;
22 -> 26 ;
27 [label="fare <= 26.469\ngini = 0.489\nsamples = 106\nvalue = [61, 45]\nclass = 0", fillcolor="#e5813943"] ;
21 -> 27 ;
28 [label="gini = 0.0\nsamples = 4\nvalue = [0, 4]\nclass = 1", fillcolor="#399de5ff"] ;
27 -> 28 ;
29 [label="age <= 15.0\ngini = 0.481\nsamples = 102\nvalue = [61, 41]\nclass = 0", fillcolor="#e5813954"] ;
27 -> 29 ;
30 [label="gini = 0.0\nsamples = 2\nvalue = [0, 2]\nclass = 1", fillcolor="#399de5ff"] ;
29 -> 30 ;
31 [label="fare <= 32.51\ngini = 0.476\nsamples = 100\nvalue = [61, 39]\nclass = 0", fillcolor="#e581395c"] ;
29 -> 31 ;
32 [label="age <= 28.25\ngini = 0.497\nsamples = 26\nvalue = [12, 14]\nclass = 1", fillcolor="#399de524"] ;
31 -> 32 ;
33 [label="gini = 0.0\nsamples = 3\nvalue = [0, 3]\nclass = 1", fillcolor="#399de5ff"] ;
32 -> 33 ;
34 [label="age <= 48.25\ngini = 0.499\nsamples = 23\nvalue = [12, 11]\nclass = 0", fillcolor="#e5813915"] ;
32 -> 34 ;
35 [label="gini = 0.48\nsamples = 20\nvalue = [12, 8]\nclass = 0", fillcolor="#e5813955"] ;
34 -> 35 ;
36 [label="gini = 0.0\nsamples = 3\nvalue = [0, 3]\nclass = 1", fillcolor="#399de5ff"] ;
34 -> 36 ;
37 [label="fare <= 51.931\ngini = 0.447\nsamples = 74\nvalue = [49, 25]\nclass = 0", fillcolor="#e581397d"] ;
31 -> 37 ;
38 [label="fare <= 37.0\ngini = 0.133\nsamples = 14\nvalue = [13, 1]\nclass = 0", fillcolor="#e58139eb"] ;
37 -> 38 ;
39 [label="gini = 0.444\nsamples = 3\nvalue = [2, 1]\nclass = 0", fillcolor="#e581397f"] ;
38 -> 39 ;
40 [label="gini = 0.0\nsamples = 11\nvalue = [11, 0]\nclass = 0", fillcolor="#e58139ff"] ;
38 -> 40 ;
41 [label="fare <= 58.875\ngini = 0.48\nsamples = 60\nvalue = [36, 24]\nclass = 0", fillcolor="#e5813955"] ;
37 -> 41 ;
42 [label="gini = 0.48\nsamples = 15\nvalue = [6, 9]\nclass = 1", fillcolor="#399de555"] ;
41 -> 42 ;
43 [label="gini = 0.444\nsamples = 45\nvalue = [30, 15]\nclass = 0", fillcolor="#e581397f"] ;
41 -> 43 ;
44 [label="age <= 75.5\ngini = 0.198\nsamples = 27\nvalue = [24, 3]\nclass = 0", fillcolor="#e58139df"] ;
20 -> 44 ;
45 [label="embarked <= 1.0\ngini = 0.142\nsamples = 26\nvalue = [24, 2]\nclass = 0", fillcolor="#e58139ea"] ;
44 -> 45 ;
46 [label="age <= 60.5\ngini = 0.298\nsamples = 11\nvalue = [9, 2]\nclass = 0", fillcolor="#e58139c6"] ;
45 -> 46 ;
47 [label="age <= 59.0\ngini = 0.408\nsamples = 7\nvalue = [5, 2]\nclass = 0", fillcolor="#e5813999"] ;
46 -> 47 ;
48 [label="age <= 56.5\ngini = 0.278\nsamples = 6\nvalue = [5, 1]\nclass = 0", fillcolor="#e58139cc"] ;
47 -> 48 ;
49 [label="age <= 55.5\ngini = 0.444\nsamples = 3\nvalue = [2, 1]\nclass = 0", fillcolor="#e581397f"] ;
48 -> 49 ;
50 [label="gini = 0.0\nsamples = 1\nvalue = [1, 0]\nclass = 0", fillcolor="#e58139ff"] ;
49 -> 50 ;
51 [label="gini = 0.5\nsamples = 2\nvalue = [1, 1]\nclass = 0", fillcolor="#e5813900"] ;
49 -> 51 ;
52 [label="gini = 0.0\nsamples = 3\nvalue = [3, 0]\nclass = 0", fillcolor="#e58139ff"] ;
48 -> 52 ;
53 [label="gini = 0.0\nsamples = 1\nvalue = [0, 1]\nclass = 1", fillcolor="#399de5ff"] ;
47 -> 53 ;
54 [label="gini = 0.0\nsamples = 4\nvalue = [4, 0]\nclass = 0", fillcolor="#e58139ff"] ;
46 -> 54 ;
55 [label="gini = 0.0\nsamples = 15\nvalue = [15, 0]\nclass = 0", fillcolor="#e58139ff"] ;
45 -> 55 ;
56 [label="gini = 0.0\nsamples = 1\nvalue = [0, 1]\nclass = 1", fillcolor="#399de5ff"] ;
44 -> 56 ;
57 [label="age <= 32.25\ngini = 0.226\nsamples = 454\nvalue = [395, 59]\nclass = 0", fillcolor="#e58139d9"] ;
19 -> 57 ;
58 [label="fare <= 7.837\ngini = 0.273\nsamples = 312\nvalue = [261, 51]\nclass = 0", fillcolor="#e58139cd"] ;
57 -> 58 ;
59 [label="age <= 19.5\ngini = 0.378\nsamples = 83\nvalue = [62, 21]\nclass = 0", fillcolor="#e58139a9"] ;
58 -> 59 ;
60 [label="gini = 0.0\nsamples = 14\nvalue = [14, 0]\nclass = 0", fillcolor="#e58139ff"] ;
59 -> 60 ;
61 [label="fare <= 7.535\ngini = 0.423\nsamples = 69\nvalue = [48, 21]\nclass = 0", fillcolor="#e581398f"] ;
59 -> 61 ;
62 [label="fare <= 7.01\ngini = 0.307\nsamples = 37\nvalue = [30, 7]\nclass = 0", fillcolor="#e58139c4"] ;
61 -> 62 ;
63 [label="age <= 23.0\ngini = 0.444\nsamples = 3\nvalue = [1, 2]\nclass = 1", fillcolor="#399de57f"] ;
62 -> 63 ;
64 [label="gini = 0.0\nsamples = 1\nvalue = [1, 0]\nclass = 0", fillcolor="#e58139ff"] ;
63 -> 64 ;
65 [label="gini = 0.0\nsamples = 2\nvalue = [0, 2]\nclass = 1", fillcolor="#399de5ff"] ;
63 -> 65 ;
66 [label="embarked <= 0.5\ngini = 0.251\nsamples = 34\nvalue = [29, 5]\nclass = 0", fillcolor="#e58139d3"] ;
62 -> 66 ;
67 [label="age <= 22.25\ngini = 0.391\nsamples = 15\nvalue = [11, 4]\nclass = 0", fillcolor="#e58139a2"] ;
66 -> 67 ;
68 [label="gini = 0.5\nsamples = 6\nvalue = [3, 3]\nclass = 0", fillcolor="#e5813900"] ;
67 -> 68 ;
69 [label="gini = 0.198\nsamples = 9\nvalue = [8, 1]\nclass = 0", fillcolor="#e58139df"] ;
67 -> 69 ;
70 [label="fare <= 7.196\ngini = 0.1\nsamples = 19\nvalue = [18, 1]\nclass = 0", fillcolor="#e58139f1"] ;
66 -> 70 ;
71 [label="gini = 0.219\nsamples = 8\nvalue = [7, 1]\nclass = 0", fillcolor="#e58139db"] ;
70 -> 71 ;
72 [label="gini = 0.0\nsamples = 11\nvalue = [11, 0]\nclass = 0", fillcolor="#e58139ff"] ;
70 -> 72 ;
73 [label="fare <= 7.615\ngini = 0.492\nsamples = 32\nvalue = [18, 14]\nclass = 0", fillcolor="#e5813939"] ;
61 -> 73 ;
74 [label="gini = 0.0\nsamples = 2\nvalue = [0, 2]\nclass = 1", fillcolor="#399de5ff"] ;
73 -> 74 ;
75 [label="fare <= 7.762\ngini = 0.48\nsamples = 30\nvalue = [18, 12]\nclass = 0", fillcolor="#e5813955"] ;
73 -> 75 ;
76 [label="age <= 30.0\ngini = 0.346\nsamples = 9\nvalue = [7, 2]\nclass = 0", fillcolor="#e58139b6"] ;
75 -> 76 ;
77 [label="gini = 0.444\nsamples = 6\nvalue = [4, 2]\nclass = 0", fillcolor="#e581397f"] ;
76 -> 77 ;
78 [label="gini = 0.0\nsamples = 3\nvalue = [3, 0]\nclass = 0", fillcolor="#e58139ff"] ;
76 -> 78 ;
79 [label="age <= 21.5\ngini = 0.499\nsamples = 21\nvalue = [11, 10]\nclass = 0", fillcolor="#e5813917"] ;
75 -> 79 ;
80 [label="gini = 0.32\nsamples = 5\nvalue = [1, 4]\nclass = 1", fillcolor="#399de5bf"] ;
79 -> 80 ;
81 [label="gini = 0.469\nsamples = 16\nvalue = [10, 6]\nclass = 0", fillcolor="#e5813966"] ;
79 -> 81 ;
82 [label="embarked <= 0.5\ngini = 0.228\nsamples = 229\nvalue = [199, 30]\nclass = 0", fillcolor="#e58139d9"] ;
58 -> 82 ;
83 [label="fare <= 14.158\ngini = 0.484\nsamples = 17\nvalue = [10, 7]\nclass = 0", fillcolor="#e581394d"] ;
82 -> 83 ;
84 [label="gini = 0.0\nsamples = 5\nvalue = [0, 5]\nclass = 1", fillcolor="#399de5ff"] ;
83 -> 84 ;
85 [label="pclass <= 2.5\ngini = 0.278\nsamples = 12\nvalue = [10, 2]\nclass = 0", fillcolor="#e58139cc"] ;
83 -> 85 ;
86 [label="gini = 0.0\nsamples = 6\nvalue = [6, 0]\nclass = 0", fillcolor="#e58139ff"] ;
85 -> 86 ;
87 [label="fare <= 15.098\ngini = 0.444\nsamples = 6\nvalue = [4, 2]\nclass = 0", fillcolor="#e581397f"] ;
85 -> 87 ;
88 [label="gini = 0.0\nsamples = 3\nvalue = [3, 0]\nclass = 0", fillcolor="#e58139ff"] ;
87 -> 88 ;
89 [label="age <= 15.5\ngini = 0.444\nsamples = 3\nvalue = [1, 2]\nclass = 1", fillcolor="#399de57f"] ;
87 -> 89 ;
90 [label="gini = 0.0\nsamples = 1\nvalue = [1, 0]\nclass = 0", fillcolor="#e58139ff"] ;
89 -> 90 ;
91 [label="gini = 0.0\nsamples = 2\nvalue = [0, 2]\nclass = 1", fillcolor="#399de5ff"] ;
89 -> 91 ;
92 [label="age <= 30.75\ngini = 0.193\nsamples = 212\nvalue = [189, 23]\nclass = 0", fillcolor="#e58139e0"] ;
82 -> 92 ;
93 [label="fare <= 11.0\ngini = 0.154\nsamples = 191\nvalue = [175, 16]\nclass = 0", fillcolor="#e58139e8"] ;
92 -> 93 ;
94 [label="age <= 15.0\ngini = 0.208\nsamples = 110\nvalue = [97, 13]\nclass = 0", fillcolor="#e58139dd"] ;
93 -> 94 ;
95 [label="gini = 0.0\nsamples = 1\nvalue = [0, 1]\nclass = 1", fillcolor="#399de5ff"] ;
94 -> 95 ;
96 [label="fare <= 7.91\ngini = 0.196\nsamples = 109\nvalue = [97, 12]\nclass = 0", fillcolor="#e58139df"] ;
94 -> 96 ;
97 [label="gini = 0.0\nsamples = 33\nvalue = [33, 0]\nclass = 0", fillcolor="#e58139ff"] ;
96 -> 97 ;
98 [label="gini = 0.266\nsamples = 76\nvalue = [64, 12]\nclass = 0", fillcolor="#e58139cf"] ;
96 -> 98 ;
99 [label="age <= 25.5\ngini = 0.071\nsamples = 81\nvalue = [78, 3]\nclass = 0", fillcolor="#e58139f5"] ;
93 -> 99 ;
100 [label="gini = 0.0\nsamples = 53\nvalue = [53, 0]\nclass = 0", fillcolor="#e58139ff"] ;
99 -> 100 ;
101 [label="sibsp <= 2.0\ngini = 0.191\nsamples = 28\nvalue = [25, 3]\nclass = 0", fillcolor="#e58139e0"] ;
99 -> 101 ;
102 [label="gini = 0.137\nsamples = 27\nvalue = [25, 2]\nclass = 0", fillcolor="#e58139eb"] ;
101 -> 102 ;
103 [label="gini = 0.0\nsamples = 1\nvalue = [0, 1]\nclass = 1", fillcolor="#399de5ff"] ;
101 -> 103 ;
104 [label="fare <= 7.875\ngini = 0.444\nsamples = 21\nvalue = [14, 7]\nclass = 0", fillcolor="#e581397f"] ;
92 -> 104 ;
105 [label="gini = 0.0\nsamples = 1\nvalue = [0, 1]\nclass = 1", fillcolor="#399de5ff"] ;
104 -> 105 ;
106 [label="sibsp <= 1.5\ngini = 0.42\nsamples = 20\nvalue = [14, 6]\nclass = 0", fillcolor="#e5813992"] ;
104 -> 106 ;
107 [label="fare <= 41.373\ngini = 0.444\nsamples = 18\nvalue = [12, 6]\nclass = 0", fillcolor="#e581397f"] ;
106 -> 107 ;
108 [label="gini = 0.415\nsamples = 17\nvalue = [12, 5]\nclass = 0", fillcolor="#e5813995"] ;
107 -> 108 ;
109 [label="gini = 0.0\nsamples = 1\nvalue = [0, 1]\nclass = 1", fillcolor="#399de5ff"] ;
107 -> 109 ;
110 [label="gini = 0.0\nsamples = 2\nvalue = [2, 0]\nclass = 0", fillcolor="#e58139ff"] ;
106 -> 110 ;
111 [label="fare <= 7.91\ngini = 0.106\nsamples = 142\nvalue = [134, 8]\nclass = 0", fillcolor="#e58139f0"] ;
57 -> 111 ;
112 [label="gini = 0.0\nsamples = 40\nvalue = [40, 0]\nclass = 0", fillcolor="#e58139ff"] ;
111 -> 112 ;
113 [label="fare <= 7.988\ngini = 0.145\nsamples = 102\nvalue = [94, 8]\nclass = 0", fillcolor="#e58139e9"] ;
111 -> 113 ;
114 [label="age <= 38.0\ngini = 0.5\nsamples = 4\nvalue = [2, 2]\nclass = 0", fillcolor="#e5813900"] ;
113 -> 114 ;
115 [label="gini = 0.0\nsamples = 1\nvalue = [1, 0]\nclass = 0", fillcolor="#e58139ff"] ;
114 -> 115 ;
116 [label="age <= 41.5\ngini = 0.444\nsamples = 3\nvalue = [1, 2]\nclass = 1", fillcolor="#399de57f"] ;
114 -> 116 ;
117 [label="gini = 0.5\nsamples = 2\nvalue = [1, 1]\nclass = 0", fillcolor="#e5813900"] ;
116 -> 117 ;
118 [label="gini = 0.0\nsamples = 1\nvalue = [0, 1]\nclass = 1", fillcolor="#399de5ff"] ;
116 -> 118 ;
119 [label="fare <= 18.962\ngini = 0.115\nsamples = 98\nvalue = [92, 6]\nclass = 0", fillcolor="#e58139ee"] ;
113 -> 119 ;
120 [label="fare <= 16.75\ngini = 0.163\nsamples = 67\nvalue = [61, 6]\nclass = 0", fillcolor="#e58139e6"] ;
119 -> 120 ;
121 [label="age <= 61.5\ngini = 0.14\nsamples = 66\nvalue = [61, 5]\nclass = 0", fillcolor="#e58139ea"] ;
120 -> 121 ;
122 [label="embarked <= 0.5\ngini = 0.121\nsamples = 62\nvalue = [58, 4]\nclass = 0", fillcolor="#e58139ed"] ;
121 -> 122 ;
123 [label="gini = 0.375\nsamples = 4\nvalue = [3, 1]\nclass = 0", fillcolor="#e58139aa"] ;
122 -> 123 ;
124 [label="gini = 0.098\nsamples = 58\nvalue = [55, 3]\nclass = 0", fillcolor="#e58139f1"] ;
122 -> 124 ;
125 [label="age <= 64.0\ngini = 0.375\nsamples = 4\nvalue = [3, 1]\nclass = 0", fillcolor="#e58139aa"] ;
121 -> 125 ;
126 [label="gini = 0.5\nsamples = 2\nvalue = [1, 1]\nclass = 0", fillcolor="#e5813900"] ;
125 -> 126 ;
127 [label="gini = 0.0\nsamples = 2\nvalue = [2, 0]\nclass = 0", fillcolor="#e58139ff"] ;
125 -> 127 ;
128 [label="gini = 0.0\nsamples = 1\nvalue = [0, 1]\nclass = 1", fillcolor="#399de5ff"] ;
120 -> 128 ;
129 [label="gini = 0.0\nsamples = 31\nvalue = [31, 0]\nclass = 0", fillcolor="#e58139ff"] ;
119 -> 129 ;
130 [label="pclass <= 2.5\ngini = 0.376\nsamples = 375\nvalue = [94, 281]\nclass = 1", fillcolor="#399de5aa"] ;
0 -> 130 [labeldistance=2.5, labelangle=-45, headlabel="False"] ;
131 [label="fare <= 32.09\ngini = 0.118\nsamples = 223\nvalue = [14, 209]\nclass = 1", fillcolor="#399de5ee"] ;
130 -> 131 ;
132 [label="fare <= 31.34\ngini = 0.232\nsamples = 97\nvalue = [13, 84]\nclass = 1", fillcolor="#399de5d8"] ;
131 -> 132 ;
133 [label="age <= 56.0\ngini = 0.219\nsamples = 96\nvalue = [12, 84]\nclass = 1", fillcolor="#399de5db"] ;
132 -> 133 ;
134 [label="parch <= 1.5\ngini = 0.194\nsamples = 92\nvalue = [10, 82]\nclass = 1", fillcolor="#399de5e0"] ;
133 -> 134 ;
135 [label="fare <= 12.825\ngini = 0.221\nsamples = 79\nvalue = [10, 69]\nclass = 1", fillcolor="#399de5da"] ;
134 -> 135 ;
136 [label="gini = 0.0\nsamples = 11\nvalue = [0, 11]\nclass = 1", fillcolor="#399de5ff"] ;
135 -> 136 ;
137 [label="fare <= 13.25\ngini = 0.251\nsamples = 68\nvalue = [10, 58]\nclass = 1", fillcolor="#399de5d3"] ;
135 -> 137 ;
138 [label="parch <= 0.5\ngini = 0.391\nsamples = 15\nvalue = [4, 11]\nclass = 1", fillcolor="#399de5a2"] ;
137 -> 138 ;
139 [label="age <= 39.0\ngini = 0.337\nsamples = 14\nvalue = [3, 11]\nclass = 1", fillcolor="#399de5b9"] ;
138 -> 139 ;
140 [label="gini = 0.375\nsamples = 12\nvalue = [3, 9]\nclass = 1", fillcolor="#399de5aa"] ;
139 -> 140 ;
141 [label="gini = 0.0\nsamples = 2\nvalue = [0, 2]\nclass = 1", fillcolor="#399de5ff"] ;
139 -> 141 ;
142 [label="gini = 0.0\nsamples = 1\nvalue = [1, 0]\nclass = 0", fillcolor="#e58139ff"] ;
138 -> 142 ;
143 [label="age <= 21.5\ngini = 0.201\nsamples = 53\nvalue = [6, 47]\nclass = 1", fillcolor="#399de5de"] ;
137 -> 143 ;
144 [label="gini = 0.0\nsamples = 13\nvalue = [0, 13]\nclass = 1", fillcolor="#399de5ff"] ;
143 -> 144 ;
145 [label="age <= 22.5\ngini = 0.255\nsamples = 40\nvalue = [6, 34]\nclass = 1", fillcolor="#399de5d2"] ;
143 -> 145 ;
146 [label="gini = 0.5\nsamples = 2\nvalue = [1, 1]\nclass = 0", fillcolor="#e5813900"] ;
145 -> 146 ;
147 [label="gini = 0.229\nsamples = 38\nvalue = [5, 33]\nclass = 1", fillcolor="#399de5d8"] ;
145 -> 147 ;
148 [label="gini = 0.0\nsamples = 13\nvalue = [0, 13]\nclass = 1", fillcolor="#399de5ff"] ;
134 -> 148 ;
149 [label="pclass <= 1.5\ngini = 0.5\nsamples = 4\nvalue = [2, 2]\nclass = 0", fillcolor="#e5813900"] ;
133 -> 149 ;
150 [label="gini = 0.0\nsamples = 2\nvalue = [0, 2]\nclass = 1", fillcolor="#399de5ff"] ;
149 -> 150 ;
151 [label="gini = 0.0\nsamples = 2\nvalue = [2, 0]\nclass = 0", fillcolor="#e58139ff"] ;
149 -> 151 ;
152 [label="gini = 0.0\nsamples = 1\nvalue = [1, 0]\nclass = 0", fillcolor="#e58139ff"] ;
132 -> 152 ;
153 [label="age <= 61.5\ngini = 0.016\nsamples = 126\nvalue = [1, 125]\nclass = 1", fillcolor="#399de5fd"] ;
131 -> 153 ;
154 [label="gini = 0.0\nsamples = 123\nvalue = [0, 123]\nclass = 1", fillcolor="#399de5ff"] ;
153 -> 154 ;
155 [label="age <= 63.5\ngini = 0.444\nsamples = 3\nvalue = [1, 2]\nclass = 1", fillcolor="#399de57f"] ;
153 -> 155 ;
156 [label="gini = 0.0\nsamples = 1\nvalue = [1, 0]\nclass = 0", fillcolor="#e58139ff"] ;
155 -> 156 ;
157 [label="gini = 0.0\nsamples = 2\nvalue = [0, 2]\nclass = 1", fillcolor="#399de5ff"] ;
155 -> 157 ;
158 [label="fare <= 23.087\ngini = 0.499\nsamples = 152\nvalue = [80, 72]\nclass = 0", fillcolor="#e5813919"] ;
130 -> 158 ;
159 [label="embarked <= 0.5\ngini = 0.498\nsamples = 131\nvalue = [61, 70]\nclass = 1", fillcolor="#399de521"] ;
158 -> 159 ;
160 [label="fare <= 13.935\ngini = 0.351\nsamples = 22\nvalue = [5, 17]\nclass = 1", fillcolor="#399de5b4"] ;
159 -> 160 ;
161 [label="gini = 0.0\nsamples = 8\nvalue = [0, 8]\nclass = 1", fillcolor="#399de5ff"] ;
160 -> 161 ;
162 [label="fare <= 14.852\ngini = 0.459\nsamples = 14\nvalue = [5, 9]\nclass = 1", fillcolor="#399de571"] ;
160 -> 162 ;
163 [label="sibsp <= 0.5\ngini = 0.32\nsamples = 5\nvalue = [4, 1]\nclass = 0", fillcolor="#e58139bf"] ;
162 -> 163 ;
164 [label="gini = 0.0\nsamples = 3\nvalue = [3, 0]\nclass = 0", fillcolor="#e58139ff"] ;
163 -> 164 ;
165 [label="age <= 14.75\ngini = 0.5\nsamples = 2\nvalue = [1, 1]\nclass = 0", fillcolor="#e5813900"] ;
163 -> 165 ;
166 [label="gini = 0.0\nsamples = 1\nvalue = [1, 0]\nclass = 0", fillcolor="#e58139ff"] ;
165 -> 166 ;
167 [label="gini = 0.0\nsamples = 1\nvalue = [0, 1]\nclass = 1", fillcolor="#399de5ff"] ;
165 -> 167 ;
168 [label="fare <= 15.494\ngini = 0.198\nsamples = 9\nvalue = [1, 8]\nclass = 1", fillcolor="#399de5df"] ;
162 -> 168 ;
169 [label="parch <= 1.5\ngini = 0.444\nsamples = 3\nvalue = [1, 2]\nclass = 1", fillcolor="#399de57f"] ;
168 -> 169 ;
170 [label="gini = 0.5\nsamples = 2\nvalue = [1, 1]\nclass = 0", fillcolor="#e5813900"] ;
169 -> 170 ;
171 [label="gini = 0.0\nsamples = 1\nvalue = [0, 1]\nclass = 1", fillcolor="#399de5ff"] ;
169 -> 171 ;
172 [label="gini = 0.0\nsamples = 6\nvalue = [0, 6]\nclass = 1", fillcolor="#399de5ff"] ;
168 -> 172 ;
173 [label="age <= 27.5\ngini = 0.5\nsamples = 109\nvalue = [56, 53]\nclass = 0", fillcolor="#e581390e"] ;
159 -> 173 ;
174 [label="sibsp <= 1.5\ngini = 0.496\nsamples = 75\nvalue = [34, 41]\nclass = 1", fillcolor="#399de52c"] ;
173 -> 174 ;
175 [label="fare <= 20.394\ngini = 0.49\nsamples = 70\nvalue = [30, 40]\nclass = 1", fillcolor="#399de540"] ;
174 -> 175 ;
176 [label="fare <= 17.25\ngini = 0.495\nsamples = 67\nvalue = [30, 37]\nclass = 1", fillcolor="#399de530"] ;
175 -> 176 ;
177 [label="fare <= 16.4\ngini = 0.49\nsamples = 65\nvalue = [28, 37]\nclass = 1", fillcolor="#399de53e"] ;
176 -> 177 ;
178 [label="sibsp <= 0.5\ngini = 0.495\nsamples = 62\nvalue = [28, 34]\nclass = 1", fillcolor="#399de52d"] ;
177 -> 178 ;
179 [label="gini = 0.483\nsamples = 49\nvalue = [20, 29]\nclass = 1", fillcolor="#399de54f"] ;
178 -> 179 ;
180 [label="gini = 0.473\nsamples = 13\nvalue = [8, 5]\nclass = 0", fillcolor="#e5813960"] ;
178 -> 180 ;
181 [label="gini = 0.0\nsamples = 3\nvalue = [0, 3]\nclass = 1", fillcolor="#399de5ff"] ;
177 -> 181 ;
182 [label="gini = 0.0\nsamples = 2\nvalue = [2, 0]\nclass = 0", fillcolor="#e58139ff"] ;
176 -> 182 ;
183 [label="gini = 0.0\nsamples = 3\nvalue = [0, 3]\nclass = 1", fillcolor="#399de5ff"] ;
175 -> 183 ;
184 [label="fare <= 8.294\ngini = 0.32\nsamples = 5\nvalue = [4, 1]\nclass = 0", fillcolor="#e58139bf"] ;
174 -> 184 ;
185 [label="gini = 0.0\nsamples = 1\nvalue = [0, 1]\nclass = 1", fillcolor="#399de5ff"] ;
184 -> 185 ;
186 [label="gini = 0.0\nsamples = 4\nvalue = [4, 0]\nclass = 0", fillcolor="#e58139ff"] ;
184 -> 186 ;
187 [label="fare <= 15.7\ngini = 0.457\nsamples = 34\nvalue = [22, 12]\nclass = 0", fillcolor="#e5813974"] ;
173 -> 187 ;
188 [label="fare <= 7.315\ngini = 0.365\nsamples = 25\nvalue = [19, 6]\nclass = 0", fillcolor="#e58139ae"] ;
187 -> 188 ;
189 [label="gini = 0.0\nsamples = 2\nvalue = [0, 2]\nclass = 1", fillcolor="#399de5ff"] ;
188 -> 189 ;
190 [label="age <= 55.0\ngini = 0.287\nsamples = 23\nvalue = [19, 4]\nclass = 0", fillcolor="#e58139c9"] ;
188 -> 190 ;
191 [label="fare <= 8.673\ngini = 0.236\nsamples = 22\nvalue = [19, 3]\nclass = 0", fillcolor="#e58139d7"] ;
190 -> 191 ;
192 [label="gini = 0.0\nsamples = 11\nvalue = [11, 0]\nclass = 0", fillcolor="#e58139ff"] ;
191 -> 192 ;
193 [label="fare <= 9.079\ngini = 0.397\nsamples = 11\nvalue = [8, 3]\nclass = 0", fillcolor="#e581399f"] ;
191 -> 193 ;
194 [label="gini = 0.0\nsamples = 1\nvalue = [0, 1]\nclass = 1", fillcolor="#399de5ff"] ;
193 -> 194 ;
195 [label="gini = 0.32\nsamples = 10\nvalue = [8, 2]\nclass = 0", fillcolor="#e58139bf"] ;
193 -> 195 ;
196 [label="gini = 0.0\nsamples = 1\nvalue = [0, 1]\nclass = 1", fillcolor="#399de5ff"] ;
190 -> 196 ;
197 [label="age <= 30.0\ngini = 0.444\nsamples = 9\nvalue = [3, 6]\nclass = 1", fillcolor="#399de57f"] ;
187 -> 197 ;
198 [label="gini = 0.0\nsamples = 1\nvalue = [1, 0]\nclass = 0", fillcolor="#e58139ff"] ;
197 -> 198 ;
199 [label="age <= 38.5\ngini = 0.375\nsamples = 8\nvalue = [2, 6]\nclass = 1", fillcolor="#399de5aa"] ;
197 -> 199 ;
200 [label="age <= 32.0\ngini = 0.245\nsamples = 7\nvalue = [1, 6]\nclass = 1", fillcolor="#399de5d4"] ;
199 -> 200 ;
201 [label="parch <= 0.5\ngini = 0.5\nsamples = 2\nvalue = [1, 1]\nclass = 0", fillcolor="#e5813900"] ;
200 -> 201 ;
202 [label="gini = 0.0\nsamples = 1\nvalue = [1, 0]\nclass = 0", fillcolor="#e58139ff"] ;
201 -> 202 ;
203 [label="gini = 0.0\nsamples = 1\nvalue = [0, 1]\nclass = 1", fillcolor="#399de5ff"] ;
201 -> 203 ;
204 [label="gini = 0.0\nsamples = 5\nvalue = [0, 5]\nclass = 1", fillcolor="#399de5ff"] ;
200 -> 204 ;
205 [label="gini = 0.0\nsamples = 1\nvalue = [1, 0]\nclass = 0", fillcolor="#e58139ff"] ;
199 -> 205 ;
206 [label="fare <= 31.331\ngini = 0.172\nsamples = 21\nvalue = [19, 2]\nclass = 0", fillcolor="#e58139e4"] ;
158 -> 206 ;
207 [label="gini = 0.0\nsamples = 11\nvalue = [11, 0]\nclass = 0", fillcolor="#e58139ff"] ;
206 -> 207 ;
208 [label="fare <= 32.881\ngini = 0.32\nsamples = 10\nvalue = [8, 2]\nclass = 0", fillcolor="#e58139bf"] ;
206 -> 208 ;
209 [label="gini = 0.0\nsamples = 2\nvalue = [0, 2]\nclass = 1", fillcolor="#399de5ff"] ;
208 -> 209 ;
210 [label="gini = 0.0\nsamples = 8\nvalue = [8, 0]\nclass = 0", fillcolor="#e58139ff"] ;
208 -> 210 ;
{rank=same ; 0} ;
{rank=same ; 1; 130} ;
{rank=same ; 2; 19; 131; 158} ;
{rank=same ; 3; 14; 20; 57; 132; 153; 159; 206} ;
{rank=same ; 5; 15; 21; 44; 58; 111; 133; 155; 160; 173; 208} ;
{rank=same ; 6; 22; 27; 45; 59; 82; 113; 134; 149; 162; 174; 187} ;
{rank=same ; 8; 23; 29; 46; 61; 83; 92; 114; 119; 135; 163; 168; 175; 184; 188; 197} ;
{rank=same ; 10; 31; 47; 62; 73; 85; 93; 104; 116; 120; 137; 165; 169; 176; 190; 199} ;
{rank=same ; 32; 37; 48; 63; 66; 75; 87; 94; 99; 106; 121; 138; 143; 177; 191; 200} ;
{rank=same ; 34; 38; 41; 49; 67; 70; 76; 79; 89; 96; 101; 107; 122; 125; 139; 145; 178; 193; 201} ;
{rank=same ; 4; 7; 9; 11; 12; 13; 16; 17; 18; 24; 25; 26; 28; 30; 33; 35; 36; 39; 40; 42; 43; 50; 51; 52; 53; 54; 55; 56; 60; 64; 65; 68; 69; 71; 72; 74; 77; 78; 80; 81; 84; 86; 88; 90; 91; 95; 97; 98; 100; 102; 103; 105; 108; 109; 110; 112; 115; 117; 118; 123; 124; 126; 127; 128; 129; 136; 140; 141; 142; 144; 146; 147; 148; 150; 151; 152; 154; 156; 157; 161; 164; 166; 167; 170; 171; 172; 179; 180; 181; 182; 183; 185; 186; 189; 192; 194; 195; 196; 198; 202; 203; 204; 205; 207; 209; 210} ;
}