digraph Tree {
node [shape=box, style="filled", color="black"] ;
graph [ranksep=equally, splines=polyline] ;
0 [label="sex <= 0.5\ngini = 0.486\nsamples = 632\nvalue = [590, 423]\nclass = 0", fillcolor="#e5813948"] ;
1 [label="fare <= 109.892\ngini = 0.317\nsamples = 397\nvalue = [501, 123]\nclass = 0", fillcolor="#e58139c0"] ;
0 -> 1 [labeldistance=2.5, labelangle=45, headlabel="True"] ;
2 [label="embarked <= 0.5\ngini = 0.293\nsamples = 380\nvalue = [489, 106]\nclass = 0", fillcolor="#e58139c8"] ;
1 -> 2 ;
3 [label="pclass <= 1.5\ngini = 0.455\nsamples = 55\nvalue = [54, 29]\nclass = 0", fillcolor="#e5813976"] ;
2 -> 3 ;
4 [label="gini = 0.492\nsamples = 25\nvalue = [22, 17]\nclass = 0", fillcolor="#e581393a"] ;
3 -> 4 ;
5 [label="gini = 0.397\nsamples = 30\nvalue = [32, 12]\nclass = 0", fillcolor="#e581399f"] ;
3 -> 5 ;
6 [label="age <= 9.5\ngini = 0.256\nsamples = 325\nvalue = [435, 77]\nclass = 0", fillcolor="#e58139d2"] ;
2 -> 6 ;
7 [label="gini = 0.499\nsamples = 23\nvalue = [20, 18]\nclass = 0", fillcolor="#e5813919"] ;
6 -> 7 ;
8 [label="gini = 0.218\nsamples = 302\nvalue = [415, 59]\nclass = 0", fillcolor="#e58139db"] ;
6 -> 8 ;
9 [label="parch <= 2.5\ngini = 0.485\nsamples = 17\nvalue = [12, 17]\nclass = 1", fillcolor="#399de54b"] ;
1 -> 9 ;
10 [label="fare <= 135.64\ngini = 0.466\nsamples = 16\nvalue = [10, 17]\nclass = 1", fillcolor="#399de569"] ;
9 -> 10 ;
11 [label="gini = 0.165\nsamples = 6\nvalue = [1, 10]\nclass = 1", fillcolor="#399de5e6"] ;
10 -> 11 ;
12 [label="gini = 0.492\nsamples = 10\nvalue = [9, 7]\nclass = 0", fillcolor="#e5813939"] ;
10 -> 12 ;
13 [label="gini = 0.0\nsamples = 1\nvalue = [2, 0]\nclass = 0", fillcolor="#e58139ff"] ;
9 -> 13 ;
14 [label="embarked <= 0.5\ngini = 0.353\nsamples = 235\nvalue = [89, 300]\nclass = 1", fillcolor="#399de5b3"] ;
0 -> 14 [labeldistance=2.5, labelangle=-45, headlabel="False"] ;
15 [label="age <= 17.5\ngini = 0.105\nsamples = 60\nvalue = [6, 102]\nclass = 1", fillcolor="#399de5f0"] ;
14 -> 15 ;
16 [label="fare <= 15.1\ngini = 0.219\nsamples = 11\nvalue = [2, 14]\nclass = 1", fillcolor="#399de5db"] ;
15 -> 16 ;
17 [label="gini = 0.444\nsamples = 5\nvalue = [2, 4]\nclass = 1", fillcolor="#399de57f"] ;
16 -> 17 ;
18 [label="gini = 0.0\nsamples = 6\nvalue = [0, 10]\nclass = 1", fillcolor="#399de5ff"] ;
16 -> 18 ;
19 [label="fare <= 34.342\ngini = 0.083\nsamples = 49\nvalue = [4, 88]\nclass = 1", fillcolor="#399de5f3"] ;
15 -> 19 ;
20 [label="gini = 0.26\nsamples = 11\nvalue = [4, 22]\nclass = 1", fillcolor="#399de5d1"] ;
19 -> 20 ;
21 [label="gini = 0.0\nsamples = 38\nvalue = [0, 66]\nclass = 1", fillcolor="#399de5ff"] ;
19 -> 21 ;
22 [label="pclass <= 2.5\ngini = 0.416\nsamples = 175\nvalue = [83, 198]\nclass = 1", fillcolor="#399de594"] ;
14 -> 22 ;
23 [label="pclass <= 1.5\ngini = 0.133\nsamples = 98\nvalue = [11, 142]\nclass = 1", fillcolor="#399de5eb"] ;
22 -> 23 ;
24 [label="gini = 0.029\nsamples = 42\nvalue = [1, 67]\nclass = 1", fillcolor="#399de5fb"] ;
23 -> 24 ;
25 [label="gini = 0.208\nsamples = 56\nvalue = [10, 75]\nclass = 1", fillcolor="#399de5dd"] ;
23 -> 25 ;
26 [label="fare <= 32.881\ngini = 0.492\nsamples = 77\nvalue = [72, 56]\nclass = 0", fillcolor="#e5813939"] ;
22 -> 26 ;
27 [label="gini = 0.499\nsamples = 69\nvalue = [60, 56]\nclass = 0", fillcolor="#e5813911"] ;
26 -> 27 ;
28 [label="gini = 0.0\nsamples = 8\nvalue = [12, 0]\nclass = 0", fillcolor="#e58139ff"] ;
26 -> 28 ;
{rank=same ; 0} ;
{rank=same ; 1; 14} ;
{rank=same ; 2; 9; 15; 22} ;
{rank=same ; 3; 6; 10; 16; 19; 23; 26} ;
{rank=same ; 4; 5; 7; 8; 11; 12; 13; 17; 18; 20; 21; 24; 25; 27; 28} ;
}