digraph Tree {
node [shape=box, style="filled", color="black"] ;
graph [ranksep=equally, splines=polyline] ;
0 [label="fare <= 52.277\ngini = 0.481\nsamples = 649\nvalue = [604, 409]\nclass = 0", fillcolor="#e5813952"] ;
1 [label="age <= 27.5\ngini = 0.443\nsamples = 523\nvalue = [544, 270]\nclass = 0", fillcolor="#e5813980"] ;
0 -> 1 [labeldistance=2.5, labelangle=45, headlabel="True"] ;
2 [label="sex <= 0.5\ngini = 0.481\nsamples = 268\nvalue = [244, 165]\nclass = 0", fillcolor="#e5813953"] ;
1 -> 2 ;
3 [label="parch <= 0.5\ngini = 0.326\nsamples = 167\nvalue = [205, 53]\nclass = 0", fillcolor="#e58139bd"] ;
2 -> 3 ;
4 [label="gini = 0.286\nsamples = 126\nvalue = [163, 34]\nclass = 0", fillcolor="#e58139ca"] ;
3 -> 4 ;
5 [label="gini = 0.429\nsamples = 41\nvalue = [42, 19]\nclass = 0", fillcolor="#e581398c"] ;
3 -> 5 ;
6 [label="embarked <= 1.5\ngini = 0.383\nsamples = 101\nvalue = [39, 112]\nclass = 1", fillcolor="#399de5a6"] ;
2 -> 6 ;
7 [label="gini = 0.193\nsamples = 24\nvalue = [4, 33]\nclass = 1", fillcolor="#399de5e0"] ;
6 -> 7 ;
8 [label="gini = 0.426\nsamples = 77\nvalue = [35, 79]\nclass = 1", fillcolor="#399de58e"] ;
6 -> 8 ;
9 [label="age <= 43.5\ngini = 0.384\nsamples = 255\nvalue = [300, 105]\nclass = 0", fillcolor="#e58139a6"] ;
1 -> 9 ;
10 [label="pclass <= 2.5\ngini = 0.34\nsamples = 174\nvalue = [216, 60]\nclass = 0", fillcolor="#e58139b8"] ;
9 -> 10 ;
11 [label="gini = 0.402\nsamples = 83\nvalue = [93, 36]\nclass = 0", fillcolor="#e581399c"] ;
10 -> 11 ;
12 [label="gini = 0.273\nsamples = 91\nvalue = [123, 24]\nclass = 0", fillcolor="#e58139cd"] ;
10 -> 12 ;
13 [label="fare <= 15.5\ngini = 0.454\nsamples = 81\nvalue = [84, 45]\nclass = 0", fillcolor="#e5813976"] ;
9 -> 13 ;
14 [label="gini = 0.348\nsamples = 33\nvalue = [45, 13]\nclass = 0", fillcolor="#e58139b5"] ;
13 -> 14 ;
15 [label="gini = 0.495\nsamples = 48\nvalue = [39, 32]\nclass = 0", fillcolor="#e581392e"] ;
13 -> 15 ;
16 [label="pclass <= 1.5\ngini = 0.421\nsamples = 126\nvalue = [60, 139]\nclass = 1", fillcolor="#399de591"] ;
0 -> 16 [labeldistance=2.5, labelangle=-45, headlabel="False"] ;
17 [label="sibsp <= 0.5\ngini = 0.389\nsamples = 115\nvalue = [49, 136]\nclass = 1", fillcolor="#399de5a3"] ;
16 -> 17 ;
18 [label="parch <= 0.5\ngini = 0.331\nsamples = 53\nvalue = [18, 68]\nclass = 1", fillcolor="#399de5bb"] ;
17 -> 18 ;
19 [label="gini = 0.26\nsamples = 32\nvalue = [8, 44]\nclass = 1", fillcolor="#399de5d1"] ;
18 -> 19 ;
20 [label="gini = 0.415\nsamples = 21\nvalue = [10, 24]\nclass = 1", fillcolor="#399de595"] ;
18 -> 20 ;
21 [label="fare <= 135.64\ngini = 0.43\nsamples = 62\nvalue = [31, 68]\nclass = 1", fillcolor="#399de58b"] ;
17 -> 21 ;
22 [label="gini = 0.404\nsamples = 55\nvalue = [25, 64]\nclass = 1", fillcolor="#399de59b"] ;
21 -> 22 ;
23 [label="gini = 0.48\nsamples = 7\nvalue = [6, 4]\nclass = 0", fillcolor="#e5813955"] ;
21 -> 23 ;
24 [label="sex <= 0.5\ngini = 0.337\nsamples = 11\nvalue = [11, 3]\nclass = 0", fillcolor="#e58139b9"] ;
16 -> 24 ;
25 [label="parch <= 1.0\ngini = 0.153\nsamples = 9\nvalue = [11, 1]\nclass = 0", fillcolor="#e58139e8"] ;
24 -> 25 ;
26 [label="gini = 0.219\nsamples = 7\nvalue = [7, 1]\nclass = 0", fillcolor="#e58139db"] ;
25 -> 26 ;
27 [label="gini = 0.0\nsamples = 2\nvalue = [4, 0]\nclass = 0", fillcolor="#e58139ff"] ;
25 -> 27 ;
28 [label="gini = 0.0\nsamples = 2\nvalue = [0, 2]\nclass = 1", fillcolor="#399de5ff"] ;
24 -> 28 ;
{rank=same ; 0} ;
{rank=same ; 1; 16} ;
{rank=same ; 2; 9; 17; 24} ;
{rank=same ; 3; 6; 10; 13; 18; 21; 25} ;
{rank=same ; 4; 5; 7; 8; 11; 12; 14; 15; 19; 20; 22; 23; 26; 27; 28} ;
}