digraph Tree {
node [shape=box, style="filled", color="black"] ;
graph [ranksep=equally, splines=polyline] ;
0 [label="fare <= 51.931\ngini = 0.474\nsamples = 653\nvalue = [621, 392]\nclass = 0", fillcolor="#e581395e"] ;
1 [label="parch <= 0.5\ngini = 0.434\nsamples = 527\nvalue = [568, 266]\nclass = 0", fillcolor="#e5813988"] ;
0 -> 1 [labeldistance=2.5, labelangle=45, headlabel="True"] ;
2 [label="sex <= 0.5\ngini = 0.362\nsamples = 395\nvalue = [482, 150]\nclass = 0", fillcolor="#e58139b0"] ;
1 -> 2 ;
3 [label="pclass <= 1.5\ngini = 0.243\nsamples = 298\nvalue = [412, 68]\nclass = 0", fillcolor="#e58139d5"] ;
2 -> 3 ;
4 [label="gini = 0.41\nsamples = 40\nvalue = [52, 21]\nclass = 0", fillcolor="#e5813998"] ;
3 -> 4 ;
5 [label="gini = 0.204\nsamples = 258\nvalue = [360, 47]\nclass = 0", fillcolor="#e58139de"] ;
3 -> 5 ;
6 [label="pclass <= 2.5\ngini = 0.497\nsamples = 97\nvalue = [70, 82]\nclass = 1", fillcolor="#399de525"] ;
2 -> 6 ;
7 [label="gini = 0.312\nsamples = 42\nvalue = [12, 50]\nclass = 1", fillcolor="#399de5c2"] ;
6 -> 7 ;
8 [label="gini = 0.458\nsamples = 55\nvalue = [58, 32]\nclass = 0", fillcolor="#e5813972"] ;
6 -> 8 ;
9 [label="sibsp <= 2.5\ngini = 0.489\nsamples = 132\nvalue = [86, 116]\nclass = 1", fillcolor="#399de542"] ;
1 -> 9 ;
10 [label="age <= 25.5\ngini = 0.444\nsamples = 110\nvalue = [55, 110]\nclass = 1", fillcolor="#399de57f"] ;
9 -> 10 ;
11 [label="gini = 0.311\nsamples = 65\nvalue = [20, 84]\nclass = 1", fillcolor="#399de5c2"] ;
10 -> 11 ;
12 [label="gini = 0.489\nsamples = 45\nvalue = [35, 26]\nclass = 0", fillcolor="#e5813942"] ;
10 -> 12 ;
13 [label="parch <= 1.5\ngini = 0.272\nsamples = 22\nvalue = [31, 6]\nclass = 0", fillcolor="#e58139ce"] ;
9 -> 13 ;
14 [label="gini = 0.198\nsamples = 6\nvalue = [8, 1]\nclass = 0", fillcolor="#e58139df"] ;
13 -> 14 ;
15 [label="gini = 0.293\nsamples = 16\nvalue = [23, 5]\nclass = 0", fillcolor="#e58139c8"] ;
13 -> 15 ;
16 [label="sex <= 0.5\ngini = 0.417\nsamples = 126\nvalue = [53, 126]\nclass = 1", fillcolor="#399de594"] ;
0 -> 16 [labeldistance=2.5, labelangle=-45, headlabel="False"] ;
17 [label="parch <= 2.5\ngini = 0.46\nsamples = 57\nvalue = [52, 29]\nclass = 0", fillcolor="#e5813971"] ;
16 -> 17 ;
18 [label="fare <= 64.179\ngini = 0.467\nsamples = 56\nvalue = [49, 29]\nclass = 0", fillcolor="#e5813968"] ;
17 -> 18 ;
19 [label="gini = 0.49\nsamples = 16\nvalue = [12, 16]\nclass = 1", fillcolor="#399de540"] ;
18 -> 19 ;
20 [label="gini = 0.385\nsamples = 40\nvalue = [37, 13]\nclass = 0", fillcolor="#e58139a5"] ;
18 -> 20 ;
21 [label="gini = 0.0\nsamples = 1\nvalue = [3, 0]\nclass = 0", fillcolor="#e58139ff"] ;
17 -> 21 ;
22 [label="age <= 61.5\ngini = 0.02\nsamples = 69\nvalue = [1, 97]\nclass = 1", fillcolor="#399de5fc"] ;
16 -> 22 ;
23 [label="gini = 0.0\nsamples = 67\nvalue = [0, 96]\nclass = 1", fillcolor="#399de5ff"] ;
22 -> 23 ;
24 [label="embarked <= 1.0\ngini = 0.5\nsamples = 2\nvalue = [1, 1]\nclass = 0", fillcolor="#e5813900"] ;
22 -> 24 ;
25 [label="gini = 0.0\nsamples = 1\nvalue = [0, 1]\nclass = 1", fillcolor="#399de5ff"] ;
24 -> 25 ;
26 [label="gini = 0.0\nsamples = 1\nvalue = [1, 0]\nclass = 0", fillcolor="#e58139ff"] ;
24 -> 26 ;
{rank=same ; 0} ;
{rank=same ; 1; 16} ;
{rank=same ; 2; 9; 17; 22} ;
{rank=same ; 3; 6; 10; 13; 18; 24} ;
{rank=same ; 4; 5; 7; 8; 11; 12; 14; 15; 19; 20; 21; 23; 25; 26} ;
}