digraph Tree {
node [shape=box, style="filled", color="black"] ;
graph [ranksep=equally, splines=polyline] ;
0 [label="pclass <= 2.5\ngini = 0.481\nsamples = 648\nvalue = [606, 407]\nclass = 0", fillcolor="#e5813954"] ;
1 [label="fare <= 15.523\ngini = 0.494\nsamples = 321\nvalue = [221, 276]\nclass = 1", fillcolor="#399de533"] ;
0 -> 1 [labeldistance=2.5, labelangle=45, headlabel="True"] ;
2 [label="age <= 20.5\ngini = 0.385\nsamples = 84\nvalue = [94, 33]\nclass = 0", fillcolor="#e58139a5"] ;
1 -> 2 ;
3 [label="fare <= 11.75\ngini = 0.492\nsamples = 11\nvalue = [7, 9]\nclass = 1", fillcolor="#399de539"] ;
2 -> 3 ;
4 [label="gini = 0.32\nsamples = 5\nvalue = [4, 1]\nclass = 0", fillcolor="#e58139bf"] ;
3 -> 4 ;
5 [label="gini = 0.397\nsamples = 6\nvalue = [3, 8]\nclass = 1", fillcolor="#399de59f"] ;
3 -> 5 ;
6 [label="fare <= 13.929\ngini = 0.339\nsamples = 73\nvalue = [87, 24]\nclass = 0", fillcolor="#e58139b9"] ;
2 -> 6 ;
7 [label="gini = 0.357\nsamples = 69\nvalue = [79, 24]\nclass = 0", fillcolor="#e58139b2"] ;
6 -> 7 ;
8 [label="gini = 0.0\nsamples = 4\nvalue = [8, 0]\nclass = 0", fillcolor="#e58139ff"] ;
6 -> 8 ;
9 [label="fare <= 50.987\ngini = 0.451\nsamples = 237\nvalue = [127, 243]\nclass = 1", fillcolor="#399de57a"] ;
1 -> 9 ;
10 [label="age <= 24.5\ngini = 0.49\nsamples = 117\nvalue = [77, 102]\nclass = 1", fillcolor="#399de53e"] ;
9 -> 10 ;
11 [label="gini = 0.101\nsamples = 38\nvalue = [3, 53]\nclass = 1", fillcolor="#399de5f1"] ;
10 -> 11 ;
12 [label="gini = 0.479\nsamples = 79\nvalue = [74, 49]\nclass = 0", fillcolor="#e5813956"] ;
10 -> 12 ;
13 [label="age <= 60.5\ngini = 0.387\nsamples = 120\nvalue = [50, 141]\nclass = 1", fillcolor="#399de5a5"] ;
9 -> 13 ;
14 [label="gini = 0.36\nsamples = 115\nvalue = [43, 140]\nclass = 1", fillcolor="#399de5b1"] ;
13 -> 14 ;
15 [label="gini = 0.219\nsamples = 5\nvalue = [7, 1]\nclass = 0", fillcolor="#e58139db"] ;
13 -> 15 ;
16 [label="fare <= 22.275\ngini = 0.379\nsamples = 327\nvalue = [385, 131]\nclass = 0", fillcolor="#e58139a8"] ;
0 -> 16 [labeldistance=2.5, labelangle=-45, headlabel="False"] ;
17 [label="age <= 16.5\ngini = 0.402\nsamples = 293\nvalue = [329, 127]\nclass = 0", fillcolor="#e581399d"] ;
16 -> 17 ;
18 [label="fare <= 11.712\ngini = 0.456\nsamples = 47\nvalue = [25, 46]\nclass = 1", fillcolor="#399de574"] ;
17 -> 18 ;
19 [label="gini = 0.35\nsamples = 19\nvalue = [7, 24]\nclass = 1", fillcolor="#399de5b5"] ;
18 -> 19 ;
20 [label="gini = 0.495\nsamples = 28\nvalue = [18, 22]\nclass = 1", fillcolor="#399de52e"] ;
18 -> 20 ;
21 [label="sex <= 0.5\ngini = 0.332\nsamples = 246\nvalue = [304, 81]\nclass = 0", fillcolor="#e58139bb"] ;
17 -> 21 ;
22 [label="gini = 0.227\nsamples = 174\nvalue = [247, 37]\nclass = 0", fillcolor="#e58139d9"] ;
21 -> 22 ;
23 [label="gini = 0.492\nsamples = 72\nvalue = [57, 44]\nclass = 0", fillcolor="#e581393a"] ;
21 -> 23 ;
24 [label="fare <= 51.698\ngini = 0.124\nsamples = 34\nvalue = [56, 4]\nclass = 0", fillcolor="#e58139ed"] ;
16 -> 24 ;
25 [label="age <= 5.5\ngini = 0.07\nsamples = 31\nvalue = [53, 2]\nclass = 0", fillcolor="#e58139f5"] ;
24 -> 25 ;
26 [label="gini = 0.245\nsamples = 8\nvalue = [12, 2]\nclass = 0", fillcolor="#e58139d4"] ;
25 -> 26 ;
27 [label="gini = 0.0\nsamples = 23\nvalue = [41, 0]\nclass = 0", fillcolor="#e58139ff"] ;
25 -> 27 ;
28 [label="age <= 27.0\ngini = 0.48\nsamples = 3\nvalue = [3, 2]\nclass = 0", fillcolor="#e5813955"] ;
24 -> 28 ;
29 [label="gini = 0.0\nsamples = 1\nvalue = [0, 1]\nclass = 1", fillcolor="#399de5ff"] ;
28 -> 29 ;
30 [label="gini = 0.375\nsamples = 2\nvalue = [3, 1]\nclass = 0", fillcolor="#e58139aa"] ;
28 -> 30 ;
{rank=same ; 0} ;
{rank=same ; 1; 16} ;
{rank=same ; 2; 9; 17; 24} ;
{rank=same ; 3; 6; 10; 13; 18; 21; 25; 28} ;
{rank=same ; 4; 5; 7; 8; 11; 12; 14; 15; 19; 20; 22; 23; 26; 27; 29; 30} ;
}