digraph Tree {
node [shape=box, style="filled", color="black"] ;
graph [ranksep=equally, splines=polyline] ;
0 [label="sibsp <= 0.5\ngini = 0.481\nsamples = 642\nvalue = [604, 409]\nclass = 0", fillcolor="#e5813952"] ;
1 [label="pclass <= 2.5\ngini = 0.451\nsamples = 433\nvalue = [454, 237]\nclass = 0", fillcolor="#e581397a"] ;
0 -> 1 [labeldistance=2.5, labelangle=45, headlabel="True"] ;
2 [label="sex <= 0.5\ngini = 0.495\nsamples = 218\nvalue = [190, 154]\nclass = 0", fillcolor="#e5813930"] ;
1 -> 2 ;
3 [label="age <= 11.0\ngini = 0.303\nsamples = 144\nvalue = [184, 42]\nclass = 0", fillcolor="#e58139c5"] ;
2 -> 3 ;
4 [label="gini = 0.0\nsamples = 4\nvalue = [0, 6]\nclass = 1", fillcolor="#399de5ff"] ;
3 -> 4 ;
5 [label="gini = 0.274\nsamples = 140\nvalue = [184, 36]\nclass = 0", fillcolor="#e58139cd"] ;
3 -> 5 ;
6 [label="parch <= 0.5\ngini = 0.097\nsamples = 74\nvalue = [6, 112]\nclass = 1", fillcolor="#399de5f1"] ;
2 -> 6 ;
7 [label="gini = 0.144\nsamples = 47\nvalue = [6, 71]\nclass = 1", fillcolor="#399de5e9"] ;
6 -> 7 ;
8 [label="gini = 0.0\nsamples = 27\nvalue = [0, 41]\nclass = 1", fillcolor="#399de5ff"] ;
6 -> 8 ;
9 [label="parch <= 0.5\ngini = 0.364\nsamples = 215\nvalue = [264, 83]\nclass = 0", fillcolor="#e58139af"] ;
1 -> 9 ;
10 [label="age <= 15.5\ngini = 0.342\nsamples = 198\nvalue = [250, 70]\nclass = 0", fillcolor="#e58139b8"] ;
9 -> 10 ;
11 [label="gini = 0.408\nsamples = 4\nvalue = [2, 5]\nclass = 1", fillcolor="#399de599"] ;
10 -> 11 ;
12 [label="gini = 0.329\nsamples = 194\nvalue = [248, 65]\nclass = 0", fillcolor="#e58139bc"] ;
10 -> 12 ;
13 [label="age <= 9.5\ngini = 0.499\nsamples = 17\nvalue = [14, 13]\nclass = 0", fillcolor="#e5813912"] ;
9 -> 13 ;
14 [label="gini = 0.0\nsamples = 6\nvalue = [0, 9]\nclass = 1", fillcolor="#399de5ff"] ;
13 -> 14 ;
15 [label="gini = 0.346\nsamples = 11\nvalue = [14, 4]\nclass = 0", fillcolor="#e58139b6"] ;
13 -> 15 ;
16 [label="sibsp <= 1.5\ngini = 0.498\nsamples = 209\nvalue = [150, 172]\nclass = 1", fillcolor="#399de521"] ;
0 -> 16 [labeldistance=2.5, labelangle=-45, headlabel="False"] ;
17 [label="fare <= 16.4\ngini = 0.483\nsamples = 160\nvalue = [98, 143]\nclass = 1", fillcolor="#399de550"] ;
16 -> 17 ;
18 [label="pclass <= 2.5\ngini = 0.406\nsamples = 40\nvalue = [43, 17]\nclass = 0", fillcolor="#e581399a"] ;
17 -> 18 ;
19 [label="gini = 0.375\nsamples = 5\nvalue = [2, 6]\nclass = 1", fillcolor="#399de5aa"] ;
18 -> 19 ;
20 [label="gini = 0.334\nsamples = 35\nvalue = [41, 11]\nclass = 0", fillcolor="#e58139bb"] ;
18 -> 20 ;
21 [label="parch <= 2.5\ngini = 0.423\nsamples = 120\nvalue = [55, 126]\nclass = 1", fillcolor="#399de590"] ;
17 -> 21 ;
22 [label="gini = 0.407\nsamples = 113\nvalue = [48, 121]\nclass = 1", fillcolor="#399de59a"] ;
21 -> 22 ;
23 [label="gini = 0.486\nsamples = 7\nvalue = [7, 5]\nclass = 0", fillcolor="#e5813949"] ;
21 -> 23 ;
24 [label="age <= 29.5\ngini = 0.46\nsamples = 49\nvalue = [52, 29]\nclass = 0", fillcolor="#e5813971"] ;
16 -> 24 ;
25 [label="sex <= 0.5\ngini = 0.435\nsamples = 45\nvalue = [51, 24]\nclass = 0", fillcolor="#e5813987"] ;
24 -> 25 ;
26 [label="gini = 0.245\nsamples = 23\nvalue = [36, 6]\nclass = 0", fillcolor="#e58139d4"] ;
25 -> 26 ;
27 [label="gini = 0.496\nsamples = 22\nvalue = [15, 18]\nclass = 1", fillcolor="#399de52a"] ;
25 -> 27 ;
28 [label="sex <= 0.5\ngini = 0.278\nsamples = 4\nvalue = [1, 5]\nclass = 1", fillcolor="#399de5cc"] ;
24 -> 28 ;
29 [label="gini = 0.444\nsamples = 2\nvalue = [1, 2]\nclass = 1", fillcolor="#399de57f"] ;
28 -> 29 ;
30 [label="gini = 0.0\nsamples = 2\nvalue = [0, 3]\nclass = 1", fillcolor="#399de5ff"] ;
28 -> 30 ;
{rank=same ; 0} ;
{rank=same ; 1; 16} ;
{rank=same ; 2; 9; 17; 24} ;
{rank=same ; 3; 6; 10; 13; 18; 21; 25; 28} ;
{rank=same ; 4; 5; 7; 8; 11; 12; 14; 15; 19; 20; 22; 23; 26; 27; 29; 30} ;
}