digraph Tree {
node [shape=box, style="filled", color="black"] ;
graph [ranksep=equally, splines=polyline] ;
0 [label="pclass <= 2.5\ngini = 0.48\nsamples = 645\nvalue = [609, 404]\nclass = 0", fillcolor="#e5813956"] ;
1 [label="parch <= 0.5\ngini = 0.499\nsamples = 333\nvalue = [247, 268]\nclass = 1", fillcolor="#399de514"] ;
0 -> 1 [labeldistance=2.5, labelangle=45, headlabel="True"] ;
2 [label="embarked <= 0.5\ngini = 0.491\nsamples = 236\nvalue = [215, 164]\nclass = 0", fillcolor="#e581393c"] ;
1 -> 2 ;
3 [label="sex <= 0.5\ngini = 0.45\nsamples = 67\nvalue = [39, 75]\nclass = 1", fillcolor="#399de57a"] ;
2 -> 3 ;
4 [label="gini = 0.452\nsamples = 35\nvalue = [36, 19]\nclass = 0", fillcolor="#e5813978"] ;
3 -> 4 ;
5 [label="gini = 0.097\nsamples = 32\nvalue = [3, 56]\nclass = 1", fillcolor="#399de5f1"] ;
3 -> 5 ;
6 [label="fare <= 75.729\ngini = 0.446\nsamples = 169\nvalue = [176, 89]\nclass = 0", fillcolor="#e581397e"] ;
2 -> 6 ;
7 [label="gini = 0.403\nsamples = 150\nvalue = [172, 67]\nclass = 0", fillcolor="#e581399c"] ;
6 -> 7 ;
8 [label="gini = 0.26\nsamples = 19\nvalue = [4, 22]\nclass = 1", fillcolor="#399de5d1"] ;
6 -> 8 ;
9 [label="sibsp <= 1.5\ngini = 0.36\nsamples = 97\nvalue = [32, 104]\nclass = 1", fillcolor="#399de5b1"] ;
1 -> 9 ;
10 [label="parch <= 1.5\ngini = 0.384\nsamples = 83\nvalue = [29, 83]\nclass = 1", fillcolor="#399de5a6"] ;
9 -> 10 ;
11 [label="gini = 0.448\nsamples = 52\nvalue = [23, 45]\nclass = 1", fillcolor="#399de57d"] ;
10 -> 11 ;
12 [label="gini = 0.236\nsamples = 31\nvalue = [6, 38]\nclass = 1", fillcolor="#399de5d7"] ;
10 -> 12 ;
13 [label="sex <= 0.5\ngini = 0.219\nsamples = 14\nvalue = [3, 21]\nclass = 1", fillcolor="#399de5db"] ;
9 -> 13 ;
14 [label="gini = 0.5\nsamples = 4\nvalue = [3, 3]\nclass = 0", fillcolor="#e5813900"] ;
13 -> 14 ;
15 [label="gini = 0.0\nsamples = 10\nvalue = [0, 18]\nclass = 1", fillcolor="#399de5ff"] ;
13 -> 15 ;
16 [label="embarked <= 0.5\ngini = 0.397\nsamples = 312\nvalue = [362, 136]\nclass = 0", fillcolor="#e581399f"] ;
0 -> 16 [labeldistance=2.5, labelangle=-45, headlabel="False"] ;
17 [label="sibsp <= 1.5\ngini = 0.5\nsamples = 42\nvalue = [34, 33]\nclass = 0", fillcolor="#e5813908"] ;
16 -> 17 ;
18 [label="parch <= 2.5\ngini = 0.491\nsamples = 40\nvalue = [34, 26]\nclass = 0", fillcolor="#e581393c"] ;
17 -> 18 ;
19 [label="gini = 0.488\nsamples = 39\nvalue = [34, 25]\nclass = 0", fillcolor="#e5813944"] ;
18 -> 19 ;
20 [label="gini = 0.0\nsamples = 1\nvalue = [0, 1]\nclass = 1", fillcolor="#399de5ff"] ;
18 -> 20 ;
21 [label="gini = 0.0\nsamples = 2\nvalue = [0, 7]\nclass = 1", fillcolor="#399de5ff"] ;
17 -> 21 ;
22 [label="age <= 0.25\ngini = 0.364\nsamples = 270\nvalue = [328, 103]\nclass = 0", fillcolor="#e58139af"] ;
16 -> 22 ;
23 [label="gini = 0.0\nsamples = 1\nvalue = [0, 2]\nclass = 1", fillcolor="#399de5ff"] ;
22 -> 23 ;
24 [label="sex <= 0.5\ngini = 0.36\nsamples = 269\nvalue = [328, 101]\nclass = 0", fillcolor="#e58139b0"] ;
22 -> 24 ;
25 [label="gini = 0.243\nsamples = 185\nvalue = [261, 43]\nclass = 0", fillcolor="#e58139d5"] ;
24 -> 25 ;
26 [label="gini = 0.497\nsamples = 84\nvalue = [67, 58]\nclass = 0", fillcolor="#e5813922"] ;
24 -> 26 ;
{rank=same ; 0} ;
{rank=same ; 1; 16} ;
{rank=same ; 2; 9; 17; 22} ;
{rank=same ; 3; 6; 10; 13; 18; 24} ;
{rank=same ; 4; 5; 7; 8; 11; 12; 14; 15; 19; 20; 21; 23; 25; 26} ;
}