digraph Tree {
node [shape=box, style="filled", color="black"] ;
graph [ranksep=equally, splines=polyline] ;
0 [label="fare <= 48.3\ngini = 0.475\nsamples = 633\nvalue = [620, 393]\nclass = 0", fillcolor="#e581395d"] ;
1 [label="fare <= 18.375\ngini = 0.425\nsamples = 497\nvalue = [552, 244]\nclass = 0", fillcolor="#e581398e"] ;
0 -> 1 [labeldistance=2.5, labelangle=45, headlabel="True"] ;
2 [label="age <= 14.25\ngini = 0.389\nsamples = 335\nvalue = [398, 143]\nclass = 0", fillcolor="#e58139a3"] ;
1 -> 2 ;
3 [label="embarked <= 1.0\ngini = 0.383\nsamples = 20\nvalue = [8, 23]\nclass = 1", fillcolor="#399de5a6"] ;
2 -> 3 ;
4 [label="gini = 0.0\nsamples = 6\nvalue = [0, 12]\nclass = 1", fillcolor="#399de5ff"] ;
3 -> 4 ;
5 [label="gini = 0.488\nsamples = 14\nvalue = [8, 11]\nclass = 1", fillcolor="#399de546"] ;
3 -> 5 ;
6 [label="embarked <= 0.5\ngini = 0.36\nsamples = 315\nvalue = [390, 120]\nclass = 0", fillcolor="#e58139b1"] ;
2 -> 6 ;
7 [label="gini = 0.439\nsamples = 30\nvalue = [29, 14]\nclass = 0", fillcolor="#e5813984"] ;
6 -> 7 ;
8 [label="gini = 0.351\nsamples = 285\nvalue = [361, 106]\nclass = 0", fillcolor="#e58139b4"] ;
6 -> 8 ;
9 [label="sibsp <= 2.5\ngini = 0.478\nsamples = 162\nvalue = [154, 101]\nclass = 0", fillcolor="#e5813958"] ;
1 -> 9 ;
10 [label="pclass <= 2.5\ngini = 0.497\nsamples = 138\nvalue = [118, 101]\nclass = 0", fillcolor="#e5813925"] ;
9 -> 10 ;
11 [label="gini = 0.5\nsamples = 109\nvalue = [83, 85]\nclass = 1", fillcolor="#399de506"] ;
10 -> 11 ;
12 [label="gini = 0.431\nsamples = 29\nvalue = [35, 16]\nclass = 0", fillcolor="#e581398a"] ;
10 -> 12 ;
13 [label="gini = 0.0\nsamples = 24\nvalue = [36, 0]\nclass = 0", fillcolor="#e58139ff"] ;
9 -> 13 ;
14 [label="sex <= 0.5\ngini = 0.43\nsamples = 136\nvalue = [68, 149]\nclass = 1", fillcolor="#399de58b"] ;
0 -> 14 [labeldistance=2.5, labelangle=-45, headlabel="False"] ;
15 [label="age <= 13.5\ngini = 0.455\nsamples = 59\nvalue = [65, 35]\nclass = 0", fillcolor="#e5813976"] ;
14 -> 15 ;
16 [label="gini = 0.0\nsamples = 2\nvalue = [0, 4]\nclass = 1", fillcolor="#399de5ff"] ;
15 -> 16 ;
17 [label="embarked <= 1.0\ngini = 0.437\nsamples = 57\nvalue = [65, 31]\nclass = 0", fillcolor="#e5813985"] ;
15 -> 17 ;
18 [label="gini = 0.463\nsamples = 27\nvalue = [35, 20]\nclass = 0", fillcolor="#e581396d"] ;
17 -> 18 ;
19 [label="gini = 0.393\nsamples = 30\nvalue = [30, 11]\nclass = 0", fillcolor="#e58139a1"] ;
17 -> 19 ;
20 [label="age <= 61.5\ngini = 0.05\nsamples = 77\nvalue = [3, 114]\nclass = 1", fillcolor="#399de5f8"] ;
14 -> 20 ;
21 [label="gini = 0.0\nsamples = 74\nvalue = [0, 111]\nclass = 1", fillcolor="#399de5ff"] ;
20 -> 21 ;
22 [label="sibsp <= 0.5\ngini = 0.5\nsamples = 3\nvalue = [3, 3]\nclass = 0", fillcolor="#e5813900"] ;
20 -> 22 ;
23 [label="gini = 0.0\nsamples = 1\nvalue = [0, 1]\nclass = 1", fillcolor="#399de5ff"] ;
22 -> 23 ;
24 [label="gini = 0.48\nsamples = 2\nvalue = [3, 2]\nclass = 0", fillcolor="#e5813955"] ;
22 -> 24 ;
{rank=same ; 0} ;
{rank=same ; 1; 14} ;
{rank=same ; 2; 9; 15; 20} ;
{rank=same ; 3; 6; 10; 17; 22} ;
{rank=same ; 4; 5; 7; 8; 11; 12; 13; 16; 18; 19; 21; 23; 24} ;
}