digraph Tree {
node [shape=box, style="filled", color="black"] ;
graph [ranksep=equally, splines=polyline] ;
0 [label="pclass <= 2.5\ngini = 0.487\nsamples = 644\nvalue = [589, 424]\nclass = 0", fillcolor="#e5813947"] ;
1 [label="age <= 17.5\ngini = 0.496\nsamples = 340\nvalue = [250, 296]\nclass = 1", fillcolor="#399de528"] ;
0 -> 1 [labeldistance=2.5, labelangle=45, headlabel="True"] ;
2 [label="fare <= 61.49\ngini = 0.115\nsamples = 32\nvalue = [3, 46]\nclass = 1", fillcolor="#399de5ee"] ;
1 -> 2 ;
3 [label="gini = 0.0\nsamples = 25\nvalue = [0, 39]\nclass = 1", fillcolor="#399de5ff"] ;
2 -> 3 ;
4 [label="fare <= 92.192\ngini = 0.42\nsamples = 7\nvalue = [3, 7]\nclass = 1", fillcolor="#399de592"] ;
2 -> 4 ;
5 [label="gini = 0.0\nsamples = 2\nvalue = [3, 0]\nclass = 0", fillcolor="#e58139ff"] ;
4 -> 5 ;
6 [label="gini = 0.0\nsamples = 5\nvalue = [0, 7]\nclass = 1", fillcolor="#399de5ff"] ;
4 -> 6 ;
7 [label="sex <= 0.5\ngini = 0.5\nsamples = 308\nvalue = [247, 250]\nclass = 1", fillcolor="#399de503"] ;
1 -> 7 ;
8 [label="pclass <= 1.5\ngini = 0.343\nsamples = 185\nvalue = [234, 66]\nclass = 0", fillcolor="#e58139b7"] ;
7 -> 8 ;
9 [label="gini = 0.447\nsamples = 98\nvalue = [100, 51]\nclass = 0", fillcolor="#e581397d"] ;
8 -> 9 ;
10 [label="gini = 0.181\nsamples = 87\nvalue = [134, 15]\nclass = 0", fillcolor="#e58139e2"] ;
8 -> 10 ;
11 [label="fare <= 26.275\ngini = 0.123\nsamples = 123\nvalue = [13, 184]\nclass = 1", fillcolor="#399de5ed"] ;
7 -> 11 ;
12 [label="gini = 0.287\nsamples = 44\nvalue = [13, 62]\nclass = 1", fillcolor="#399de5ca"] ;
11 -> 12 ;
13 [label="gini = 0.0\nsamples = 79\nvalue = [0, 122]\nclass = 1", fillcolor="#399de5ff"] ;
11 -> 13 ;
14 [label="sex <= 0.5\ngini = 0.398\nsamples = 304\nvalue = [339, 128]\nclass = 0", fillcolor="#e581399f"] ;
0 -> 14 [labeldistance=2.5, labelangle=-45, headlabel="False"] ;
15 [label="sibsp <= 3.5\ngini = 0.261\nsamples = 208\nvalue = [268, 49]\nclass = 0", fillcolor="#e58139d0"] ;
14 -> 15 ;
16 [label="fare <= 9.337\ngini = 0.27\nsamples = 195\nvalue = [251, 48]\nclass = 0", fillcolor="#e58139ce"] ;
15 -> 16 ;
17 [label="gini = 0.216\nsamples = 146\nvalue = [192, 27]\nclass = 0", fillcolor="#e58139db"] ;
16 -> 17 ;
18 [label="gini = 0.387\nsamples = 49\nvalue = [59, 21]\nclass = 0", fillcolor="#e58139a4"] ;
16 -> 18 ;
19 [label="age <= 3.5\ngini = 0.105\nsamples = 13\nvalue = [17, 1]\nclass = 0", fillcolor="#e58139f0"] ;
15 -> 19 ;
20 [label="gini = 0.219\nsamples = 5\nvalue = [7, 1]\nclass = 0", fillcolor="#e58139db"] ;
19 -> 20 ;
21 [label="gini = 0.0\nsamples = 8\nvalue = [10, 0]\nclass = 0", fillcolor="#e58139ff"] ;
19 -> 21 ;
22 [label="age <= 19.5\ngini = 0.499\nsamples = 96\nvalue = [71, 79]\nclass = 1", fillcolor="#399de51a"] ;
14 -> 22 ;
23 [label="sibsp <= 1.5\ngini = 0.452\nsamples = 35\nvalue = [19, 36]\nclass = 1", fillcolor="#399de578"] ;
22 -> 23 ;
24 [label="gini = 0.369\nsamples = 27\nvalue = [10, 31]\nclass = 1", fillcolor="#399de5ad"] ;
23 -> 24 ;
25 [label="gini = 0.459\nsamples = 8\nvalue = [9, 5]\nclass = 0", fillcolor="#e5813971"] ;
23 -> 25 ;
26 [label="embarked <= 0.5\ngini = 0.496\nsamples = 61\nvalue = [52, 43]\nclass = 0", fillcolor="#e581392c"] ;
22 -> 26 ;
27 [label="gini = 0.18\nsamples = 5\nvalue = [1, 9]\nclass = 1", fillcolor="#399de5e3"] ;
26 -> 27 ;
28 [label="gini = 0.48\nsamples = 56\nvalue = [51, 34]\nclass = 0", fillcolor="#e5813955"] ;
26 -> 28 ;
{rank=same ; 0} ;
{rank=same ; 1; 14} ;
{rank=same ; 2; 7; 15; 22} ;
{rank=same ; 4; 8; 11; 16; 19; 23; 26} ;
{rank=same ; 3; 5; 6; 9; 10; 12; 13; 17; 18; 20; 21; 24; 25; 27; 28} ;
}