digraph Tree {
node [shape=box, style="filled", color="black"] ;
graph [ranksep=equally, splines=polyline] ;
0 [label="pclass <= 1.5\ngini = 0.487\nsamples = 641\nvalue = [589, 424]\nclass = 0", fillcolor="#e5813947"] ;
1 [label="sex <= 0.5\ngini = 0.456\nsamples = 175\nvalue = [101, 186]\nclass = 1", fillcolor="#399de575"] ;
0 -> 1 [labeldistance=2.5, labelangle=45, headlabel="True"] ;
2 [label="embarked <= 0.5\ngini = 0.459\nsamples = 89\nvalue = [99, 55]\nclass = 0", fillcolor="#e5813971"] ;
1 -> 2 ;
3 [label="age <= 45.5\ngini = 0.497\nsamples = 43\nvalue = [43, 37]\nclass = 0", fillcolor="#e5813924"] ;
2 -> 3 ;
4 [label="gini = 0.474\nsamples = 25\nvalue = [17, 27]\nclass = 1", fillcolor="#399de55e"] ;
3 -> 4 ;
5 [label="gini = 0.401\nsamples = 18\nvalue = [26, 10]\nclass = 0", fillcolor="#e581399d"] ;
3 -> 5 ;
6 [label="fare <= 113.575\ngini = 0.368\nsamples = 46\nvalue = [56, 18]\nclass = 0", fillcolor="#e58139ad"] ;
2 -> 6 ;
7 [label="gini = 0.357\nsamples = 45\nvalue = [56, 17]\nclass = 0", fillcolor="#e58139b2"] ;
6 -> 7 ;
8 [label="gini = 0.0\nsamples = 1\nvalue = [0, 1]\nclass = 1", fillcolor="#399de5ff"] ;
6 -> 8 ;
9 [label="age <= 61.5\ngini = 0.03\nsamples = 86\nvalue = [2, 131]\nclass = 1", fillcolor="#399de5fb"] ;
1 -> 9 ;
10 [label="age <= 49.5\ngini = 0.015\nsamples = 83\nvalue = [1, 129]\nclass = 1", fillcolor="#399de5fd"] ;
9 -> 10 ;
11 [label="gini = 0.0\nsamples = 70\nvalue = [0, 109]\nclass = 1", fillcolor="#399de5ff"] ;
10 -> 11 ;
12 [label="gini = 0.091\nsamples = 13\nvalue = [1, 20]\nclass = 1", fillcolor="#399de5f2"] ;
10 -> 12 ;
13 [label="age <= 63.5\ngini = 0.444\nsamples = 3\nvalue = [1, 2]\nclass = 1", fillcolor="#399de57f"] ;
9 -> 13 ;
14 [label="gini = 0.0\nsamples = 1\nvalue = [1, 0]\nclass = 0", fillcolor="#e58139ff"] ;
13 -> 14 ;
15 [label="gini = 0.0\nsamples = 2\nvalue = [0, 2]\nclass = 1", fillcolor="#399de5ff"] ;
13 -> 15 ;
16 [label="parch <= 0.5\ngini = 0.441\nsamples = 466\nvalue = [488, 238]\nclass = 0", fillcolor="#e5813983"] ;
0 -> 16 [labeldistance=2.5, labelangle=-45, headlabel="False"] ;
17 [label="embarked <= 0.5\ngini = 0.404\nsamples = 354\nvalue = [392, 153]\nclass = 0", fillcolor="#e581399b"] ;
16 -> 17 ;
18 [label="sex <= 0.5\ngini = 0.5\nsamples = 34\nvalue = [28, 29]\nclass = 1", fillcolor="#399de509"] ;
17 -> 18 ;
19 [label="gini = 0.394\nsamples = 23\nvalue = [27, 10]\nclass = 0", fillcolor="#e58139a1"] ;
18 -> 19 ;
20 [label="gini = 0.095\nsamples = 11\nvalue = [1, 19]\nclass = 1", fillcolor="#399de5f2"] ;
18 -> 20 ;
21 [label="sibsp <= 2.5\ngini = 0.379\nsamples = 320\nvalue = [364, 124]\nclass = 0", fillcolor="#e58139a8"] ;
17 -> 21 ;
22 [label="gini = 0.373\nsamples = 317\nvalue = [363, 120]\nclass = 0", fillcolor="#e58139ab"] ;
21 -> 22 ;
23 [label="gini = 0.32\nsamples = 3\nvalue = [1, 4]\nclass = 1", fillcolor="#399de5bf"] ;
21 -> 23 ;
24 [label="sibsp <= 2.5\ngini = 0.498\nsamples = 112\nvalue = [96, 85]\nclass = 0", fillcolor="#e581391d"] ;
16 -> 24 ;
25 [label="pclass <= 2.5\ngini = 0.489\nsamples = 88\nvalue = [59, 79]\nclass = 1", fillcolor="#399de541"] ;
24 -> 25 ;
26 [label="gini = 0.358\nsamples = 39\nvalue = [14, 46]\nclass = 1", fillcolor="#399de5b1"] ;
25 -> 26 ;
27 [label="gini = 0.488\nsamples = 49\nvalue = [45, 33]\nclass = 0", fillcolor="#e5813944"] ;
25 -> 27 ;
28 [label="parch <= 1.5\ngini = 0.24\nsamples = 24\nvalue = [37, 6]\nclass = 0", fillcolor="#e58139d6"] ;
24 -> 28 ;
29 [label="gini = 0.0\nsamples = 10\nvalue = [17, 0]\nclass = 0", fillcolor="#e58139ff"] ;
28 -> 29 ;
30 [label="gini = 0.355\nsamples = 14\nvalue = [20, 6]\nclass = 0", fillcolor="#e58139b3"] ;
28 -> 30 ;
{rank=same ; 0} ;
{rank=same ; 1; 16} ;
{rank=same ; 2; 9; 17; 24} ;
{rank=same ; 3; 6; 10; 13; 18; 21; 25; 28} ;
{rank=same ; 4; 5; 7; 8; 11; 12; 14; 15; 19; 20; 22; 23; 26; 27; 29; 30} ;
}