digraph Tree {
node [shape=box, style="filled", color="black"] ;
graph [ranksep=equally, splines=polyline] ;
0 [label="pclass <= 2.5\ngini = 0.483\nsamples = 636\nvalue = [599, 414]\nclass = 0", fillcolor="#e581394f"] ;
1 [label="age <= 24.5\ngini = 0.496\nsamples = 331\nvalue = [242, 291]\nclass = 1", fillcolor="#399de52b"] ;
0 -> 1 [labeldistance=2.5, labelangle=45, headlabel="True"] ;
2 [label="fare <= 13.396\ngini = 0.392\nsamples = 94\nvalue = [41, 112]\nclass = 1", fillcolor="#399de5a2"] ;
1 -> 2 ;
3 [label="parch <= 0.5\ngini = 0.461\nsamples = 19\nvalue = [16, 9]\nclass = 0", fillcolor="#e5813970"] ;
2 -> 3 ;
4 [label="gini = 0.495\nsamples = 17\nvalue = [11, 9]\nclass = 0", fillcolor="#e581392e"] ;
3 -> 4 ;
5 [label="gini = 0.0\nsamples = 2\nvalue = [5, 0]\nclass = 0", fillcolor="#e58139ff"] ;
3 -> 5 ;
6 [label="parch <= 0.5\ngini = 0.314\nsamples = 75\nvalue = [25, 103]\nclass = 1", fillcolor="#399de5c1"] ;
2 -> 6 ;
7 [label="gini = 0.482\nsamples = 32\nvalue = [21, 31]\nclass = 1", fillcolor="#399de552"] ;
6 -> 7 ;
8 [label="gini = 0.1\nsamples = 43\nvalue = [4, 72]\nclass = 1", fillcolor="#399de5f1"] ;
6 -> 8 ;
9 [label="sex <= 0.5\ngini = 0.498\nsamples = 237\nvalue = [201, 179]\nclass = 0", fillcolor="#e581391c"] ;
1 -> 9 ;
10 [label="embarked <= 0.5\ngini = 0.341\nsamples = 149\nvalue = [190, 53]\nclass = 0", fillcolor="#e58139b8"] ;
9 -> 10 ;
11 [label="gini = 0.461\nsamples = 42\nvalue = [46, 26]\nclass = 0", fillcolor="#e581396f"] ;
10 -> 11 ;
12 [label="gini = 0.266\nsamples = 107\nvalue = [144, 27]\nclass = 0", fillcolor="#e58139cf"] ;
10 -> 12 ;
13 [label="pclass <= 1.5\ngini = 0.148\nsamples = 88\nvalue = [11, 126]\nclass = 1", fillcolor="#399de5e9"] ;
9 -> 13 ;
14 [label="gini = 0.049\nsamples = 53\nvalue = [2, 78]\nclass = 1", fillcolor="#399de5f8"] ;
13 -> 14 ;
15 [label="gini = 0.266\nsamples = 35\nvalue = [9, 48]\nclass = 1", fillcolor="#399de5cf"] ;
13 -> 15 ;
16 [label="embarked <= 0.5\ngini = 0.381\nsamples = 305\nvalue = [357, 123]\nclass = 0", fillcolor="#e58139a7"] ;
0 -> 16 [labeldistance=2.5, labelangle=-45, headlabel="False"] ;
17 [label="age <= 22.25\ngini = 0.478\nsamples = 38\nvalue = [43, 28]\nclass = 0", fillcolor="#e5813959"] ;
16 -> 17 ;
18 [label="parch <= 0.5\ngini = 0.473\nsamples = 24\nvalue = [15, 24]\nclass = 1", fillcolor="#399de560"] ;
17 -> 18 ;
19 [label="gini = 0.49\nsamples = 14\nvalue = [9, 12]\nclass = 1", fillcolor="#399de540"] ;
18 -> 19 ;
20 [label="gini = 0.444\nsamples = 10\nvalue = [6, 12]\nclass = 1", fillcolor="#399de57f"] ;
18 -> 20 ;
21 [label="parch <= 0.5\ngini = 0.219\nsamples = 14\nvalue = [28, 4]\nclass = 0", fillcolor="#e58139db"] ;
17 -> 21 ;
22 [label="gini = 0.0\nsamples = 10\nvalue = [25, 0]\nclass = 0", fillcolor="#e58139ff"] ;
21 -> 22 ;
23 [label="gini = 0.49\nsamples = 4\nvalue = [3, 4]\nclass = 1", fillcolor="#399de540"] ;
21 -> 23 ;
24 [label="sibsp <= 0.5\ngini = 0.357\nsamples = 267\nvalue = [314, 95]\nclass = 0", fillcolor="#e58139b2"] ;
16 -> 24 ;
25 [label="sex <= 0.5\ngini = 0.389\nsamples = 190\nvalue = [217, 78]\nclass = 0", fillcolor="#e58139a3"] ;
24 -> 25 ;
26 [label="gini = 0.321\nsamples = 144\nvalue = [179, 45]\nclass = 0", fillcolor="#e58139bf"] ;
25 -> 26 ;
27 [label="gini = 0.498\nsamples = 46\nvalue = [38, 33]\nclass = 0", fillcolor="#e5813922"] ;
25 -> 27 ;
28 [label="parch <= 2.5\ngini = 0.254\nsamples = 77\nvalue = [97, 17]\nclass = 0", fillcolor="#e58139d2"] ;
24 -> 28 ;
29 [label="gini = 0.278\nsamples = 72\nvalue = [85, 17]\nclass = 0", fillcolor="#e58139cc"] ;
28 -> 29 ;
30 [label="gini = 0.0\nsamples = 5\nvalue = [12, 0]\nclass = 0", fillcolor="#e58139ff"] ;
28 -> 30 ;
{rank=same ; 0} ;
{rank=same ; 1; 16} ;
{rank=same ; 2; 9; 17; 24} ;
{rank=same ; 3; 6; 10; 13; 18; 21; 25; 28} ;
{rank=same ; 4; 5; 7; 8; 11; 12; 14; 15; 19; 20; 22; 23; 26; 27; 29; 30} ;
}