digraph Tree {
node [shape=box, style="filled", color="black"] ;
graph [ranksep=equally, splines=polyline] ;
0 [label="fare <= 51.931\ngini = 0.479\nsamples = 644\nvalue = [611, 402]\nclass = 0", fillcolor="#e5813957"] ;
1 [label="sex <= 0.5\ngini = 0.445\nsamples = 519\nvalue = [543, 272]\nclass = 0", fillcolor="#e581397f"] ;
0 -> 1 [labeldistance=2.5, labelangle=45, headlabel="True"] ;
2 [label="parch <= 0.5\ngini = 0.309\nsamples = 339\nvalue = [428, 101]\nclass = 0", fillcolor="#e58139c3"] ;
1 -> 2 ;
3 [label="embarked <= 0.5\ngini = 0.262\nsamples = 285\nvalue = [376, 69]\nclass = 0", fillcolor="#e58139d0"] ;
2 -> 3 ;
4 [label="gini = 0.486\nsamples = 36\nvalue = [28, 20]\nclass = 0", fillcolor="#e5813949"] ;
3 -> 4 ;
5 [label="gini = 0.216\nsamples = 249\nvalue = [348, 49]\nclass = 0", fillcolor="#e58139db"] ;
3 -> 5 ;
6 [label="sibsp <= 2.5\ngini = 0.472\nsamples = 54\nvalue = [52, 32]\nclass = 0", fillcolor="#e5813962"] ;
2 -> 6 ;
7 [label="gini = 0.496\nsamples = 41\nvalue = [37, 31]\nclass = 0", fillcolor="#e5813929"] ;
6 -> 7 ;
8 [label="gini = 0.117\nsamples = 13\nvalue = [15, 1]\nclass = 0", fillcolor="#e58139ee"] ;
6 -> 8 ;
9 [label="pclass <= 2.5\ngini = 0.481\nsamples = 180\nvalue = [115, 171]\nclass = 1", fillcolor="#399de554"] ;
1 -> 9 ;
10 [label="sibsp <= 0.5\ngini = 0.272\nsamples = 76\nvalue = [19, 98]\nclass = 1", fillcolor="#399de5ce"] ;
9 -> 10 ;
11 [label="gini = 0.208\nsamples = 46\nvalue = [8, 60]\nclass = 1", fillcolor="#399de5dd"] ;
10 -> 11 ;
12 [label="gini = 0.348\nsamples = 30\nvalue = [11, 38]\nclass = 1", fillcolor="#399de5b5"] ;
10 -> 12 ;
13 [label="fare <= 17.35\ngini = 0.491\nsamples = 104\nvalue = [96, 73]\nclass = 0", fillcolor="#e581393d"] ;
9 -> 13 ;
14 [label="gini = 0.499\nsamples = 80\nvalue = [62, 69]\nclass = 1", fillcolor="#399de51a"] ;
13 -> 14 ;
15 [label="gini = 0.188\nsamples = 24\nvalue = [34, 4]\nclass = 0", fillcolor="#e58139e1"] ;
13 -> 15 ;
16 [label="fare <= 79.425\ngini = 0.451\nsamples = 125\nvalue = [68, 130]\nclass = 1", fillcolor="#399de57a"] ;
0 -> 16 [labeldistance=2.5, labelangle=-45, headlabel="False"] ;
17 [label="sibsp <= 0.5\ngini = 0.495\nsamples = 58\nvalue = [44, 54]\nclass = 1", fillcolor="#399de52f"] ;
16 -> 17 ;
18 [label="sex <= 0.5\ngini = 0.487\nsamples = 25\nvalue = [29, 21]\nclass = 0", fillcolor="#e5813946"] ;
17 -> 18 ;
19 [label="gini = 0.213\nsamples = 15\nvalue = [29, 4]\nclass = 0", fillcolor="#e58139dc"] ;
18 -> 19 ;
20 [label="gini = 0.0\nsamples = 10\nvalue = [0, 17]\nclass = 1", fillcolor="#399de5ff"] ;
18 -> 20 ;
21 [label="sex <= 0.5\ngini = 0.43\nsamples = 33\nvalue = [15, 33]\nclass = 1", fillcolor="#399de58b"] ;
17 -> 21 ;
22 [label="gini = 0.454\nsamples = 15\nvalue = [15, 8]\nclass = 0", fillcolor="#e5813977"] ;
21 -> 22 ;
23 [label="gini = 0.0\nsamples = 18\nvalue = [0, 25]\nclass = 1", fillcolor="#399de5ff"] ;
21 -> 23 ;
24 [label="age <= 59.5\ngini = 0.365\nsamples = 67\nvalue = [24, 76]\nclass = 1", fillcolor="#399de5ae"] ;
16 -> 24 ;
25 [label="sibsp <= 0.5\ngini = 0.29\nsamples = 62\nvalue = [16, 75]\nclass = 1", fillcolor="#399de5c9"] ;
24 -> 25 ;
26 [label="gini = 0.187\nsamples = 33\nvalue = [5, 43]\nclass = 1", fillcolor="#399de5e1"] ;
25 -> 26 ;
27 [label="gini = 0.381\nsamples = 29\nvalue = [11, 32]\nclass = 1", fillcolor="#399de5a7"] ;
25 -> 27 ;
28 [label="sibsp <= 0.5\ngini = 0.198\nsamples = 5\nvalue = [8, 1]\nclass = 0", fillcolor="#e58139df"] ;
24 -> 28 ;
29 [label="gini = 0.0\nsamples = 1\nvalue = [0, 1]\nclass = 1", fillcolor="#399de5ff"] ;
28 -> 29 ;
30 [label="gini = 0.0\nsamples = 4\nvalue = [8, 0]\nclass = 0", fillcolor="#e58139ff"] ;
28 -> 30 ;
{rank=same ; 0} ;
{rank=same ; 1; 16} ;
{rank=same ; 2; 9; 17; 24} ;
{rank=same ; 3; 6; 10; 13; 18; 21; 25; 28} ;
{rank=same ; 4; 5; 7; 8; 11; 12; 14; 15; 19; 20; 22; 23; 26; 27; 29; 30} ;
}