digraph Tree {
node [shape=box, style="filled", color="black"] ;
graph [ranksep=equally, splines=polyline] ;
0 [label="sex <= 0.5\ngini = 0.487\nsamples = 658\nvalue = [588, 425]\nclass = 0", fillcolor="#e5813947"] ;
1 [label="embarked <= 0.5\ngini = 0.357\nsamples = 413\nvalue = [491, 149]\nclass = 0", fillcolor="#e58139b2"] ;
0 -> 1 [labeldistance=2.5, labelangle=45, headlabel="True"] ;
2 [label="parch <= 0.5\ngini = 0.476\nsamples = 76\nvalue = [69, 44]\nclass = 0", fillcolor="#e581395c"] ;
1 -> 2 ;
3 [label="pclass <= 2.5\ngini = 0.411\nsamples = 57\nvalue = [59, 24]\nclass = 0", fillcolor="#e5813997"] ;
2 -> 3 ;
4 [label="gini = 0.413\nsamples = 40\nvalue = [39, 16]\nclass = 0", fillcolor="#e5813996"] ;
3 -> 4 ;
5 [label="gini = 0.408\nsamples = 17\nvalue = [20, 8]\nclass = 0", fillcolor="#e5813999"] ;
3 -> 5 ;
6 [label="age <= 12.0\ngini = 0.444\nsamples = 19\nvalue = [10, 20]\nclass = 1", fillcolor="#399de57f"] ;
2 -> 6 ;
7 [label="gini = 0.153\nsamples = 5\nvalue = [1, 11]\nclass = 1", fillcolor="#399de5e8"] ;
6 -> 7 ;
8 [label="gini = 0.5\nsamples = 14\nvalue = [9, 9]\nclass = 0", fillcolor="#e5813900"] ;
6 -> 8 ;
9 [label="parch <= 0.5\ngini = 0.319\nsamples = 337\nvalue = [422, 105]\nclass = 0", fillcolor="#e58139c0"] ;
1 -> 9 ;
10 [label="fare <= 111.825\ngini = 0.287\nsamples = 275\nvalue = [352, 74]\nclass = 0", fillcolor="#e58139c9"] ;
9 -> 10 ;
11 [label="gini = 0.282\nsamples = 274\nvalue = [352, 72]\nclass = 0", fillcolor="#e58139cb"] ;
10 -> 11 ;
12 [label="gini = 0.0\nsamples = 1\nvalue = [0, 2]\nclass = 1", fillcolor="#399de5ff"] ;
10 -> 12 ;
13 [label="fare <= 19.481\ngini = 0.425\nsamples = 62\nvalue = [70, 31]\nclass = 0", fillcolor="#e581398e"] ;
9 -> 13 ;
14 [label="gini = 0.444\nsamples = 12\nvalue = [7, 14]\nclass = 1", fillcolor="#399de57f"] ;
13 -> 14 ;
15 [label="gini = 0.335\nsamples = 50\nvalue = [63, 17]\nclass = 0", fillcolor="#e58139ba"] ;
13 -> 15 ;
16 [label="pclass <= 2.5\ngini = 0.385\nsamples = 245\nvalue = [97, 276]\nclass = 1", fillcolor="#399de5a5"] ;
0 -> 16 [labeldistance=2.5, labelangle=-45, headlabel="False"] ;
17 [label="pclass <= 1.5\ngini = 0.128\nsamples = 138\nvalue = [15, 203]\nclass = 1", fillcolor="#399de5ec"] ;
16 -> 17 ;
18 [label="parch <= 0.5\ngini = 0.05\nsamples = 78\nvalue = [3, 113]\nclass = 1", fillcolor="#399de5f8"] ;
17 -> 18 ;
19 [label="gini = 0.081\nsamples = 48\nvalue = [3, 68]\nclass = 1", fillcolor="#399de5f4"] ;
18 -> 19 ;
20 [label="gini = 0.0\nsamples = 30\nvalue = [0, 45]\nclass = 1", fillcolor="#399de5ff"] ;
18 -> 20 ;
21 [label="sibsp <= 1.5\ngini = 0.208\nsamples = 60\nvalue = [12, 90]\nclass = 1", fillcolor="#399de5dd"] ;
17 -> 21 ;
22 [label="gini = 0.227\nsamples = 54\nvalue = [12, 80]\nclass = 1", fillcolor="#399de5d9"] ;
21 -> 22 ;
23 [label="gini = 0.0\nsamples = 6\nvalue = [0, 10]\nclass = 1", fillcolor="#399de5ff"] ;
21 -> 23 ;
24 [label="embarked <= 0.5\ngini = 0.498\nsamples = 107\nvalue = [82, 73]\nclass = 0", fillcolor="#e581391c"] ;
16 -> 24 ;
25 [label="fare <= 13.935\ngini = 0.33\nsamples = 15\nvalue = [5, 19]\nclass = 1", fillcolor="#399de5bc"] ;
24 -> 25 ;
26 [label="gini = 0.0\nsamples = 5\nvalue = [0, 10]\nclass = 1", fillcolor="#399de5ff"] ;
25 -> 26 ;
27 [label="gini = 0.459\nsamples = 10\nvalue = [5, 9]\nclass = 1", fillcolor="#399de571"] ;
25 -> 27 ;
28 [label="embarked <= 1.5\ngini = 0.485\nsamples = 92\nvalue = [77, 54]\nclass = 0", fillcolor="#e581394c"] ;
24 -> 28 ;
29 [label="gini = 0.5\nsamples = 17\nvalue = [13, 13]\nclass = 0", fillcolor="#e5813900"] ;
28 -> 29 ;
30 [label="gini = 0.476\nsamples = 75\nvalue = [64, 41]\nclass = 0", fillcolor="#e581395c"] ;
28 -> 30 ;
{rank=same ; 0} ;
{rank=same ; 1; 16} ;
{rank=same ; 2; 9; 17; 24} ;
{rank=same ; 3; 6; 10; 13; 18; 21; 25; 28} ;
{rank=same ; 4; 5; 7; 8; 11; 12; 14; 15; 19; 20; 22; 23; 26; 27; 29; 30} ;
}