digraph Tree {
node [shape=box, style="filled", color="black"] ;
graph [ranksep=equally, splines=polyline] ;
0 [label="fare <= 36.125\ngini = 0.479\nsamples = 637\nvalue = [610, 403]\nclass = 0", fillcolor="#e5813957"] ;
1 [label="sex <= 0.5\ngini = 0.43\nsamples = 481\nvalue = [533, 242]\nclass = 0", fillcolor="#e581398b"] ;
0 -> 1 [labeldistance=2.5, labelangle=45, headlabel="True"] ;
2 [label="embarked <= 0.5\ngini = 0.297\nsamples = 324\nvalue = [428, 95]\nclass = 0", fillcolor="#e58139c6"] ;
1 -> 2 ;
3 [label="fare <= 7.562\ngini = 0.49\nsamples = 38\nvalue = [36, 27]\nclass = 0", fillcolor="#e5813940"] ;
2 -> 3 ;
4 [label="gini = 0.266\nsamples = 14\nvalue = [16, 3]\nclass = 0", fillcolor="#e58139cf"] ;
3 -> 4 ;
5 [label="gini = 0.496\nsamples = 24\nvalue = [20, 24]\nclass = 1", fillcolor="#399de52a"] ;
3 -> 5 ;
6 [label="age <= 1.5\ngini = 0.252\nsamples = 286\nvalue = [392, 68]\nclass = 0", fillcolor="#e58139d3"] ;
2 -> 6 ;
7 [label="gini = 0.0\nsamples = 5\nvalue = [0, 8]\nclass = 1", fillcolor="#399de5ff"] ;
6 -> 7 ;
8 [label="gini = 0.23\nsamples = 281\nvalue = [392, 60]\nclass = 0", fillcolor="#e58139d8"] ;
6 -> 8 ;
9 [label="pclass <= 2.5\ngini = 0.486\nsamples = 157\nvalue = [105, 147]\nclass = 1", fillcolor="#399de549"] ;
1 -> 9 ;
10 [label="parch <= 1.5\ngini = 0.221\nsamples = 59\nvalue = [12, 83]\nclass = 1", fillcolor="#399de5da"] ;
9 -> 10 ;
11 [label="gini = 0.269\nsamples = 50\nvalue = [12, 63]\nclass = 1", fillcolor="#399de5ce"] ;
10 -> 11 ;
12 [label="gini = 0.0\nsamples = 9\nvalue = [0, 20]\nclass = 1", fillcolor="#399de5ff"] ;
10 -> 12 ;
13 [label="sibsp <= 0.5\ngini = 0.483\nsamples = 98\nvalue = [93, 64]\nclass = 0", fillcolor="#e5813950"] ;
9 -> 13 ;
14 [label="gini = 0.5\nsamples = 56\nvalue = [41, 41]\nclass = 0", fillcolor="#e5813900"] ;
13 -> 14 ;
15 [label="gini = 0.425\nsamples = 42\nvalue = [52, 23]\nclass = 0", fillcolor="#e581398e"] ;
13 -> 15 ;
16 [label="sibsp <= 3.5\ngini = 0.438\nsamples = 156\nvalue = [77, 161]\nclass = 1", fillcolor="#399de585"] ;
0 -> 16 [labeldistance=2.5, labelangle=-45, headlabel="False"] ;
17 [label="sex <= 0.5\ngini = 0.42\nsamples = 149\nvalue = [69, 161]\nclass = 1", fillcolor="#399de592"] ;
16 -> 17 ;
18 [label="pclass <= 2.5\ngini = 0.463\nsamples = 68\nvalue = [68, 39]\nclass = 0", fillcolor="#e581396d"] ;
17 -> 18 ;
19 [label="gini = 0.453\nsamples = 64\nvalue = [62, 33]\nclass = 0", fillcolor="#e5813977"] ;
18 -> 19 ;
20 [label="gini = 0.5\nsamples = 4\nvalue = [6, 6]\nclass = 0", fillcolor="#e5813900"] ;
18 -> 20 ;
21 [label="age <= 40.5\ngini = 0.016\nsamples = 81\nvalue = [1, 122]\nclass = 1", fillcolor="#399de5fd"] ;
17 -> 21 ;
22 [label="gini = 0.0\nsamples = 55\nvalue = [0, 86]\nclass = 1", fillcolor="#399de5ff"] ;
21 -> 22 ;
23 [label="gini = 0.053\nsamples = 26\nvalue = [1, 36]\nclass = 1", fillcolor="#399de5f8"] ;
21 -> 23 ;
24 [label="gini = 0.0\nsamples = 7\nvalue = [8, 0]\nclass = 0", fillcolor="#e58139ff"] ;
16 -> 24 ;
{rank=same ; 0} ;
{rank=same ; 1; 16} ;
{rank=same ; 2; 9; 17} ;
{rank=same ; 3; 6; 10; 13; 18; 21} ;
{rank=same ; 4; 5; 7; 8; 11; 12; 14; 15; 19; 20; 22; 23; 24} ;
}