digraph Tree {
node [shape=box, style="filled", color="black"] ;
graph [ranksep=equally, splines=polyline] ;
0 [label="pclass <= 1.5\ngini = 0.491\nsamples = 620\nvalue = [575, 438]\nclass = 0", fillcolor="#e581393d"] ;
1 [label="embarked <= 1.5\ngini = 0.457\nsamples = 170\nvalue = [99, 181]\nclass = 1", fillcolor="#399de574"] ;
0 -> 1 [labeldistance=2.5, labelangle=45, headlabel="True"] ;
2 [label="parch <= 2.5\ngini = 0.405\nsamples = 92\nvalue = [44, 112]\nclass = 1", fillcolor="#399de59b"] ;
1 -> 2 ;
3 [label="fare <= 26.275\ngini = 0.401\nsamples = 91\nvalue = [43, 112]\nclass = 1", fillcolor="#399de59d"] ;
2 -> 3 ;
4 [label="gini = 0.0\nsamples = 1\nvalue = [2, 0]\nclass = 0", fillcolor="#e58139ff"] ;
3 -> 4 ;
5 [label="gini = 0.392\nsamples = 90\nvalue = [41, 112]\nclass = 1", fillcolor="#399de5a2"] ;
3 -> 5 ;
6 [label="gini = 0.0\nsamples = 1\nvalue = [1, 0]\nclass = 0", fillcolor="#e58139ff"] ;
2 -> 6 ;
7 [label="sex <= 0.5\ngini = 0.494\nsamples = 78\nvalue = [55, 69]\nclass = 1", fillcolor="#399de534"] ;
1 -> 7 ;
8 [label="age <= 45.5\ngini = 0.309\nsamples = 42\nvalue = [55, 13]\nclass = 0", fillcolor="#e58139c3"] ;
7 -> 8 ;
9 [label="gini = 0.426\nsamples = 23\nvalue = [27, 12]\nclass = 0", fillcolor="#e581398e"] ;
8 -> 9 ;
10 [label="gini = 0.067\nsamples = 19\nvalue = [28, 1]\nclass = 0", fillcolor="#e58139f6"] ;
8 -> 10 ;
11 [label="gini = 0.0\nsamples = 36\nvalue = [0, 56]\nclass = 1", fillcolor="#399de5ff"] ;
7 -> 11 ;
12 [label="parch <= 0.5\ngini = 0.455\nsamples = 450\nvalue = [476, 257]\nclass = 0", fillcolor="#e5813975"] ;
0 -> 12 [labeldistance=2.5, labelangle=-45, headlabel="False"] ;
13 [label="sibsp <= 2.5\ngini = 0.391\nsamples = 322\nvalue = [389, 141]\nclass = 0", fillcolor="#e58139a3"] ;
12 -> 13 ;
14 [label="sex <= 0.5\ngini = 0.387\nsamples = 319\nvalue = [388, 138]\nclass = 0", fillcolor="#e58139a4"] ;
13 -> 14 ;
15 [label="gini = 0.267\nsamples = 242\nvalue = [328, 62]\nclass = 0", fillcolor="#e58139cf"] ;
14 -> 15 ;
16 [label="gini = 0.493\nsamples = 77\nvalue = [60, 76]\nclass = 1", fillcolor="#399de536"] ;
14 -> 16 ;
17 [label="sex <= 0.5\ngini = 0.375\nsamples = 3\nvalue = [1, 3]\nclass = 1", fillcolor="#399de5aa"] ;
13 -> 17 ;
18 [label="gini = 0.0\nsamples = 1\nvalue = [1, 0]\nclass = 0", fillcolor="#e58139ff"] ;
17 -> 18 ;
19 [label="gini = 0.0\nsamples = 2\nvalue = [0, 3]\nclass = 1", fillcolor="#399de5ff"] ;
17 -> 19 ;
20 [label="embarked <= 0.5\ngini = 0.49\nsamples = 128\nvalue = [87, 116]\nclass = 1", fillcolor="#399de540"] ;
12 -> 20 ;
21 [label="age <= 5.0\ngini = 0.18\nsamples = 19\nvalue = [3, 27]\nclass = 1", fillcolor="#399de5e3"] ;
20 -> 21 ;
22 [label="gini = 0.0\nsamples = 7\nvalue = [0, 13]\nclass = 1", fillcolor="#399de5ff"] ;
21 -> 22 ;
23 [label="gini = 0.291\nsamples = 12\nvalue = [3, 14]\nclass = 1", fillcolor="#399de5c8"] ;
21 -> 23 ;
24 [label="parch <= 3.5\ngini = 0.5\nsamples = 109\nvalue = [84, 89]\nclass = 1", fillcolor="#399de50e"] ;
20 -> 24 ;
25 [label="gini = 0.496\nsamples = 101\nvalue = [73, 88]\nclass = 1", fillcolor="#399de52b"] ;
24 -> 25 ;
26 [label="gini = 0.153\nsamples = 8\nvalue = [11, 1]\nclass = 0", fillcolor="#e58139e8"] ;
24 -> 26 ;
{rank=same ; 0} ;
{rank=same ; 1; 12} ;
{rank=same ; 2; 7; 13; 20} ;
{rank=same ; 3; 8; 14; 17; 21; 24} ;
{rank=same ; 4; 5; 6; 9; 10; 11; 15; 16; 18; 19; 22; 23; 25; 26} ;
}