digraph Tree {
node [shape=box, style="filled", color="black"] ;
graph [ranksep=equally, splines=polyline] ;
0 [label="fare <= 48.302\ngini = 0.481\nsamples = 626\nvalue = [606, 407]\nclass = 0", fillcolor="#e5813954"] ;
1 [label="sex <= 0.5\ngini = 0.439\nsamples = 506\nvalue = [551, 265]\nclass = 0", fillcolor="#e5813984"] ;
0 -> 1 [labeldistance=2.5, labelangle=45, headlabel="True"] ;
2 [label="parch <= 0.5\ngini = 0.312\nsamples = 350\nvalue = [455, 109]\nclass = 0", fillcolor="#e58139c2"] ;
1 -> 2 ;
3 [label="age <= 15.0\ngini = 0.278\nsamples = 294\nvalue = [389, 78]\nclass = 0", fillcolor="#e58139cc"] ;
2 -> 3 ;
4 [label="gini = 0.32\nsamples = 3\nvalue = [1, 4]\nclass = 1", fillcolor="#399de5bf"] ;
3 -> 4 ;
5 [label="gini = 0.269\nsamples = 291\nvalue = [388, 74]\nclass = 0", fillcolor="#e58139ce"] ;
3 -> 5 ;
6 [label="fare <= 19.5\ngini = 0.435\nsamples = 56\nvalue = [66, 31]\nclass = 0", fillcolor="#e5813987"] ;
2 -> 6 ;
7 [label="gini = 0.488\nsamples = 15\nvalue = [11, 15]\nclass = 1", fillcolor="#399de544"] ;
6 -> 7 ;
8 [label="gini = 0.349\nsamples = 41\nvalue = [55, 16]\nclass = 0", fillcolor="#e58139b5"] ;
6 -> 8 ;
9 [label="pclass <= 2.5\ngini = 0.472\nsamples = 156\nvalue = [96, 156]\nclass = 1", fillcolor="#399de562"] ;
1 -> 9 ;
10 [label="age <= 25.0\ngini = 0.182\nsamples = 64\nvalue = [10, 89]\nclass = 1", fillcolor="#399de5e2"] ;
9 -> 10 ;
11 [label="gini = 0.0\nsamples = 25\nvalue = [0, 39]\nclass = 1", fillcolor="#399de5ff"] ;
10 -> 11 ;
12 [label="gini = 0.278\nsamples = 39\nvalue = [10, 50]\nclass = 1", fillcolor="#399de5cc"] ;
10 -> 12 ;
13 [label="fare <= 7.729\ngini = 0.492\nsamples = 92\nvalue = [86, 67]\nclass = 0", fillcolor="#e5813938"] ;
9 -> 13 ;
14 [label="gini = 0.245\nsamples = 12\nvalue = [3, 18]\nclass = 1", fillcolor="#399de5d4"] ;
13 -> 14 ;
15 [label="gini = 0.467\nsamples = 80\nvalue = [83, 49]\nclass = 0", fillcolor="#e5813968"] ;
13 -> 15 ;
16 [label="sex <= 0.5\ngini = 0.402\nsamples = 120\nvalue = [55, 142]\nclass = 1", fillcolor="#399de59c"] ;
0 -> 16 [labeldistance=2.5, labelangle=-45, headlabel="False"] ;
17 [label="embarked <= 1.5\ngini = 0.467\nsamples = 55\nvalue = [54, 32]\nclass = 0", fillcolor="#e5813968"] ;
16 -> 17 ;
18 [label="fare <= 58.41\ngini = 0.429\nsamples = 26\nvalue = [31, 14]\nclass = 0", fillcolor="#e581398c"] ;
17 -> 18 ;
19 [label="gini = 0.0\nsamples = 2\nvalue = [0, 4]\nclass = 1", fillcolor="#399de5ff"] ;
18 -> 19 ;
20 [label="gini = 0.369\nsamples = 24\nvalue = [31, 10]\nclass = 0", fillcolor="#e58139ad"] ;
18 -> 20 ;
21 [label="fare <= 80.754\ngini = 0.493\nsamples = 29\nvalue = [23, 18]\nclass = 0", fillcolor="#e5813937"] ;
17 -> 21 ;
22 [label="gini = 0.245\nsamples = 17\nvalue = [18, 3]\nclass = 0", fillcolor="#e58139d4"] ;
21 -> 22 ;
23 [label="gini = 0.375\nsamples = 12\nvalue = [5, 15]\nclass = 1", fillcolor="#399de5aa"] ;
21 -> 23 ;
24 [label="fare <= 216.64\ngini = 0.018\nsamples = 65\nvalue = [1, 110]\nclass = 1", fillcolor="#399de5fd"] ;
16 -> 24 ;
25 [label="gini = 0.0\nsamples = 52\nvalue = [0, 87]\nclass = 1", fillcolor="#399de5ff"] ;
24 -> 25 ;
26 [label="fare <= 224.652\ngini = 0.08\nsamples = 13\nvalue = [1, 23]\nclass = 1", fillcolor="#399de5f4"] ;
24 -> 26 ;
27 [label="gini = 0.444\nsamples = 2\nvalue = [1, 2]\nclass = 1", fillcolor="#399de57f"] ;
26 -> 27 ;
28 [label="gini = 0.0\nsamples = 11\nvalue = [0, 21]\nclass = 1", fillcolor="#399de5ff"] ;
26 -> 28 ;
{rank=same ; 0} ;
{rank=same ; 1; 16} ;
{rank=same ; 2; 9; 17; 24} ;
{rank=same ; 3; 6; 10; 13; 18; 21; 26} ;
{rank=same ; 4; 5; 7; 8; 11; 12; 14; 15; 19; 20; 22; 23; 25; 27; 28} ;
}