digraph Tree {
node [shape=box, style="filled", color="black"] ;
graph [ranksep=equally, splines=polyline] ;
0 [label="fare <= 52.277\ngini = 0.485\nsamples = 649\nvalue = [593, 420]\nclass = 0", fillcolor="#e581394a"] ;
1 [label="embarked <= 0.5\ngini = 0.459\nsamples = 529\nvalue = [530, 293]\nclass = 0", fillcolor="#e5813972"] ;
0 -> 1 [labeldistance=2.5, labelangle=45, headlabel="True"] ;
2 [label="parch <= 0.5\ngini = 0.481\nsamples = 70\nvalue = [39, 58]\nclass = 1", fillcolor="#399de554"] ;
1 -> 2 ;
3 [label="sex <= 0.5\ngini = 0.498\nsamples = 54\nvalue = [34, 38]\nclass = 1", fillcolor="#399de51b"] ;
2 -> 3 ;
4 [label="gini = 0.434\nsamples = 35\nvalue = [30, 14]\nclass = 0", fillcolor="#e5813988"] ;
3 -> 4 ;
5 [label="gini = 0.245\nsamples = 19\nvalue = [4, 24]\nclass = 1", fillcolor="#399de5d4"] ;
3 -> 5 ;
6 [label="age <= 42.0\ngini = 0.32\nsamples = 16\nvalue = [5, 20]\nclass = 1", fillcolor="#399de5bf"] ;
2 -> 6 ;
7 [label="gini = 0.227\nsamples = 15\nvalue = [3, 20]\nclass = 1", fillcolor="#399de5d9"] ;
6 -> 7 ;
8 [label="gini = 0.0\nsamples = 1\nvalue = [2, 0]\nclass = 0", fillcolor="#e58139ff"] ;
6 -> 8 ;
9 [label="age <= 5.5\ngini = 0.438\nsamples = 459\nvalue = [491, 235]\nclass = 0", fillcolor="#e5813985"] ;
1 -> 9 ;
10 [label="pclass <= 2.5\ngini = 0.411\nsamples = 27\nvalue = [13, 32]\nclass = 1", fillcolor="#399de597"] ;
9 -> 10 ;
11 [label="gini = 0.0\nsamples = 9\nvalue = [0, 14]\nclass = 1", fillcolor="#399de5ff"] ;
10 -> 11 ;
12 [label="gini = 0.487\nsamples = 18\nvalue = [13, 18]\nclass = 1", fillcolor="#399de547"] ;
10 -> 12 ;
13 [label="sex <= 0.5\ngini = 0.418\nsamples = 432\nvalue = [478, 203]\nclass = 0", fillcolor="#e5813993"] ;
9 -> 13 ;
14 [label="gini = 0.252\nsamples = 304\nvalue = [403, 70]\nclass = 0", fillcolor="#e58139d3"] ;
13 -> 14 ;
15 [label="gini = 0.461\nsamples = 128\nvalue = [75, 133]\nclass = 1", fillcolor="#399de56f"] ;
13 -> 15 ;
16 [label="sex <= 0.5\ngini = 0.443\nsamples = 120\nvalue = [63, 127]\nclass = 1", fillcolor="#399de581"] ;
0 -> 16 [labeldistance=2.5, labelangle=-45, headlabel="False"] ;
17 [label="fare <= 64.179\ngini = 0.42\nsamples = 60\nvalue = [63, 27]\nclass = 0", fillcolor="#e5813992"] ;
16 -> 17 ;
18 [label="sibsp <= 0.5\ngini = 0.497\nsamples = 19\nvalue = [13, 15]\nclass = 1", fillcolor="#399de522"] ;
17 -> 18 ;
19 [label="gini = 0.42\nsamples = 6\nvalue = [3, 7]\nclass = 1", fillcolor="#399de592"] ;
18 -> 19 ;
20 [label="gini = 0.494\nsamples = 13\nvalue = [10, 8]\nclass = 0", fillcolor="#e5813933"] ;
18 -> 20 ;
21 [label="pclass <= 1.5\ngini = 0.312\nsamples = 41\nvalue = [50, 12]\nclass = 0", fillcolor="#e58139c2"] ;
17 -> 21 ;
22 [label="gini = 0.37\nsamples = 34\nvalue = [37, 12]\nclass = 0", fillcolor="#e58139ac"] ;
21 -> 22 ;
23 [label="gini = 0.0\nsamples = 7\nvalue = [13, 0]\nclass = 0", fillcolor="#e58139ff"] ;
21 -> 23 ;
24 [label="gini = 0.0\nsamples = 60\nvalue = [0, 100]\nclass = 1", fillcolor="#399de5ff"] ;
16 -> 24 ;
{rank=same ; 0} ;
{rank=same ; 1; 16} ;
{rank=same ; 2; 9; 17} ;
{rank=same ; 3; 6; 10; 13; 18; 21} ;
{rank=same ; 4; 5; 7; 8; 11; 12; 14; 15; 19; 20; 22; 23; 24} ;
}