digraph Tree {
node [shape=box, style="filled", color="black"] ;
graph [ranksep=equally, splines=polyline] ;
0 [label="sex <= 0.5\ngini = 0.479\nsamples = 654\nvalue = [610, 403]\nclass = 0", fillcolor="#e5813957"] ;
1 [label="age <= 14.5\ngini = 0.323\nsamples = 416\nvalue = [508, 129]\nclass = 0", fillcolor="#e58139be"] ;
0 -> 1 [labeldistance=2.5, labelangle=45, headlabel="True"] ;
2 [label="fare <= 20.825\ngini = 0.496\nsamples = 33\nvalue = [21, 25]\nclass = 1", fillcolor="#399de529"] ;
1 -> 2 ;
3 [label="parch <= 0.5\ngini = 0.236\nsamples = 16\nvalue = [3, 19]\nclass = 1", fillcolor="#399de5d7"] ;
2 -> 3 ;
4 [label="gini = 0.0\nsamples = 1\nvalue = [0, 2]\nclass = 1", fillcolor="#399de5ff"] ;
3 -> 4 ;
5 [label="gini = 0.255\nsamples = 15\nvalue = [3, 17]\nclass = 1", fillcolor="#399de5d2"] ;
3 -> 5 ;
6 [label="parch <= 1.5\ngini = 0.375\nsamples = 17\nvalue = [18, 6]\nclass = 0", fillcolor="#e58139aa"] ;
2 -> 6 ;
7 [label="gini = 0.0\nsamples = 6\nvalue = [9, 0]\nclass = 0", fillcolor="#e58139ff"] ;
6 -> 7 ;
8 [label="gini = 0.48\nsamples = 11\nvalue = [9, 6]\nclass = 0", fillcolor="#e5813955"] ;
6 -> 8 ;
9 [label="embarked <= 0.5\ngini = 0.29\nsamples = 383\nvalue = [487, 104]\nclass = 0", fillcolor="#e58139c9"] ;
1 -> 9 ;
10 [label="sibsp <= 0.5\ngini = 0.442\nsamples = 66\nvalue = [67, 33]\nclass = 0", fillcolor="#e5813981"] ;
9 -> 10 ;
11 [label="gini = 0.456\nsamples = 47\nvalue = [48, 26]\nclass = 0", fillcolor="#e5813975"] ;
10 -> 11 ;
12 [label="gini = 0.393\nsamples = 19\nvalue = [19, 7]\nclass = 0", fillcolor="#e58139a1"] ;
10 -> 12 ;
13 [label="parch <= 1.5\ngini = 0.247\nsamples = 317\nvalue = [420, 71]\nclass = 0", fillcolor="#e58139d4"] ;
9 -> 13 ;
14 [label="gini = 0.253\nsamples = 309\nvalue = [406, 71]\nclass = 0", fillcolor="#e58139d2"] ;
13 -> 14 ;
15 [label="gini = 0.0\nsamples = 8\nvalue = [14, 0]\nclass = 0", fillcolor="#e58139ff"] ;
13 -> 15 ;
16 [label="embarked <= 0.5\ngini = 0.395\nsamples = 238\nvalue = [102, 274]\nclass = 1", fillcolor="#399de5a0"] ;
0 -> 16 [labeldistance=2.5, labelangle=-45, headlabel="False"] ;
17 [label="age <= 37.0\ngini = 0.05\nsamples = 56\nvalue = [2, 76]\nclass = 1", fillcolor="#399de5f8"] ;
16 -> 17 ;
18 [label="pclass <= 2.5\ngini = 0.077\nsamples = 36\nvalue = [2, 48]\nclass = 1", fillcolor="#399de5f4"] ;
17 -> 18 ;
19 [label="gini = 0.056\nsamples = 25\nvalue = [1, 34]\nclass = 1", fillcolor="#399de5f8"] ;
18 -> 19 ;
20 [label="gini = 0.124\nsamples = 11\nvalue = [1, 14]\nclass = 1", fillcolor="#399de5ed"] ;
18 -> 20 ;
21 [label="gini = 0.0\nsamples = 20\nvalue = [0, 28]\nclass = 1", fillcolor="#399de5ff"] ;
17 -> 21 ;
22 [label="fare <= 49.45\ngini = 0.446\nsamples = 182\nvalue = [100, 198]\nclass = 1", fillcolor="#399de57e"] ;
16 -> 22 ;
23 [label="age <= 26.5\ngini = 0.485\nsamples = 146\nvalue = [99, 141]\nclass = 1", fillcolor="#399de54c"] ;
22 -> 23 ;
24 [label="gini = 0.451\nsamples = 85\nvalue = [47, 90]\nclass = 1", fillcolor="#399de57a"] ;
23 -> 24 ;
25 [label="gini = 0.5\nsamples = 61\nvalue = [52, 51]\nclass = 0", fillcolor="#e5813905"] ;
23 -> 25 ;
26 [label="parch <= 0.5\ngini = 0.034\nsamples = 36\nvalue = [1, 57]\nclass = 1", fillcolor="#399de5fb"] ;
22 -> 26 ;
27 [label="gini = 0.067\nsamples = 18\nvalue = [1, 28]\nclass = 1", fillcolor="#399de5f6"] ;
26 -> 27 ;
28 [label="gini = 0.0\nsamples = 18\nvalue = [0, 29]\nclass = 1", fillcolor="#399de5ff"] ;
26 -> 28 ;
{rank=same ; 0} ;
{rank=same ; 1; 16} ;
{rank=same ; 2; 9; 17; 22} ;
{rank=same ; 3; 6; 10; 13; 18; 23; 26} ;
{rank=same ; 4; 5; 7; 8; 11; 12; 14; 15; 19; 20; 21; 24; 25; 27; 28} ;
}